booster[0]:
0:[f16<0.0892000049] yes=1,no=2,missing=1
	1:[f10<0.315150023] yes=3,no=4,missing=3
		3:[f0<0.535600007] yes=7,no=8,missing=7
			7:leaf=0.451352984
			8:leaf=0.0363636389
		4:[f3<-0.0212000012] yes=9,no=10,missing=9
			9:leaf=0.180508494
			10:leaf=-0.318650097
	2:[f12<-0.882699966] yes=5,no=6,missing=5
		5:[f5<0.0388000011] yes=11,no=12,missing=11
			11:leaf=0.403053463
			12:leaf=-0.0512562841
		6:[f0<-0.737849951] yes=13,no=14,missing=13
			13:leaf=0.0537530296
			14:leaf=-0.398540169
booster[1]:
0:[f8<0.000149999993] yes=1,no=2,missing=1
	1:[f9<0.2148] yes=3,no=4,missing=3
		3:[f18<0.241300002] yes=7,no=8,missing=7
			7:leaf=0.446774095
			8:leaf=0.125846505
		4:[f1<-0.351050019] yes=9,no=10,missing=9
			9:leaf=0.246726274
			10:leaf=-0.208184525
	2:[f6<-0.0930500031] yes=5,no=6,missing=5
		5:[f2<-0.327449977] yes=11,no=12,missing=11
			11:leaf=0.311152756
			12:leaf=-0.153765127
		6:[f11<-0.304050028] yes=13,no=14,missing=13
			13:leaf=-0.11308711
			14:leaf=-0.440407872
booster[2]:
0:[f4<0.311049998] yes=1,no=2,missing=1
	1:[f14<0.509449959] yes=3,no=4,missing=3
		3:[f11<0.552000046] yes=7,no=8,missing=7
			7:leaf=0.347271234
			8:leaf=-0.00907527748
		4:[f19<0.168850005] yes=9,no=10,missing=9
			9:leaf=0.0460191593
			10:leaf=-0.326130301
	2:[f13<-0.307399988] yes=5,no=6,missing=5
		5:[f1<-0.214599997] yes=11,no=12,missing=11
			11:leaf=0.247641817
			12:leaf=-0.18089959
		6:[f18<-0.935600042] yes=13,no=14,missing=13
			13:leaf=0.0362902991
			14:leaf=-0.39019385
booster[3]:
0:[f7<0.243200004] yes=1,no=2,missing=1
	1:[f15<0.136449993] yes=3,no=4,missing=3
		3:[f6<0.549549997] yes=7,no=8,missing=7
			7:leaf=0.351798087
			8:leaf=0.0245086905
		4:[f18<-0.181349993] yes=9,no=10,missing=9
			9:leaf=0.170937434
			10:leaf=-0.209413543
	2:[f12<-0.272099972] yes=5,no=6,missing=5
		5:[f10<0.585500002] yes=11,no=12,missing=11
			11:leaf=0.159988284
			12:leaf=-0.288781077
		6:[f15<-0.448799998] yes=13,no=14,missing=13
			13:leaf=-0.107078999
			14:leaf=-0.385777056
booster[4]:
0:[f3<-0.00490000006] yes=1,no=2,missing=1
	1:[f0<0.327549994] yes=3,no=4,missing=3
		3:[f5<0.845149994] yes=7,no=8,missing=7
			7:leaf=0.323956966
			8:leaf=-0.0237114131
		4:[f18<0.24075] yes=9,no=10,missing=9
			9:leaf=0.115901172
			10:leaf=-0.248388961
	2:[f1<0.13319999] yes=5,no=6,missing=5
		5:[f5<-0.264599979] yes=11,no=12,missing=11
			11:leaf=0.206415802
			12:leaf=-0.148684636
		6:[f6<-0.592900038] yes=13,no=14,missing=13
			13:leaf=-0.0745741725
			14:leaf=-0.368818998
booster[5]:
0:[f19<0.215149999] yes=1,no=2,missing=1
	1:[f13<-0.0597499982] yes=3,no=4,missing=3
		3:[f8<0.685899973] yes=7,no=8,missing=7
			7:leaf=0.323751658
			8:leaf=0.046622593
		4:[f12<0.459600002] yes=9,no=10,missing=9
			9:leaf=0.101467267
			10:leaf=-0.239652738
	2:[f2<-0.456349999] yes=5,no=6,missing=5
		5:[f10<0.265150011] yes=11,no=12,missing=11
			11:leaf=0.172977
			12:leaf=-0.162947237
		6:[f6<-0.916800022] yes=13,no=14,missing=13
			13:leaf=0.0267216563
			14:leaf=-0.323073566
booster[6]:
0:[f17<-0.175550014] yes=1,no=2,missing=1
	1:[f14<0.480450004] yes=3,no=4,missing=3
		3:[f18<0.576900005] yes=7,no=8,missing=7
			7:leaf=0.306754321
			8:leaf=0.0336353593
		4:[f7<-0.357299984] yes=9,no=10,missing=9
			9:leaf=0.185226083
			10:leaf=-0.178149506
	2:[f14<-0.647650003] yes=5,no=6,missing=5
		5:[f9<0.42110002] yes=11,no=12,missing=11
			11:leaf=0.226682663
			12:leaf=-0.101113997
		6:[f16<-0.688000023] yes=13,no=14,missing=13
			13:leaf=0.0342680439
			14:leaf=-0.271573752
booster[7]:
0:[f10<-0.38409999] yes=1,no=2,missing=1
	1:[f3<0.707049966] yes=3,no=4,missing=3
		3:[f1<0.931599975] yes=7,no=8,missing=7
			7:leaf=0.290634632
			8:leaf=-0.0210279245
		4:[f11<0.39745] yes=9,no=10,missing=9
			9:leaf=0.101645567
			10:leaf=-0.281942636
	2:[f12<-0.196400002] yes=5,no=6,missing=5
		5:[f16<0.58525002] yes=11,no=12,missing=11
			11:leaf=0.158326238
			12:leaf=-0.189977184
		6:[f7<-0.857500017] yes=13,no=14,missing=13
			13:leaf=0.0451464728
			14:leaf=-0.256574631
booster[8]:
0:[f0<0.0278000012] yes=1,no=2,missing=1
	1:[f8<0.864500046] yes=3,no=4,missing=3
		3:[f4<0.785050035] yes=7,no=8,missing=7
			7:leaf=0.245468125
			8:leaf=-0.0318288393
		4:[f13<0.031750001] yes=9,no=10,missing=9
			9:leaf=0.0344232805
			10:leaf=-0.291106284
	2:[f9<-0.416949987] yes=5,no=6,missing=5
		5:[f15<0.728350043] yes=11,no=12,missing=11
			11:leaf=0.147406593
			12:leaf=-0.214214221
		6:[f8<-0.665250003] yes=13,no=14,missing=13
			13:leaf=0.0247895047
			14:leaf=-0.274444282
booster[9]:
0:[f2<-0.110699996] yes=1,no=2,missing=1
	1:[f7<0.99059999] yes=3,no=4,missing=3
		3:[f9<0.711199999] yes=7,no=8,missing=7
			7:leaf=0.239311382
			8:leaf=-0.0307680741
		4:[f11<-0.467449993] yes=9,no=10,missing=9
			9:leaf=0.106587268
			10:leaf=-0.253010154
	2:[f11<-0.507849991] yes=5,no=6,missing=5
		5:[f13<0.627950013] yes=11,no=12,missing=11
			11:leaf=0.175717205
			12:leaf=-0.15873079
		6:[f4<-1.22745001] yes=13,no=14,missing=13
			13:leaf=0.13805896
			14:leaf=-0.23010239
booster[10]:
0:[f6<0.192249998] yes=1,no=2,missing=1
	1:[f17<0.590399981] yes=3,no=4,missing=3
		3:[f5<0.408649981] yes=7,no=8,missing=7
			7:leaf=0.240395024
			8:leaf=0.0197567381
		4:[f10<-0.384950012] yes=9,no=10,missing=9
			9:leaf=0.0966222361
			10:leaf=-0.205043405
	2:[f1<-1.14604998] yes=5,no=6,missing=5
		5:[f15<0.224700004] yes=11,no=12,missing=11
			11:leaf=0.290636897
			12:leaf=-0.0211586151
		6:[f3<-0.626049995] yes=13,no=14,missing=13
			13:leaf=0.00984572433
			14:leaf=-0.24323754
booster[11]:
0:[f1<-0.266400009] yes=1,no=2,missing=1
	1:[f15<0.934599996] yes=3,no=4,missing=3
		3:[f16<1.36124992] yes=7,no=8,missing=7
			7:leaf=0.22075887
			8:leaf=-0.179183349
		4:[f16<-0.932200015] yes=9,no=10,missing=9
			9:leaf=0.204208955
			10:leaf=-0.215294346
	2:[f8<-0.48635] yes=5,no=6,missing=5
		5:[f10<0.708299994] yes=11,no=12,missing=11
			11:leaf=0.146729052
			12:leaf=-0.142250642
		6:[f5<-0.796299994] yes=13,no=14,missing=13
			13:leaf=0.0593694262
			14:leaf=-0.221069351
booster[12]:
0:[f19<-0.202549994] yes=1,no=2,missing=1
	1:[f11<0.519900024] yes=3,no=4,missing=3
		3:[f1<1.23444998] yes=7,no=8,missing=7
			7:leaf=0.235893071
			8:leaf=-0.0930334255
		4:[f2<-0.656350017] yes=9,no=10,missing=9
			9:leaf=0.203871295
			10:leaf=-0.147943199
	2:[f15<-0.769349992] yes=5,no=6,missing=5
		5:[f5<-0.268099993] yes=11,no=12,missing=11
			11:leaf=0.278977156
			12:leaf=0.00232547917
		6:[f13<-0.880200028] yes=13,no=14,missing=13
			13:leaf=0.074871406
			14:leaf=-0.199532598
booster[13]:
0:[f18<0.24075] yes=1,no=2,missing=1
	1:[f13<0.974300027] yes=3,no=4,missing=3
		3:[f3<0.382149994] yes=7,no=8,missing=7
			7:leaf=0.218593523
			8:leaf=-0.019627979
		4:[f14<-0.743900001] yes=9,no=10,missing=9
			9:leaf=0.0978943408
			10:leaf=-0.229388013
	2:[f17<-0.948400021] yes=5,no=6,missing=5
		5:[f12<0.708299994] yes=11,no=12,missing=11
			11:leaf=0.198742151
			12:leaf=-0.128766999
		6:[f4<-0.488099992] yes=13,no=14,missing=13
			13:leaf=-0.00843848009
			14:leaf=-0.244754449
booster[14]:
0:[f14<0.47025001] yes=1,no=2,missing=1
	1:[f16<-0.418349981] yes=3,no=4,missing=3
		3:[f19<1.21259999] yes=7,no=8,missing=7
			7:leaf=0.242569879
			8:leaf=-0.0665042177
		4:[f6<-0.647799969] yes=9,no=10,missing=9
			9:leaf=0.167182863
			10:leaf=-0.0793018341
	2:[f8<-1.07995009] yes=5,no=6,missing=5
		5:[f7<0.623800039] yes=11,no=12,missing=11
			11:leaf=0.207494855
			12:leaf=-0.184284642
		6:[f9<-0.291899979] yes=13,no=14,missing=13
			13:leaf=-0.0654287711
			14:leaf=-0.260169268
booster[15]:
0:[f7<0.586699963] yes=1,no=2,missing=1
	1:[f12<-0.0326500013] yes=3,no=4,missing=3
		3:[f0<0.380050004] yes=7,no=8,missing=7
			7:leaf=0.233696252
			8:leaf=0.023547465
		4:[f10<-0.767699957] yes=9,no=10,missing=9
			9:leaf=0.172387972
			10:leaf=-0.107275009
	2:[f13<-0.656449974] yes=5,no=6,missing=5
		5:[f17<-0.439999998] yes=11,no=12,missing=11
			11:leaf=0.250383347
			12:leaf=-0.0656327009
		6:[f9<-1.29904997] yes=13,no=14,missing=13
			13:leaf=0.08163739
			14:leaf=-0.242887825
booster[16]:
0:[f2<0.784450054] yes=1,no=2,missing=1
	1:[f5<0.114250004] yes=3,no=4,missing=3
		3:[f11<0.230800003] yes=7,no=8,missing=7
			7:leaf=0.220186979
			8:leaf=0.0200046226
		4:[f17<-0.587300003] yes=9,no=10,missing=9
			9:leaf=0.105772808
			10:leaf=-0.118566394
	2:[f16<-0.956149995] yes=5,no=6,missing=5
		5:[f6<0.0177000016] yes=11,no=12,missing=11
			11:leaf=0.235137478
			12:leaf=-0.0684630573
		6:[f4<-1.29775] yes=13,no=14,missing=13
			13:leaf=0.0767133012
			14:leaf=-0.253863662
booster[17]:
0:[f18<-0.781700015] yes=1,no=2,missing=1
	1:[f8<1.4332] yes=3,no=4,missing=3
		3:[f15<0.610849977] yes=7,no=8,missing=7
			7:leaf=0.25688839
			8:leaf=0.0212947018
		4:[f0<-0.856700003] yes=9,no=10,missing=9
			9:leaf=0.207054093
			10:leaf=-0.263276666
	2:[f3<-0.609599948] yes=5,no=6,missing=5
		5:[f15<1.08684993] yes=11,no=12,missing=11
			11:leaf=0.150422662
			12:leaf=-0.16583468
		6:[f13<-1.17020011] yes=13,no=14,missing=13
			13:leaf=0.153477922
			14:leaf=-0.14875932
booster[18]:
0:[f9<0.394800007] yes=1,no=2,missing=1
	1:[f12<-0.687100053] yes=3,no=4,missing=3
		3:[f17<0.943549991] yes=7,no=8,missing=7
			7:leaf=0.255856901
			8:leaf=-0.0318429284
		4:[f1<-0.529049993] yes=9,no=10,missing=9
			9:leaf=0.162993729
			10:leaf=-0.0485201217
	2:[f14<-0.730599999] yes=5,no=6,missing=5
		5:[f16<0.540250003] yes=11,no=12,missing=11
			11:leaf=0.159637749
			12:leaf=-0.134386852
		6:[f0<-0.520799994] yes=13,no=14,missing=13
			13:leaf=-0.00999031588
			14:leaf=-0.232238159
booster[19]:
0:[f4<-0.0231999997] yes=1,no=2,missing=1
	1:[f8<0.500399947] yes=3,no=4,missing=3
		3:[f2<0.718349993] yes=7,no=8,missing=7
			7:leaf=0.203269929
			8:leaf=-0.0204644445
		4:[f19<-0.724300027] yes=9,no=10,missing=9
			9:leaf=0.148609608
			10:leaf=-0.115386732
	2:[f3<0.476599991] yes=5,no=6,missing=5
		5:[f15<0.235300004] yes=11,no=12,missing=11
			11:leaf=0.0615258031
			12:leaf=-0.138743609
		6:[f7<-1.46740007] yes=13,no=14,missing=13
			13:leaf=0.168618411
			14:leaf=-0.245526806
booster[20]:
0:[f10<-0.742249966] yes=1,no=2,missing=1
	1:[f19<0.707149982] yes=3,no=4,missing=3
		3:[f4<0.422850013] yes=7,no=8,missing=7
			7:leaf=0.267234921
			8:leaf=0.0636297315
		4:[f1<-0.0360499993] yes=9,no=10,missing=9
			9:leaf=0.11720892
			10:leaf=-0.18908532
	2:[f2<-0.614300013] yes=5,no=6,missing=5
		5:[f5<0.894899964] yes=11,no=12,missing=11
			11:leaf=0.149365678
			12:leaf=-0.125198945
		6:[f14<-0.413349986] yes=13,no=14,missing=13
			13:leaf=0.0203414876
			14:leaf=-0.172071517
booster[21]:
0:[f7<-0.357199997] yes=1,no=2,missing=1
	1:[f1<0.81554997] yes=3,no=4,missing=3
		3:[f17<1.00870001] yes=7,no=8,missing=7
			7:leaf=0.19641386
			8:leaf=-0.0499088131
		4:[f6<-0.509599984] yes=9,no=10,missing=9
			9:leaf=0.119023345
			10:leaf=-0.177127302
	2:[f15<-0.548400044] yes=5,no=6,missing=5
		5:[f12<0.380249977] yes=11,no=12,missing=11
			11:leaf=0.146682262
			12:leaf=-0.0934612751
		6:[f11<-0.0888999999] yes=13,no=14,missing=13
			13:leaf=-0.0238907784
			14:leaf=-0.1961229
booster[22]:
0:[f13<-0.2861] yes=1,no=2,missing=1
	1:[f6<1.50469995] yes=3,no=4,missing=3
		3:[f17<0.676849961] yes=7,no=8,missing=7
			7:leaf=0.179913253
			8:leaf=-0.0255979449
		4:[f8<-0.347849995] yes=9,no=10,missing=9
			9:leaf=-0.0190189146
			10:leaf=-0.3097803
	2:[f8<-0.582249999] yes=5,no=6,missing=5
		5:[f9<-0.09815] yes=11,no=12,missing=11
			11:leaf=0.182583734
			12:leaf=-0.0369321741
		6:[f16<-1.03600001] yes=13,no=14,missing=13
			13:leaf=0.0955046192
			14:leaf=-0.156792611
booster[23]:
0:[f19<0.53884995] yes=1,no=2,missing=1
	1:[f6<0.185249999] yes=3,no=4,missing=3
		3:[f0<-0.0423999988] yes=7,no=8,missing=7
			7:leaf=0.215699837
			8:leaf=0.0286283623
		4:[f1<0.569249988] yes=9,no=10,missing=9
			9:leaf=0.0243002418
			10:leaf=-0.204690427
	2:[f5<0.820600033] yes=5,no=6,missing=5
		5:[f2<-1.59809995] yes=11,no=12,missing=11
			11:leaf=0.244359955
			12:leaf=-0.097396493
		6:[f8<-1.53340006] yes=13,no=14,missing=13
			13:leaf=-0.0113078877
			14:leaf=-0.299740344
booster[24]:
0:[f18<0.636500001] yes=1,no=2,missing=1
	1:[f16<-0.268949986] yes=3,no=4,missing=3
		3:[f3<1.17149997] yes=7,no=8,missing=7
			7:leaf=0.193560734
			8:leaf=-0.105428688
		4:[f1<1.10505009] yes=9,no=10,missing=9
			9:leaf=0.0242258813
			10:leaf=-0.226922587
	2:[f12<-0.8926] yes=5,no=6,missing=5
		5:[f0<1.28125] yes=11,no=12,missing=11
			11:leaf=0.133096039
			12:leaf=-0.228406861
		6:[f9<-1.33165002] yes=13,no=14,missing=13
			13:leaf=0.111754365
			14:leaf=-0.202706501
booster[25]:
0:[f10<1.00674999] yes=1,no=2,missing=1
	1:[f11<0.675949991] yes=3,no=4,missing=3
		3:[f8<1.11345005] yes=7,no=8,missing=7
			7:leaf=0.121925518
			8:leaf=-0.131154209
		4:[f12<0.920699954] yes=9,no=10,missing=9
			9:leaf=-0.0523755029
			10:leaf=-0.296220452
	2:[f4<-0.997550011] yes=5,no=6,missing=5
		5:[f16<0.695050001] yes=11,no=12,missing=11
			11:leaf=0.159601584
			12:leaf=-0.184753984
		6:[f1<-1.36129999] yes=13,no=14,missing=13
			13:leaf=0.12916021
			14:leaf=-0.242607608
booster[26]:
0:[f14<0.480450004] yes=1,no=2,missing=1
	1:[f5<0.85315001] yes=3,no=4,missing=3
		3:[f7<1.03579998] yes=7,no=8,missing=7
			7:leaf=0.134265676
			8:leaf=-0.100577243
		4:[f3<0.420749992] yes=9,no=10,missing=9
			9:leaf=-0.0238267072
			10:leaf=-0.236457154
	2:[f17<-1.0151999] yes=5,no=6,missing=5
		5:[f1<0.850499988] yes=11,no=12,missing=11
			11:leaf=0.162466675
			12:leaf=-0.207846403
		6:[f4<-0.265100002] yes=13,no=14,missing=13
			13:leaf=-0.0296348706
			14:leaf=-0.223651156
booster[27]:
0:[f15<0.4023] yes=1,no=2,missing=1
	1:[f19<0.718649983] yes=3,no=4,missing=3
		3:[f1<1.58640003] yes=7,no=8,missing=7
			7:leaf=0.117340066
			8:leaf=-0.222990051
		4:[f13<-0.464049995] yes=9,no=10,missing=9
			9:leaf=0.0713141188
			10:leaf=-0.161027476
	2:[f17<-0.607299984] yes=5,no=6,missing=5
		5:[f8<-0.275699973] yes=11,no=12,missing=11
			11:leaf=0.194121361
			12:leaf=-0.0599267334
		6:[f4<-0.623149991] yes=13,no=14,missing=13
			13:leaf=0.000172816159
			14:leaf=-0.214567363
booster[28]:
0:[f3<-1.42199993] yes=1,no=2,missing=1
	1:[f5<1.65105009] yes=3,no=4,missing=3
		3:[f13<0.785300016] yes=7,no=8,missing=7
			7:leaf=0.31593281
			8:leaf=0.0160560813
		4:leaf=-0.163108259
	2:[f0<-1.27460003] yes=5,no=6,missing=5
		5:[f11<1.31104994] yes=9,no=10,missing=9
			9:leaf=0.227118775
			10:leaf=-0.140962631
		6:[f5<-0.872850001] yes=11,no=12,missing=11
			11:leaf=0.103807151
			12:leaf=-0.0887698829
booster[29]:
0:[f2<-1.20705009] yes=1,no=2,missing=1
	1:[f19<1.79445004] yes=3,no=4,missing=3
		3:[f16<1.68000007] yes=7,no=8,missing=7
			7:leaf=0.230314538
			8:leaf=-0.19899486
		4:[f2<-1.51005006] yes=9,no=10,missing=9
			9:leaf=-0.0691887289
			10:leaf=-0.312881202
	2:[f18<-0.974849999] yes=5,no=6,missing=5
		5:[f3<1.59019995] yes=11,no=12,missing=11
			11:leaf=0.167118967
			12:leaf=-0.273482949
		6:[f9<-0.356450021] yes=13,no=14,missing=13
			13:leaf=0.0338867009
			14:leaf=-0.122514062
booster[30]:
0:[f7<-0.872249961] yes=1,no=2,missing=1
	1:[f9<-0.27274999] yes=3,no=4,missing=3
		3:[f12<1.76744998] yes=7,no=8,missing=7
			7:leaf=0.276985019
			8:leaf=-0.0893158168
		4:[f14<-0.30855] yes=9,no=10,missing=9
			9:leaf=0.182571441
			10:leaf=-0.0473166183
	2:[f12<0.358150005] yes=5,no=6,missing=5
		5:[f1<-0.580749989] yes=11,no=12,missing=11
			11:leaf=0.170844078
			12:leaf=-0.0340035036
		6:[f15<-1.15474999] yes=13,no=14,missing=13
			13:leaf=0.101018287
			14:leaf=-0.169831187
booster[31]:
0:[f8<0.264849991] yes=1,no=2,missing=1
	1:[f3<0.599150002] yes=3,no=4,missing=3
		3:[f1<0.96724999] yes=7,no=8,missing=7
			7:leaf=0.144126073
			8:leaf=-0.0553634502
		4:[f14<-0.72694999] yes=9,no=10,missing=9
			9:leaf=0.146916717
			10:leaf=-0.123430736
	2:[f14<0.715049982] yes=5,no=6,missing=5
		5:[f5<0.711750031] yes=11,no=12,missing=11
			11:leaf=0.0172981285
			12:leaf=-0.183058068
		6:[f19<-1.75950003] yes=13,no=14,missing=13
			13:leaf=0.219674498
			14:leaf=-0.258483231
booster[32]:
0:[f13<0.958700001] yes=1,no=2,missing=1
	1:[f4<0.116950005] yes=3,no=4,missing=3
		3:[f18<0.647300005] yes=7,no=8,missing=7
			7:leaf=0.148806125
			8:leaf=-0.0443779081
		4:[f6<-0.549250007] yes=9,no=10,missing=9
			9:leaf=0.0845695958
			10:leaf=-0.0994130448
	2:[f10<-1.34820008] yes=5,no=6,missing=5
		5:[f7<-0.470449984] yes=11,no=12,missing=11
			11:leaf=0.251011848
			12:leaf=0.0155335376
		6:[f14<-1.00819993] yes=13,no=14,missing=13
			13:leaf=0.0428231396
			14:leaf=-0.209341064
booster[33]:
0:[f16<-0.591700017] yes=1,no=2,missing=1
	1:[f10<0.953549981] yes=3,no=4,missing=3
		3:[f3<0.903499961] yes=7,no=8,missing=7
			7:leaf=0.187546551
			8:leaf=-0.0397392884
		4:[f11<0.189150006] yes=9,no=10,missing=9
			9:leaf=0.0710942224
			10:leaf=-0.204043999
	2:[f10<-0.633200049] yes=5,no=6,missing=5
		5:[f8<0.388150007] yes=11,no=12,missing=11
			11:leaf=0.151349455
			12:leaf=-0.0656678304
		6:[f4<-1.06285] yes=13,no=14,missing=13
			13:leaf=0.0845022947
			14:leaf=-0.122355819
booster[34]:
0:[f11<-1.24729991] yes=1,no=2,missing=1
	1:[f7<0.978600025] yes=3,no=4,missing=3
		3:[f13<1.58445001] yes=7,no=8,missing=7
			7:leaf=0.259832919
			8:leaf=-0.102569088
		4:[f10<-0.317799985] yes=9,no=10,missing=9
			9:leaf=0.129306823
			10:leaf=-0.179953814
	2:[f19<-0.7324] yes=5,no=6,missing=5
		5:[f17<0.810950041] yes=11,no=12,missing=11
			11:leaf=0.148557276
			12:leaf=-0.0773846358
		6:[f1<0.328750014] yes=13,no=14,missing=13
			13:leaf=-0.00481399707
			14:leaf=-0.154922605
booster[35]:
0:[f0<0.291299999] yes=1,no=2,missing=1
	1:[f16<0.707849979] yes=3,no=4,missing=3
		3:[f4<0.572650015] yes=7,no=8,missing=7
			7:leaf=0.145735756
			8:leaf=-0.0262932964
		4:[f18<-0.285350025] yes=9,no=10,missing=9
			9:leaf=0.0595901944
			10:leaf=-0.1545517
	2:[f6<-1.13499999] yes=5,no=6,missing=5
		5:[f5<1.16709995] yes=11,no=12,missing=11
			11:leaf=0.165142983
			12:leaf=-0.151434258
		6:[f3<0.776449978] yes=13,no=14,missing=13
			13:leaf=-0.0694011748
			14:leaf=-0.254069
booster[36]:
0:[f12<1.05710006] yes=1,no=2,missing=1
	1:[f14<1.73325002] yes=3,no=4,missing=3
		3:[f17<0.82585001] yes=7,no=8,missing=7
			7:leaf=0.0782112777
			8:leaf=-0.083350122
		4:[f8<-0.343599975] yes=9,no=10,missing=9
			9:leaf=-0.104805402
			10:leaf=-0.348299205
	2:[f8<-0.422450006] yes=5,no=6,missing=5
		5:[f3<-0.407449991] yes=11,no=12,missing=11
			11:leaf=0.199722677
			12:leaf=-0.124373011
		6:[f15<-1.53944993] yes=13,no=14,missing=13
			13:leaf=0.156802684
			14:leaf=-0.248979315
booster[37]:
0:[f15<0.747699976] yes=1,no=2,missing=1
	1:[f9<-0.20645] yes=3,no=4,missing=3
		3:[f18<1.65310001] yes=7,no=8,missing=7
			7:leaf=0.126739919
			8:leaf=-0.186192721
		4:[f7<1.08969998] yes=9,no=10,missing=9
			9:leaf=0.0130194901
			10:leaf=-0.205846697
	2:[f11<-1.13794994] yes=5,no=6,missing=5
		5:[f0<-0.0980999991] yes=11,no=12,missing=11
			11:leaf=0.240424305
			12:leaf=-0.0237746574
		6:[f6<-0.543850005] yes=13,no=14,missing=13
			13:leaf=-0.00495995861
			14:leaf=-0.209147856
booster[38]:
0:[f2<0.829450011] yes=1,no=2,missing=1
	1:[f19<0.943199992] yes=3,no=4,missing=3
		3:[f3<0.4824] yes=7,no=8,missing=7
			7:leaf=0.10681694
			8:leaf=-0.0464662053
		4:[f1<-1.54719996] yes=9,no=10,missing=9
			9:leaf=0.223383605
			10:leaf=-0.135523126
	2:[f5<-1.25670004] yes=5,no=6,missing=5
		5:[f14<0.349950016] yes=11,no=12,missing=11
			11:leaf=0.175942183
			12:leaf=-0.131578848
		6:[f1<-0.59679997] yes=13,no=14,missing=13
			13:leaf=0.00249537057
			14:leaf=-0.205825642
booster[39]:
0:[f18<-1.52464998] yes=1,no=2,missing=1
	1:[f3<1.60520005] yes=3,no=4,missing=3
		3:[f4<1.05290008] yes=7,no=8,missing=7
			7:leaf=0.28338173
			8:leaf=-0.00267161522
		4:leaf=-0.119721644
	2:[f12<-0.927999973] yes=5,no=6,missing=5
		5:[f9<1.58244991] yes=9,no=10,missing=9
			9:leaf=0.15265733
			10:leaf=-0.148940369
		6:[f10<-1.1257] yes=11,no=12,missing=11
			11:leaf=0.127800375
			12:leaf=-0.0800964236
booster[40]:
0:[f17<-0.817149997] yes=1,no=2,missing=1
	1:[f0<1.47644997] yes=3,no=4,missing=3
		3:[f6<0.0441500023] yes=7,no=8,missing=7
			7:leaf=0.230265737
			8:leaf=0.0462449417
		4:[f10<-0.46814999] yes=9,no=10,missing=9
			9:leaf=0.035751272
			10:leaf=-0.227475956
	2:[f2<-1.14265001] yes=5,no=6,missing=5
		5:[f0<0.188699991] yes=11,no=12,missing=11
			11:leaf=0.21060288
			12:leaf=0.00522840163
		6:[f11<0.519850016] yes=13,no=14,missing=13
			13:leaf=-0.0126577439
			14:leaf=-0.16335097
booster[41]:
0:[f10<1.15055001] yes=1,no=2,missing=1
	1:[f15<-0.807399988] yes=3,no=4,missing=3
		3:[f18<1.34529996] yes=7,no=8,missing=7
			7:leaf=0.171582609
			8:leaf=-0.129628643
		4:[f7<-0.863700032] yes=9,no=10,missing=9
			9:leaf=0.123846509
			10:leaf=-0.0448863804
	2:[f5<-2.04180002] yes=5,no=6,missing=5
		5:leaf=0.241109952
		6:[f9<-1.41210008] yes=11,no=12,missing=11
			11:leaf=0.0960921273
			12:leaf=-0.196191952
booster[42]:
0:[f8<0.857499957] yes=1,no=2,missing=1
	1:[f14<-0.627049983] yes=3,no=4,missing=3
		3:[f12<1.01789999] yes=7,no=8,missing=7
			7:leaf=0.173884571
			8:leaf=-0.0714890659
		4:[f4<-1.22670007] yes=9,no=10,missing=9
			9:leaf=0.184704095
			10:leaf=-0.0361818597
	2:[f0<-0.945649981] yes=5,no=6,missing=5
		5:[f12<0.721449971] yes=11,no=12,missing=11
			11:leaf=0.175940663
			12:leaf=-0.142758489
		6:[f3<0.130800009] yes=13,no=14,missing=13
			13:leaf=-0.0763853937
			14:leaf=-0.236116812
booster[43]:
0:[f5<0.238299996] yes=1,no=2,missing=1
	1:[f16<1.32220006] yes=3,no=4,missing=3
		3:[f1<0.745700002] yes=7,no=8,missing=7
			7:leaf=0.118065007
			8:leaf=-0.0355619453
		4:[f9<-0.428600013] yes=9,no=10,missing=9
			9:leaf=0.0384874754
			10:leaf=-0.243247077
	2:[f14<-0.355149984] yes=5,no=6,missing=5
		5:[f2<0.406050026] yes=11,no=12,missing=11
			11:leaf=0.0990953594
			12:leaf=-0.0919207335
		6:[f18<-1.07579994] yes=13,no=14,missing=13
			13:leaf=0.0678501204
			14:leaf=-0.145523414
booster[44]:
0:[f13<-0.368550003] yes=1,no=2,missing=1
	1:[f14<1.11205006] yes=3,no=4,missing=3
		3:[f11<1.45179999] yes=7,no=8,missing=7
			7:leaf=0.131955117
			8:leaf=-0.125828922
		4:[f2<-0.482349992] yes=9,no=10,missing=9
			9:leaf=0.0929581225
			10:leaf=-0.20824495
	2:[f6<0.389200002] yes=5,no=6,missing=5
		5:[f3<-0.988099992] yes=11,no=12,missing=11
			11:leaf=0.155516684
			12:leaf=-0.0311342422
		6:[f16<-0.700000048] yes=13,no=14,missing=13
			13:leaf=0.0376225822
			14:leaf=-0.172427535
booster[45]:
0:[f8<-0.654200017] yes=1,no=2,missing=1
	1:[f10<-0.722800016] yes=3,no=4,missing=3
		3:[f14<0.977800012] yes=7,no=8,missing=7
			7:leaf=0.29169932
			8:leaf=0.0127720488
		4:[f16<-0.302299976] yes=9,no=10,missing=9
			9:leaf=0.159575641
			10:leaf=-0.0308750272
	2:[f9<-1.32150006] yes=5,no=6,missing=5
		5:[f3<1.69685006] yes=11,no=12,missing=11
			11:leaf=0.165458679
			12:leaf=-0.168141678
		6:[f7<-1.50985003] yes=13,no=14,missing=13
			13:leaf=0.16355738
			14:leaf=-0.0744175985
booster[46]:
0:[f1<-1.61660004] yes=1,no=2,missing=1
	1:[f0<0.476599991] yes=3,no=4,missing=3
		3:[f8<0.870100021] yes=7,no=8,missing=7
			7:leaf=0.296087831
			8:leaf=0.0843699425
		4:[f6<-0.1294] yes=9,no=10,missing=9
			9:leaf=0.194902688
			10:leaf=-0.104511343
	2:[f9<1.10019994] yes=5,no=6,missing=5
		5:[f18<0.634549975] yes=11,no=12,missing=11
			11:leaf=0.0496407226
			12:leaf=-0.0848626941
		6:[f14<-0.649099946] yes=13,no=14,missing=13
			13:leaf=-0.00639037369
			14:leaf=-0.211782992
booster[47]:
0:[f6<1.50125003] yes=1,no=2,missing=1
	1:[f7<0.586699963] yes=3,no=4,missing=3
		3:[f19<0.725549996] yes=7,no=8,missing=7
			7:leaf=0.0856207758
			8:leaf=-0.0518890917
		4:[f13<-1.51115] yes=9,no=10,missing=9
			9:leaf=0.220362142
			10:leaf=-0.102883972
	2:[f15<-1.32284999] yes=5,no=6,missing=5
		5:leaf=0.0502234288
		6:[f2<-1.21969998] yes=11,no=12,missing=11
			11:leaf=-0.0108705815
			12:leaf=-0.275633991
booster[48]:
0:[f5<1.13275003] yes=1,no=2,missing=1
	1:[f16<-0.68780005] yes=3,no=4,missing=3
		3:[f3<0.820100009] yes=7,no=8,missing=7
			7:leaf=0.160660997
			8:leaf=-0.0543999039
		4:[f6<-1.47325003] yes=9,no=10,missing=9
			9:leaf=0.176662743
			10:leaf=-0.0302779283
	2:[f0<-0.752300024] yes=5,no=6,missing=5
		5:[f10<0.230549991] yes=11,no=12,missing=11
			11:leaf=0.172053322
			12:leaf=-0.117806964
		6:[f8<-1.53340006] yes=13,no=14,missing=13
			13:leaf=0.123644985
			14:leaf=-0.214372203
booster[49]:
0:[f4<0.64139998] yes=1,no=2,missing=1
	1:[f1<-1.09070003] yes=3,no=4,missing=3
		3:[f0<0.613600016] yes=7,no=8,missing=7
			7:leaf=0.24322255
			8:leaf=0.0241324194
		4:[f10<-1.1257] yes=9,no=10,missing=9
			9:leaf=0.169648722
			10:leaf=-0.0182924122
	2:[f15<-0.366999984] yes=5,no=6,missing=5
		5:[f13<-0.247799993] yes=11,no=12,missing=11
			11:leaf=0.154695734
			12:leaf=-0.0693507195
		6:[f3<-1.45580006] yes=13,no=14,missing=13
			13:leaf=0.150350466
			14:leaf=-0.165593952
