booster[0]:
0:[f0<27.5] yes=1,no=2,missing=1
	1:[f2<24.3899994] yes=3,no=4,missing=3
		3:[f6<0.1105] yes=7,no=8,missing=7
			7:leaf=-0.323076963
			8:[f17<0.0638750046] yes=13,no=14,missing=13
				13:leaf=0.377777785
				14:leaf=-0.300000012
		4:[f16<0.0205150004] yes=9,no=10,missing=9
			9:leaf=-0
			10:leaf=-0.4909091
	2:[f10<0.0530349985] yes=5,no=6,missing=5
		5:leaf=-0
		6:[f22<37.1050034] yes=11,no=12,missing=11
			11:[f32<9] yes=15,no=16,missing=15
				15:leaf=-0.508860767
				16:leaf=-0.200000018
			12:[f22<40.0100021] yes=17,no=18,missing=17
				17:leaf=0.150000006
				18:leaf=-0.360000014
booster[1]:
0:[f0<12.5] yes=1,no=2,missing=1
	1:[f12<1.22549999] yes=3,no=4,missing=3
		3:[f16<0.0326550007] yes=7,no=8,missing=7
			7:leaf=0.387978643
			8:leaf=-0.0796672702
		4:[f16<0.0414699987] yes=9,no=10,missing=9
			9:leaf=-0.390764385
			10:leaf=0.0629588589
	2:[f0<50] yes=5,no=6,missing=5
		5:[f23<144.299988] yes=11,no=12,missing=11
			11:[f17<0.0233150013] yes=15,no=16,missing=15
				15:leaf=-0.015583368
				16:leaf=-0.362568289
			12:[f23<158.200012] yes=17,no=18,missing=17
				17:leaf=0.258113772
				18:leaf=-0.191065356
		6:[f1<12.79] yes=13,no=14,missing=13
			13:leaf=-0.0102233049
			14:leaf=-0.410954267
booster[2]:
0:[f32<3.5] yes=1,no=2,missing=1
	1:[f22<21.3600006] yes=3,no=4,missing=3
		3:leaf=0.0330926143
		4:[f31<3.75] yes=7,no=8,missing=7
			7:[f16<0.0104649998] yes=11,no=12,missing=11
				11:leaf=0.00924579147
				12:leaf=-0.339604437
			8:[f8<0.0851449966] yes=13,no=14,missing=13
				13:leaf=-0.144375876
				14:leaf=0.101271622
	2:[f24<2113] yes=5,no=6,missing=5
		5:[f25<0.15990001] yes=9,no=10,missing=9
			9:[f15<0.00485400017] yes=15,no=16,missing=15
				15:leaf=0.122914948
				16:leaf=-0.307877719
			10:leaf=0.131823853
		6:leaf=0.283236682
booster[3]:
0:[f0<50] yes=1,no=2,missing=1
	1:[f12<1.50449991] yes=3,no=4,missing=3
		3:[f21<20.4799995] yes=7,no=8,missing=7
			7:[f3<97.9499969] yes=15,no=16,missing=15
				15:leaf=0.0506058335
				16:leaf=-0.327252984
			8:[f25<0.142749995] yes=17,no=18,missing=17
				17:leaf=0.0318749137
				18:leaf=0.359153837
		4:[f19<0.0274149999] yes=9,no=10,missing=9
			9:leaf=-0.336209536
			10:leaf=-0.0312380586
	2:[f25<0.158749998] yes=5,no=6,missing=5
		5:[f10<0.0542050004] yes=11,no=12,missing=11
			11:leaf=-0.08018291
			12:leaf=-0.357395649
		6:[f28<0.184300005] yes=13,no=14,missing=13
			13:leaf=0.209783196
			14:leaf=-0.29600215
booster[4]:
0:[f0<50] yes=1,no=2,missing=1
	1:[f12<1.22549999] yes=3,no=4,missing=3
		3:[f25<0.138750002] yes=7,no=8,missing=7
			7:[f29<0.276250005] yes=15,no=16,missing=15
				15:leaf=0.124224059
				16:leaf=-0.232140705
			8:[f10<0.0687150061] yes=17,no=18,missing=17
				17:leaf=0.300956726
				18:leaf=-0.0502980612
		4:[f15<0.00717550004] yes=9,no=10,missing=9
			9:[f6<0.121999994] yes=19,no=20,missing=19
				19:leaf=-0.237356126
				20:leaf=0.135777265
			10:leaf=-0.313784629
	2:[f25<0.158749998] yes=5,no=6,missing=5
		5:[f32<12] yes=11,no=12,missing=11
			11:leaf=-0.323509336
			12:leaf=-0.0658898205
		6:[f28<0.184300005] yes=13,no=14,missing=13
			13:leaf=0.165675133
			14:leaf=-0.263476133
booster[5]:
0:[f31<2.29999995] yes=1,no=2,missing=1
	1:[f22<38.4700012] yes=3,no=4,missing=3
		3:[f28<0.212449998] yes=7,no=8,missing=7
			7:[f1<13.3000002] yes=13,no=14,missing=13
				13:leaf=-0.0759121329
				14:leaf=-0.32373625
			8:[f6<0.169249997] yes=15,no=16,missing=15
				15:leaf=0.104020633
				16:leaf=-0.229147121
		4:leaf=0.0313559845
	2:[f2<22.2049999] yes=5,no=6,missing=5
		5:[f0<81] yes=9,no=10,missing=9
			9:[f31<5.75] yes=17,no=18,missing=17
				17:leaf=0.22335805
				18:leaf=-0.112868972
			10:leaf=-0.221641064
		6:[f30<0.0777899995] yes=11,no=12,missing=11
			11:[f15<0.00684150029] yes=19,no=20,missing=19
				19:leaf=0.0726688132
				20:leaf=-0.10077291
			12:[f12<1.07050002] yes=21,no=22,missing=21
				21:leaf=-0.0640499666
				22:leaf=-0.289019525
booster[6]:
0:[f32<0.5] yes=1,no=2,missing=1
	1:[f22<22.0450001] yes=3,no=4,missing=3
		3:leaf=0.0380850136
		4:[f14<131.449997] yes=7,no=8,missing=7
			7:[f15<0.00471249968] yes=13,no=14,missing=13
				13:leaf=-0.0737484694
				14:leaf=-0.302351981
			8:leaf=-0.0236279871
	2:[f0<39.5] yes=5,no=6,missing=5
		5:[f26<0.254500002] yes=9,no=10,missing=9
			9:[f10<0.055089999] yes=15,no=16,missing=15
				15:leaf=0.0613879524
				16:leaf=-0.231017604
			10:[f17<0.0495349988] yes=17,no=18,missing=17
				17:leaf=0.270381033
				18:leaf=-0.077492103
		6:[f12<1.2155] yes=11,no=12,missing=11
			11:leaf=-0.298350126
			12:[f12<1.47899997] yes=19,no=20,missing=19
				19:leaf=0.189920738
				20:leaf=-0.127062753
booster[7]:
0:[f25<0.151299998] yes=1,no=2,missing=1
	1:[f15<0.00478850026] yes=3,no=4,missing=3
		3:[f15<0.00462849997] yes=7,no=8,missing=7
			7:[f31<2.8499999] yes=15,no=16,missing=15
				15:leaf=-0.248669907
				16:leaf=0.101469815
			8:leaf=0.211400226
		4:[f1<20.2099991] yes=9,no=10,missing=9
			9:leaf=-0.29225269
			10:[f0<27.5] yes=17,no=18,missing=17
				17:leaf=0.105164021
				18:leaf=-0.182475328
	2:[f6<0.164700001] yes=5,no=6,missing=5
		5:[f11<0.37924999] yes=11,no=12,missing=11
			11:leaf=-0.0657277033
			12:[f19<0.0178299993] yes=19,no=20,missing=19
				19:leaf=0.28915444
				20:leaf=0.0623492785
		6:[f20<0.00432399986] yes=13,no=14,missing=13
			13:leaf=0.0188705418
			14:leaf=-0.231661454
booster[8]:
0:[f0<79.5] yes=1,no=2,missing=1
	1:[f25<0.151299998] yes=3,no=4,missing=3
		3:[f15<0.00494300015] yes=5,no=6,missing=5
			5:[f12<1.02339995] yes=9,no=10,missing=9
				9:leaf=-0.1028319
				10:leaf=0.134933814
			6:[f16<0.0456399992] yes=11,no=12,missing=11
				11:leaf=-0.247820809
				12:leaf=0.0252695754
		4:[f6<0.164700001] yes=7,no=8,missing=7
			7:[f14<31.7749996] yes=13,no=14,missing=13
				13:leaf=-0.0372597724
				14:leaf=0.329425246
			8:leaf=-0.104340799
	2:leaf=-0.244468495
booster[9]:
0:[f0<12.5] yes=1,no=2,missing=1
	1:[f22<31.7249985] yes=3,no=4,missing=3
		3:[f28<0.184049994] yes=7,no=8,missing=7
			7:leaf=0.0192416068
			8:leaf=0.24391596
		4:leaf=-0.123764977
	2:[f6<0.164700001] yes=5,no=6,missing=5
		5:[f20<0.00494099967] yes=9,no=10,missing=9
			9:[f20<0.00330250012] yes=11,no=12,missing=11
				11:leaf=-0.0442582816
				12:leaf=-0.208902389
			10:leaf=0.18280603
		6:leaf=-0.239654228
booster[10]:
0:[f31<2.29999995] yes=1,no=2,missing=1
	1:[f25<0.151450008] yes=3,no=4,missing=3
		3:[f22<34.5849991] yes=7,no=8,missing=7
			7:leaf=-0.248758584
			8:leaf=-0.0342593044
		4:[f0<50.5] yes=9,no=10,missing=9
			9:leaf=0.106013395
			10:leaf=-0.106272541
	2:[f12<1.52049994] yes=5,no=6,missing=5
		5:[f16<0.0304199997] yes=11,no=12,missing=11
			11:[f17<0.0310849994] yes=13,no=14,missing=13
				13:leaf=0.0132033397
				14:leaf=0.25868842
			12:[f16<0.041079998] yes=15,no=16,missing=15
				15:leaf=-0.19126527
				16:leaf=0.072028853
		6:leaf=-0.172396362
booster[11]:
0:[f0<50] yes=1,no=2,missing=1
	1:[f12<1.65600002] yes=3,no=4,missing=3
		3:[f21<20.3849983] yes=7,no=8,missing=7
			7:[f3<97.9499969] yes=11,no=12,missing=11
				11:leaf=0.0801702663
				12:leaf=-0.208347499
			8:[f0<27.5] yes=13,no=14,missing=13
				13:leaf=0.19127591
				14:leaf=0.00730037736
		4:leaf=-0.163207263
	2:[f18<0.0132049993] yes=5,no=6,missing=5
		5:leaf=-0.235623866
		6:[f18<0.0145450002] yes=9,no=10,missing=9
			9:leaf=0.12915346
			10:leaf=-0.179352015
booster[12]:
0:[f2<22.2049999] yes=1,no=2,missing=1
	1:[f0<35.5] yes=3,no=4,missing=3
		3:[f32<0.5] yes=7,no=8,missing=7
			7:leaf=-0.0345854312
			8:[f29<0.284449995] yes=15,no=16,missing=15
				15:leaf=0.0465490334
				16:leaf=0.233028233
		4:[f12<1.20550001] yes=9,no=10,missing=9
			9:[f14<31.0900002] yes=17,no=18,missing=17
				17:leaf=0.0123041105
				18:leaf=-0.223358124
			10:leaf=0.100326069
	2:[f13<2.93200016] yes=5,no=6,missing=5
		5:[f11<0.384599984] yes=11,no=12,missing=11
			11:leaf=-0.123234101
			12:leaf=0.158588603
		6:[f30<0.0777899995] yes=13,no=14,missing=13
			13:leaf=-0.0677690208
			14:leaf=-0.226208821
booster[13]:
0:[f17<0.0580250025] yes=1,no=2,missing=1
	1:[f28<0.117750004] yes=3,no=4,missing=3
		3:leaf=-0.18192865
		4:[f0<79.5] yes=5,no=6,missing=5
			5:[f17<0.0236250013] yes=7,no=8,missing=7
				7:leaf=0.197695985
				8:leaf=0.0248591509
			6:leaf=-0.171985507
	2:leaf=-0.175161153
booster[14]:
0:[f31<2.29999995] yes=1,no=2,missing=1
	1:[f25<0.151450008] yes=3,no=4,missing=3
		3:[f22<33.5049973] yes=7,no=8,missing=7
			7:leaf=-0.202294067
			8:leaf=-0.051521305
		4:leaf=0.0124133946
	2:[f2<23.125] yes=5,no=6,missing=5
		5:[f26<0.421050012] yes=9,no=10,missing=9
			9:[f22<25.4799995] yes=13,no=14,missing=13
				13:leaf=-0.0163115039
				14:leaf=0.190336093
			10:leaf=-0.0811389089
		6:[f12<1.29949999] yes=11,no=12,missing=11
			11:leaf=-0.00842295401
			12:leaf=-0.165522009
booster[15]:
0:[f32<3.5] yes=1,no=2,missing=1
	1:[f5<0.111950003] yes=3,no=4,missing=3
		3:[f17<0.0231150016] yes=7,no=8,missing=7
			7:leaf=0.0358700007
			8:[f31<3.0999999] yes=13,no=14,missing=13
				13:leaf=-0.213025123
				14:leaf=-0.00231797178
		4:[f8<0.0909949988] yes=9,no=10,missing=9
			9:leaf=0.126909867
			10:leaf=-0.0594954006
	2:[f0<37] yes=5,no=6,missing=5
		5:[f12<1.28399992] yes=11,no=12,missing=11
			11:leaf=0.173007369
			12:leaf=0.00836649537
		6:leaf=-0.0542008169
booster[16]:
0:[f11<0.369949996] yes=1,no=2,missing=1
	1:[f17<0.0225000009] yes=3,no=4,missing=3
		3:leaf=-0.00739864632
		4:leaf=-0.179457933
	2:[f29<0.281700015] yes=5,no=6,missing=5
		5:[f12<1.23600006] yes=7,no=8,missing=7
			7:leaf=0.0223655663
			8:leaf=-0.172853425
		6:[f12<1.03149998] yes=9,no=10,missing=9
			9:leaf=-0.0774338543
			10:[f12<1.46399999] yes=11,no=12,missing=11
				11:leaf=0.169192672
				12:leaf=-0.016739836
booster[17]:
0:[f2<22.2049999] yes=1,no=2,missing=1
	1:[f0<35.5] yes=3,no=4,missing=3
		3:[f6<0.124949999] yes=7,no=8,missing=7
			7:leaf=-0.0338683762
			8:leaf=0.184016436
		4:[f12<1.20550001] yes=9,no=10,missing=9
			9:[f14<35.3850021] yes=11,no=12,missing=11
				11:leaf=-0.00209318614
				12:leaf=-0.184994265
			10:leaf=0.0756274685
	2:[f13<2.93200016] yes=5,no=6,missing=5
		5:leaf=0.0157556366
		6:leaf=-0.163242355
booster[18]:
0:[f14<29.4700012] yes=1,no=2,missing=1
	1:leaf=-0.138066247
	2:[f12<1.46399999] yes=3,no=4,missing=3
		3:[f25<0.137349993] yes=5,no=6,missing=5
			5:[f11<0.550300002] yes=9,no=10,missing=9
				9:leaf=-0.130717427
				10:leaf=0.0433213562
			6:[f0<50.5] yes=11,no=12,missing=11
				11:leaf=0.174022526
				12:leaf=-0.0403920896
		4:[f0<16.5] yes=7,no=8,missing=7
			7:leaf=-0.111106791
			8:leaf=-0.0159305148
booster[19]:
0:[f0<12.5] yes=1,no=2,missing=1
	1:[f12<1.22549999] yes=3,no=4,missing=3
		3:leaf=0.122601755
		4:leaf=-0.030021904
	2:[f6<0.164700001] yes=5,no=6,missing=5
		5:[f20<0.00494099967] yes=7,no=8,missing=7
			7:[f15<0.00478850026] yes=9,no=10,missing=9
				9:leaf=0.0250370409
				10:leaf=-0.126964301
			8:leaf=0.151562765
		6:leaf=-0.166135371
booster[20]:
0:[f32<0.5] yes=1,no=2,missing=1
	1:[f12<0.853500009] yes=3,no=4,missing=3
		3:leaf=0.0338396579
		4:leaf=-0.155796349
	2:[f0<37] yes=5,no=6,missing=5
		5:[f26<0.254500002] yes=7,no=8,missing=7
			7:leaf=-0.0380785763
			8:[f2<22.3099995] yes=11,no=12,missing=11
				11:leaf=0.18342939
				12:leaf=0.0486904122
		6:[f12<1.2155] yes=9,no=10,missing=9
			9:leaf=-0.153866112
			10:leaf=0.0597375706
booster[21]:
0:[f11<0.386849999] yes=1,no=2,missing=1
	1:[f11<0.308400005] yes=3,no=4,missing=3
		3:leaf=-0.117724605
		4:leaf=-0.0269907266
	2:[f17<0.0465149991] yes=5,no=6,missing=5
		5:[f17<0.0357349999] yes=7,no=8,missing=7
			7:[f14<54.2000008] yes=9,no=10,missing=9
				9:leaf=0.0858696625
				10:leaf=-0.112870693
			8:leaf=0.148585707
		6:leaf=-0.0918474048
booster[22]:
0:[f31<2.29999995] yes=1,no=2,missing=1
	1:[f25<0.151450008] yes=3,no=4,missing=3
		3:leaf=-0.137545541
		4:leaf=0.0281860325
	2:[f12<1.46399999] yes=5,no=6,missing=5
		5:[f25<0.137100011] yes=7,no=8,missing=7
			7:leaf=-0.0181693006
			8:[f27<0.412699997] yes=9,no=10,missing=9
				9:leaf=0.173369974
				10:leaf=0.0203901865
		6:leaf=-0.0917309821
booster[23]:
0:[f21<20.3849983] yes=1,no=2,missing=1
	1:[f25<0.157499999] yes=3,no=4,missing=3
		3:leaf=-0.143328041
		4:leaf=0.0475131124
	2:[f0<39.5] yes=5,no=6,missing=5
		5:[f20<0.00339099998] yes=7,no=8,missing=7
			7:leaf=0.161700666
			8:leaf=-0.00731645525
		6:leaf=-0.0702276081
booster[24]:
0:[f2<22.2049999] yes=1,no=2,missing=1
	1:[f11<0.547749996] yes=3,no=4,missing=3
		3:[f12<0.853799999] yes=7,no=8,missing=7
			7:leaf=0.0113522736
			8:leaf=-0.0788620561
		4:[f17<0.0397149995] yes=9,no=10,missing=9
			9:leaf=0.00434654672
			10:leaf=0.133099794
	2:[f13<2.93200016] yes=5,no=6,missing=5
		5:leaf=0.0276086833
		6:leaf=-0.133457437
booster[25]:
0:[f0<50] yes=1,no=2,missing=1
	1:[f12<1.22549999] yes=3,no=4,missing=3
		3:[f25<0.138750002] yes=7,no=8,missing=7
			7:leaf=-0.0409178138
			8:leaf=0.145927176
		4:leaf=-0.0541774519
	2:[f28<0.159500003] yes=5,no=6,missing=5
		5:leaf=0.0195257645
		6:leaf=-0.123167649
booster[26]:
0:[f31<2.29999995] yes=1,no=2,missing=1
	1:[f22<33.3799973] yes=3,no=4,missing=3
		3:leaf=-0.118512057
		4:leaf=0.0168520622
	2:[f2<22.2049999] yes=5,no=6,missing=5
		5:[f17<0.0308049992] yes=7,no=8,missing=7
			7:leaf=0.00428502727
			8:leaf=0.117559716
		6:leaf=-0.0549318083
booster[27]:
0:[f0<50] yes=1,no=2,missing=1
	1:[f21<20.3849983] yes=3,no=4,missing=3
		3:leaf=-0.0482513644
		4:[f23<160.199997] yes=7,no=8,missing=7
			7:leaf=0.127715096
			8:leaf=-0.0100152651
	2:[f18<0.013545] yes=5,no=6,missing=5
		5:leaf=-0.118722185
		6:leaf=0.017800102
booster[28]:
0:[f32<0.5] yes=1,no=2,missing=1
	1:[f12<0.853500009] yes=3,no=4,missing=3
		3:leaf=0.0362055004
		4:leaf=-0.12663126
	2:[f0<39.5] yes=5,no=6,missing=5
		5:[f26<0.263899982] yes=7,no=8,missing=7
			7:leaf=-0.0145632839
			8:leaf=0.123730756
		6:leaf=-0.0591072403
booster[29]:
0:[f17<0.047480002] yes=1,no=2,missing=1
	1:[f17<0.0357349999] yes=3,no=4,missing=3
		3:[f17<0.0236250013] yes=5,no=6,missing=5
			5:leaf=0.0619517788
			6:leaf=-0.106964409
		4:leaf=0.0999965593
	2:leaf=-0.0818981379
booster[30]:
0:[f25<0.137349993] yes=1,no=2,missing=1
	1:[f11<0.550300002] yes=3,no=4,missing=3
		3:leaf=-0.128706872
		4:leaf=0.0261757504
	2:[f9<0.195050001] yes=5,no=6,missing=5
		5:leaf=0.101890124
		6:leaf=-0.0558208972
booster[31]:
0:[f31<2.29999995] yes=1,no=2,missing=1
	1:[f25<0.149500012] yes=3,no=4,missing=3
		3:leaf=-0.107323505
		4:leaf=0.0118366741
	2:[f20<0.00315849995] yes=5,no=6,missing=5
		5:leaf=0.092486009
		6:[f7<0.151050001] yes=7,no=8,missing=7
			7:leaf=-0.0957907438
			8:leaf=0.0409311503
booster[32]:
0:[f11<0.369949996] yes=1,no=2,missing=1
	1:leaf=-0.0779386163
	2:[f12<1.50449991] yes=3,no=4,missing=3
		3:[f0<37] yes=5,no=6,missing=5
			5:leaf=0.101679221
			6:leaf=-0.0159930214
		4:leaf=-0.0600906797
booster[33]:
0:[f2<22.2049999] yes=1,no=2,missing=1
	1:[f2<20.6300011] yes=3,no=4,missing=3
		3:[f21<20.5] yes=7,no=8,missing=7
			7:leaf=-0.07510297
			8:leaf=0.0254057404
		4:leaf=0.0984084383
	2:[f13<2.93200016] yes=5,no=6,missing=5
		5:leaf=0.025322834
		6:leaf=-0.114135966
booster[34]:
0:[f25<0.165100008] yes=1,no=2,missing=1
	1:[f20<0.00338799995] yes=3,no=4,missing=3
		3:[f31<2.6500001] yes=5,no=6,missing=5
			5:leaf=-0.0220552161
			6:leaf=0.0785713792
		4:leaf=-0.100132599
	2:leaf=0.0600605793
booster[35]:
0:[f11<0.369949996] yes=1,no=2,missing=1
	1:leaf=-0.068065092
	2:[f29<0.281700015] yes=3,no=4,missing=3
		3:leaf=-0.0574678853
		4:[f12<1.07500005] yes=5,no=6,missing=5
			5:leaf=-0.0251466502
			6:[f12<1.36450005] yes=7,no=8,missing=7
				7:leaf=0.114238404
				8:leaf=0.0277363751
booster[36]:
0:[f2<22.2049999] yes=1,no=2,missing=1
	1:[f2<20.6300011] yes=3,no=4,missing=3
		3:leaf=-0.0274565369
		4:leaf=0.0878031403
	2:leaf=-0.0510528274
booster[37]:
0:[f25<0.137349993] yes=1,no=2,missing=1
	1:[f13<4.1335001] yes=3,no=4,missing=3
		3:leaf=-0.090232715
		4:leaf=0.0175015125
	2:[f29<0.321550012] yes=5,no=6,missing=5
		5:leaf=0.0940675065
		6:leaf=-0.039412681
booster[38]:
0:[f31<2.29999995] yes=1,no=2,missing=1
	1:leaf=-0.0518428385
	2:[f27<0.323949993] yes=3,no=4,missing=3
		3:leaf=0.0805687234
		4:[f5<0.106150001] yes=5,no=6,missing=5
			5:leaf=-0.0712587312
			6:leaf=0.0383570194
booster[39]:
0:[f25<0.165100008] yes=1,no=2,missing=1
	1:[f30<0.0820800066] yes=3,no=4,missing=3
		3:[f28<0.152899995] yes=5,no=6,missing=5
			5:leaf=-0.0325195231
			6:leaf=0.0801551342
		4:leaf=-0.0857589394
	2:leaf=0.0561248362
booster[40]:
0:[f12<1.46399999] yes=1,no=2,missing=1
	1:[f31<2.29999995] yes=3,no=4,missing=3
		3:leaf=-0.0492458008
		4:[f25<0.137100011] yes=5,no=6,missing=5
			5:leaf=-0.00197915174
			6:leaf=0.0917298347
	2:leaf=-0.0590720139
booster[41]:
0:[f0<50] yes=1,no=2,missing=1
	1:[f12<1.22549999] yes=3,no=4,missing=3
		3:[f25<0.13955] yes=5,no=6,missing=5
			5:leaf=0.00261441292
			6:leaf=0.103332199
		4:leaf=-0.0433480516
	2:leaf=-0.0520322956
booster[42]:
0:[f17<0.0357349999] yes=1,no=2,missing=1
	1:[f17<0.0236250013] yes=3,no=4,missing=3
		3:leaf=0.0463817604
		4:leaf=-0.0958492234
	2:[f17<0.0464349985] yes=5,no=6,missing=5
		5:leaf=0.101800665
		6:leaf=-0.050913386
booster[43]:
0:[f11<0.386849999] yes=1,no=2,missing=1
	1:leaf=-0.0571682639
	2:[f13<3.37050009] yes=3,no=4,missing=3
		3:leaf=0.0909318328
		4:[f13<5.03349972] yes=5,no=6,missing=5
			5:leaf=-0.0743212476
			6:leaf=0.0361682437
booster[44]:
0:[f0<12.5] yes=1,no=2,missing=1
	1:leaf=0.0524894595
	2:[f8<0.0850400031] yes=3,no=4,missing=3
		3:[f9<0.193549991] yes=5,no=6,missing=5
			5:leaf=-0.0493537039
			6:leaf=0.0854964778
		4:leaf=-0.0894555375
booster[45]:
0:[f0<50] yes=1,no=2,missing=1
	1:[f12<1.22549999] yes=3,no=4,missing=3
		3:leaf=0.0659271181
		4:leaf=-0.0393266082
	2:leaf=-0.0481494255
booster[46]:
0:[f32<3.5] yes=1,no=2,missing=1
	1:[f25<0.137349993] yes=3,no=4,missing=3
		3:leaf=-0.0841419697
		4:leaf=0.0169611108
	2:leaf=0.0460267477
booster[47]:
0:[f11<0.386849999] yes=1,no=2,missing=1
	1:leaf=-0.0526200831
	2:[f23<160.199997] yes=3,no=4,missing=3
		3:[f21<20.3849983] yes=5,no=6,missing=5
			5:leaf=-0.000276434817
			6:leaf=0.0798023269
		4:leaf=-0.0383246392
booster[48]:
0:[f0<12.5] yes=1,no=2,missing=1
	1:leaf=0.0445545837
	2:[f28<0.172399998] yes=3,no=4,missing=3
		3:[f9<0.189750001] yes=5,no=6,missing=5
			5:leaf=-0.0514562503
			6:leaf=0.0845785737
		4:leaf=-0.0817313343
booster[49]:
0:[f0<50] yes=1,no=2,missing=1
	1:[f12<1.22549999] yes=3,no=4,missing=3
		3:leaf=0.0599159151
		4:leaf=-0.0359118395
	2:leaf=-0.0460818261
