booster[0]:
0:[f5<0.38499999] yes=1,no=2,missing=1
	1:[f1<0.560000002] yes=3,no=4,missing=3
		3:leaf=0.704697967
		4:[f4<0.469999999] yes=7,no=8,missing=7
			7:leaf=0.115384616
			8:leaf=-0.12328767
	2:[f0<0.444999993] yes=5,no=6,missing=5
		5:[f5<0.564999998] yes=9,no=10,missing=9
			9:leaf=0.552631557
			10:leaf=-0.164179116
		6:leaf=-0.174603179
booster[1]:
0:[f5<0.600000024] yes=1,no=2,missing=1
	1:[f0<0.164999992] yes=3,no=4,missing=3
		3:leaf=0.0821917802
		4:[f6<0.529999971] yes=7,no=8,missing=7
			7:leaf=-0.183746994
			8:leaf=-0.0796460211
	2:[f0<0.745000005] yes=5,no=6,missing=5
		5:[f0<0.61500001] yes=9,no=10,missing=9
			9:leaf=0.647132158
			10:leaf=0.315450639
		6:[f5<0.725000024] yes=11,no=12,missing=11
			11:leaf=0.230769232
			12:leaf=-0.151162803
booster[2]:
0:[f0<0.745000005] yes=1,no=2,missing=1
	1:[f6<0.644999981] yes=3,no=4,missing=3
		3:[f4<0.234999999] yes=7,no=8,missing=7
			7:leaf=0.0263157915
			8:leaf=-0.184115529
		4:[f0<0.61500001] yes=9,no=10,missing=9
			9:leaf=-0.108695649
			10:leaf=0.145161286
	2:[f1<0.560000002] yes=5,no=6,missing=5
		5:[f5<0.725000024] yes=11,no=12,missing=11
			11:leaf=0.184931502
			12:leaf=0.604651213
		6:leaf=-0.105263166
booster[3]:
0:[f4<0.720000029] yes=1,no=2,missing=1
	1:[f6<0.335000008] yes=3,no=4,missing=3
		3:[f4<0.564999998] yes=7,no=8,missing=7
			7:leaf=-0.150455922
			8:leaf=0.240740746
		4:leaf=-0.184643507
	2:[f1<0.675000012] yes=5,no=6,missing=5
		5:leaf=0.184931502
		6:leaf=0.539325833
booster[4]:
0:[f1<0.584999979] yes=1,no=2,missing=1
	1:[f1<0.555000007] yes=3,no=4,missing=3
		3:[f0<0.735000014] yes=7,no=8,missing=7
			7:leaf=-0.167755976
			8:leaf=-0.0895522386
		4:[f0<0.644999981] yes=9,no=10,missing=9
			9:leaf=-0.139175251
			10:leaf=0.289473683
	2:[f4<0.63499999] yes=5,no=6,missing=5
		5:[f5<0.679999948] yes=11,no=12,missing=11
			11:leaf=0.614754081
			12:leaf=-0.134831458
		6:leaf=-0.153284669
booster[5]:
0:[f5<0.524999976] yes=1,no=2,missing=1
	1:[f0<0.550000012] yes=3,no=4,missing=3
		3:leaf=0.380602807
		4:[f1<0.524999976] yes=7,no=8,missing=7
			7:leaf=0.181966752
			8:leaf=-0.143811554
	2:[f5<0.560000002] yes=5,no=6,missing=5
		5:[f6<0.454999983] yes=9,no=10,missing=9
			9:leaf=-0.124586292
			10:leaf=0.161902949
		6:leaf=-0.172388926
booster[6]:
0:[f5<0.574999988] yes=1,no=2,missing=1
	1:[f0<0.164999992] yes=3,no=4,missing=3
		3:leaf=0.0015119029
		4:[f6<0.529999971] yes=7,no=8,missing=7
			7:leaf=-0.174042895
			8:leaf=-0.0619740374
	2:[f0<0.745000005] yes=5,no=6,missing=5
		5:[f1<0.725000024] yes=9,no=10,missing=9
			9:leaf=0.327600539
			10:leaf=0.0209938716
		6:[f5<0.725000024] yes=11,no=12,missing=11
			11:leaf=0.146486014
			12:leaf=-0.139527738
booster[7]:
0:[f0<0.745000005] yes=1,no=2,missing=1
	1:[f6<0.644999981] yes=3,no=4,missing=3
		3:[f4<0.234999999] yes=7,no=8,missing=7
			7:leaf=0.0272405017
			8:leaf=-0.17450127
		4:[f0<0.569999993] yes=9,no=10,missing=9
			9:leaf=-0.108016208
			10:leaf=0.101076208
	2:[f1<0.560000002] yes=5,no=6,missing=5
		5:[f5<0.725000024] yes=11,no=12,missing=11
			11:leaf=0.145799473
			12:leaf=0.371373445
		6:leaf=-0.0968730673
booster[8]:
0:[f4<0.720000029] yes=1,no=2,missing=1
	1:[f6<0.335000008] yes=3,no=4,missing=3
		3:[f4<0.625] yes=7,no=8,missing=7
			7:leaf=-0.119603448
			8:leaf=0.298121095
		4:leaf=-0.175084651
	2:[f6<0.484999985] yes=5,no=6,missing=5
		5:leaf=0.357603818
		6:leaf=0.0278059598
booster[9]:
0:[f1<0.584999979] yes=1,no=2,missing=1
	1:[f1<0.555000007] yes=3,no=4,missing=3
		3:[f0<0.735000014] yes=7,no=8,missing=7
			7:leaf=-0.155345052
			8:leaf=-0.0782763809
		4:[f0<0.644999981] yes=9,no=10,missing=9
			9:leaf=-0.131261304
			10:leaf=0.22289674
	2:[f4<0.63499999] yes=5,no=6,missing=5
		5:[f0<0.61500001] yes=11,no=12,missing=11
			11:leaf=-0.0743510798
			12:leaf=0.363245368
		6:leaf=-0.14487204
booster[10]:
0:[f5<0.534999967] yes=1,no=2,missing=1
	1:[f0<0.550000012] yes=3,no=4,missing=3
		3:leaf=0.27702868
		4:[f1<0.524999976] yes=7,no=8,missing=7
			7:leaf=0.13899152
			8:leaf=-0.136487171
	2:[f1<0.355000019] yes=5,no=6,missing=5
		5:leaf=0.0306684505
		6:leaf=-0.165558591
booster[11]:
0:[f5<0.574999988] yes=1,no=2,missing=1
	1:[f0<0.164999992] yes=3,no=4,missing=3
		3:leaf=0.0112285558
		4:[f6<0.529999971] yes=7,no=8,missing=7
			7:leaf=-0.166904971
			8:leaf=-0.051738143
	2:[f0<0.61500001] yes=5,no=6,missing=5
		5:[f2<0.74000001] yes=9,no=10,missing=9
			9:leaf=0.282510012
			10:leaf=-0.0137774246
		6:[f6<0.685000002] yes=11,no=12,missing=11
			11:leaf=-0.0936233997
			12:leaf=0.135228649
booster[12]:
0:[f6<0.61500001] yes=1,no=2,missing=1
	1:[f4<0.234999999] yes=3,no=4,missing=3
		3:leaf=0.0300330613
		4:leaf=-0.16760841
	2:[f0<0.61500001] yes=5,no=6,missing=5
		5:[f5<0.754999995] yes=7,no=8,missing=7
			7:leaf=0.0302716643
			8:leaf=-0.151238978
		6:[f1<0.564999998] yes=9,no=10,missing=9
			9:leaf=0.21768041
			10:leaf=-0.118918218
booster[13]:
0:[f4<0.720000029] yes=1,no=2,missing=1
	1:[f6<0.335000008] yes=3,no=4,missing=3
		3:[f4<0.504999995] yes=7,no=8,missing=7
			7:leaf=-0.153279975
			8:leaf=0.125209063
		4:leaf=-0.168039411
	2:[f0<0.580000043] yes=5,no=6,missing=5
		5:leaf=0.0049151741
		6:leaf=0.27738598
booster[14]:
0:[f1<0.555000007] yes=1,no=2,missing=1
	1:[f6<0.485000014] yes=3,no=4,missing=3
		3:[f0<0.550000012] yes=7,no=8,missing=7
			7:leaf=-0.136023894
			8:leaf=0.093592152
		4:leaf=-0.165860906
	2:[f4<0.63499999] yes=5,no=6,missing=5
		5:[f0<0.61500001] yes=9,no=10,missing=9
			9:leaf=-0.0990762711
			10:leaf=0.270004988
		6:leaf=-0.146052733
booster[15]:
0:[f5<0.534999967] yes=1,no=2,missing=1
	1:[f0<0.550000012] yes=3,no=4,missing=3
		3:leaf=0.224450946
		4:[f1<0.524999976] yes=7,no=8,missing=7
			7:leaf=0.115339026
			8:leaf=-0.126842469
	2:[f1<0.355000019] yes=5,no=6,missing=5
		5:leaf=0.0289591774
		6:leaf=-0.159617886
booster[16]:
0:[f5<0.574999988] yes=1,no=2,missing=1
	1:[f0<0.164999992] yes=3,no=4,missing=3
		3:leaf=0.0206609722
		4:[f6<0.529999971] yes=7,no=8,missing=7
			7:leaf=-0.161155239
			8:leaf=-0.0412505493
	2:[f0<0.745000005] yes=5,no=6,missing=5
		5:[f5<0.774999976] yes=9,no=10,missing=9
			9:leaf=0.13233237
			10:leaf=0.243183628
		6:[f5<0.725000024] yes=11,no=12,missing=11
			11:leaf=0.109770142
			12:leaf=-0.131366923
booster[17]:
0:[f6<0.61500001] yes=1,no=2,missing=1
	1:[f4<0.234999999] yes=3,no=4,missing=3
		3:leaf=0.034927614
		4:leaf=-0.161919743
	2:[f0<0.569999993] yes=5,no=6,missing=5
		5:[f0<0.465000004] yes=7,no=8,missing=7
			7:leaf=-0.13921608
			8:leaf=0.000399332639
		6:[f1<0.555000007] yes=9,no=10,missing=9
			9:leaf=0.168939263
			10:leaf=-0.123824775
booster[18]:
0:[f4<0.644999981] yes=1,no=2,missing=1
	1:[f1<0.745000005] yes=3,no=4,missing=3
		3:leaf=-0.163546503
		4:[f4<0.504999995] yes=7,no=8,missing=7
			7:leaf=-0.122508839
			8:leaf=0.187639907
	2:[f6<0.574999988] yes=5,no=6,missing=5
		5:[f0<0.580000043] yes=9,no=10,missing=9
			9:leaf=0.0262381528
			10:leaf=0.265532136
		6:leaf=-0.133400843
booster[19]:
0:[f1<0.555000007] yes=1,no=2,missing=1
	1:[f6<0.485000014] yes=3,no=4,missing=3
		3:[f0<0.659999967] yes=7,no=8,missing=7
			7:leaf=-0.115082353
			8:leaf=0.188119292
		4:leaf=-0.159096211
	2:[f4<0.504999995] yes=5,no=6,missing=5
		5:[f0<0.554999948] yes=9,no=10,missing=9
			9:leaf=-0.110746466
			10:leaf=0.222606778
		6:[f5<0.524999976] yes=11,no=12,missing=11
			11:leaf=0.0448367186
			12:leaf=-0.153185278
booster[20]:
0:[f5<0.38499999] yes=1,no=2,missing=1
	1:[f1<0.529999971] yes=3,no=4,missing=3
		3:leaf=0.205051646
		4:[f4<0.454999983] yes=7,no=8,missing=7
			7:leaf=0.135341302
			8:leaf=-0.061440818
	2:[f0<0.444999993] yes=5,no=6,missing=5
		5:[f5<0.564999998] yes=9,no=10,missing=9
			9:leaf=0.134784758
			10:leaf=-0.126031339
		6:[f0<0.529999971] yes=11,no=12,missing=11
			11:leaf=-0.0575306453
			12:leaf=-0.157667279
booster[21]:
0:[f5<0.574999988] yes=1,no=2,missing=1
	1:[f6<0.474999994] yes=3,no=4,missing=3
		3:leaf=-0.156368792
		4:[f1<0.495000005] yes=7,no=8,missing=7
			7:leaf=-0.12756519
			8:leaf=0.121168055
	2:[f0<0.61500001] yes=5,no=6,missing=5
		5:[f2<0.74000001] yes=9,no=10,missing=9
			9:leaf=0.196128502
			10:leaf=-0.0341009237
		6:[f6<0.685000002] yes=11,no=12,missing=11
			11:leaf=-0.0932074189
			12:leaf=0.0957865044
booster[22]:
0:[f6<0.61500001] yes=1,no=2,missing=1
	1:[f4<0.234999999] yes=3,no=4,missing=3
		3:leaf=0.0377469026
		4:leaf=-0.15713793
	2:[f0<0.465000004] yes=5,no=6,missing=5
		5:leaf=-0.131580055
		6:[f1<0.629999995] yes=7,no=8,missing=7
			7:leaf=0.11523997
			8:leaf=-0.106405571
booster[23]:
0:[f4<0.644999981] yes=1,no=2,missing=1
	1:[f1<0.745000005] yes=3,no=4,missing=3
		3:leaf=-0.158827066
		4:[f4<0.504999995] yes=7,no=8,missing=7
			7:leaf=-0.113583311
			8:leaf=0.151919693
	2:[f6<0.574999988] yes=5,no=6,missing=5
		5:[f0<0.61500001] yes=9,no=10,missing=9
			9:leaf=0.0752996877
			10:leaf=0.220316932
		6:leaf=-0.126115486
booster[24]:
0:[f1<0.555000007] yes=1,no=2,missing=1
	1:[f6<0.485000014] yes=3,no=4,missing=3
		3:[f5<0.394999981] yes=7,no=8,missing=7
			7:leaf=-0.114938565
			8:leaf=0.0958830118
		4:leaf=-0.153438315
	2:[f4<0.63499999] yes=5,no=6,missing=5
		5:[f0<0.61500001] yes=9,no=10,missing=9
			9:leaf=-0.0875496119
			10:leaf=0.180925518
		6:leaf=-0.132845029
booster[25]:
0:[f5<0.38499999] yes=1,no=2,missing=1
	1:[f1<0.529999971] yes=3,no=4,missing=3
		3:leaf=0.18351911
		4:[f5<0.355000019] yes=7,no=8,missing=7
			7:leaf=0.124439776
			8:leaf=-0.0756806433
	2:[f0<0.444999993] yes=5,no=6,missing=5
		5:[f5<0.564999998] yes=9,no=10,missing=9
			9:leaf=0.109537773
			10:leaf=-0.117813006
		6:[f0<0.529999971] yes=11,no=12,missing=11
			11:leaf=-0.0463540703
			12:leaf=-0.152983978
booster[26]:
0:[f5<0.61500001] yes=1,no=2,missing=1
	1:[f0<0.164999992] yes=3,no=4,missing=3
		3:leaf=0.0925615951
		4:[f6<0.529999971] yes=7,no=8,missing=7
			7:leaf=-0.152776927
			8:leaf=-0.0328143351
	2:[f0<0.745000005] yes=5,no=6,missing=5
		5:[f5<0.774999976] yes=9,no=10,missing=9
			9:leaf=0.0902959555
			10:leaf=0.189902797
		6:[f5<0.725000024] yes=11,no=12,missing=11
			11:leaf=0.12097656
			12:leaf=-0.125336096
booster[27]:
0:[f6<0.61500001] yes=1,no=2,missing=1
	1:[f4<0.234999999] yes=3,no=4,missing=3
		3:leaf=0.0388265178
		4:leaf=-0.153030649
	2:[f0<0.465000004] yes=5,no=6,missing=5
		5:leaf=-0.12289463
		6:[f0<0.745000005] yes=7,no=8,missing=7
			7:leaf=0.034739241
			8:leaf=0.150237396
booster[28]:
0:[f4<0.644999981] yes=1,no=2,missing=1
	1:[f1<0.745000005] yes=3,no=4,missing=3
		3:leaf=-0.154860348
		4:[f4<0.504999995] yes=7,no=8,missing=7
			7:leaf=-0.105176225
			8:leaf=0.130248159
	2:[f6<0.574999988] yes=5,no=6,missing=5
		5:[f5<0.379999995] yes=9,no=10,missing=9
			9:leaf=0.064546369
			10:leaf=0.191894844
		6:leaf=-0.118749388
booster[29]:
0:[f1<0.534999967] yes=1,no=2,missing=1
	1:[f0<0.735000014] yes=3,no=4,missing=3
		3:[f0<0.324999988] yes=7,no=8,missing=7
			7:leaf=-0.0653498471
			8:leaf=-0.151656553
		4:[f0<0.745000005] yes=9,no=10,missing=9
			9:leaf=0.154189795
			10:leaf=-0.112100706
	2:[f4<0.504999995] yes=5,no=6,missing=5
		5:[f0<0.539999962] yes=11,no=12,missing=11
			11:leaf=-0.101659261
			12:leaf=0.172683433
		6:[f5<0.524999976] yes=13,no=14,missing=13
			13:leaf=0.0230816696
			14:leaf=-0.147293091
booster[30]:
0:[f5<0.38499999] yes=1,no=2,missing=1
	1:[f1<0.529999971] yes=3,no=4,missing=3
		3:leaf=0.16804713
		4:[f5<0.355000019] yes=7,no=8,missing=7
			7:leaf=0.111177444
			8:leaf=-0.0722193867
	2:[f0<0.444999993] yes=5,no=6,missing=5
		5:[f1<0.38499999] yes=9,no=10,missing=9
			9:leaf=0.14242588
			10:leaf=-0.0392419472
		6:[f0<0.529999971] yes=11,no=12,missing=11
			11:leaf=-0.040402934
			12:leaf=-0.148595542
booster[31]:
0:[f5<0.574999988] yes=1,no=2,missing=1
	1:[f6<0.474999994] yes=3,no=4,missing=3
		3:leaf=-0.147992522
		4:[f1<0.495000005] yes=7,no=8,missing=7
			7:leaf=-0.115926839
			8:leaf=0.125555411
	2:[f0<0.569999993] yes=5,no=6,missing=5
		5:[f0<0.465000004] yes=9,no=10,missing=9
			9:leaf=0.177853748
			10:leaf=0.0990975276
		6:[f1<0.435000002] yes=11,no=12,missing=11
			11:leaf=-0.0510269292
			12:leaf=0.0959834978
booster[32]:
0:[f6<0.61500001] yes=1,no=2,missing=1
	1:[f4<0.234999999] yes=3,no=4,missing=3
		3:leaf=0.0372917801
		4:leaf=-0.149274334
	2:[f0<0.465000004] yes=5,no=6,missing=5
		5:leaf=-0.115732238
		6:[f1<0.629999995] yes=7,no=8,missing=7
			7:leaf=0.0881136507
			8:leaf=-0.100139476
booster[33]:
0:[f4<0.644999981] yes=1,no=2,missing=1
	1:[f1<0.745000005] yes=3,no=4,missing=3
		3:leaf=-0.151347429
		4:[f4<0.504999995] yes=7,no=8,missing=7
			7:leaf=-0.0965561494
			8:leaf=0.108831353
	2:[f6<0.574999988] yes=5,no=6,missing=5
		5:[f1<0.539999962] yes=9,no=10,missing=9
			9:leaf=0.0504504144
			10:leaf=0.173828945
		6:leaf=-0.112447396
booster[34]:
0:[f1<0.534999967] yes=1,no=2,missing=1
	1:[f0<0.735000014] yes=3,no=4,missing=3
		3:[f0<0.324999988] yes=7,no=8,missing=7
			7:leaf=-0.0502513982
			8:leaf=-0.147079453
		4:[f0<0.745000005] yes=9,no=10,missing=9
			9:leaf=0.129795045
			10:leaf=-0.10464488
	2:[f6<0.574999988] yes=5,no=6,missing=5
		5:[f4<0.564999998] yes=11,no=12,missing=11
			11:leaf=0.143138975
			12:leaf=-0.0770012587
		6:leaf=-0.128534868
booster[35]:
0:[f5<0.560000002] yes=1,no=2,missing=1
	1:[f0<0.550000012] yes=3,no=4,missing=3
		3:[f6<0.474999994] yes=5,no=6,missing=5
			5:leaf=0.157722995
			6:leaf=0.0713973567
		4:[f6<0.375] yes=7,no=8,missing=7
			7:leaf=-0.142925173
			8:leaf=0.0532036386
	2:leaf=-0.142529443
booster[36]:
0:[f5<0.61500001] yes=1,no=2,missing=1
	1:[f0<0.164999992] yes=3,no=4,missing=3
		3:leaf=0.0939551517
		4:[f6<0.529999971] yes=7,no=8,missing=7
			7:leaf=-0.145395577
			8:leaf=-0.0297259297
	2:[f0<0.465000004] yes=5,no=6,missing=5
		5:leaf=0.161749482
		6:[f1<0.435000002] yes=9,no=10,missing=9
			9:leaf=0.00327289081
			10:leaf=0.0901490152
booster[37]:
0:[f6<0.61500001] yes=1,no=2,missing=1
	1:[f4<0.234999999] yes=3,no=4,missing=3
		3:leaf=0.0341297314
		4:leaf=-0.145696163
	2:[f0<0.465000004] yes=5,no=6,missing=5
		5:leaf=-0.106585167
		6:[f6<0.88499999] yes=7,no=8,missing=7
			7:leaf=0.0774466619
			8:leaf=-0.085806407
booster[38]:
0:[f4<0.644999981] yes=1,no=2,missing=1
	1:[f1<0.745000005] yes=3,no=4,missing=3
		3:leaf=-0.148153603
		4:[f4<0.504999995] yes=7,no=8,missing=7
			7:leaf=-0.0886507332
			8:leaf=0.0970023423
	2:[f6<0.574999988] yes=5,no=6,missing=5
		5:[f1<0.539999962] yes=9,no=10,missing=9
			9:leaf=0.0435528271
			10:leaf=0.158724681
		6:leaf=-0.105702229
booster[39]:
0:[f6<0.564999998] yes=1,no=2,missing=1
	1:[f5<0.355000019] yes=3,no=4,missing=3
		3:[f4<0.454999983] yes=5,no=6,missing=5
			5:leaf=-0.161551803
			6:leaf=-0.0377242565
		4:[f4<0.564999998] yes=7,no=8,missing=7
			7:leaf=0.12070968
			8:leaf=-0.0732643828
	2:leaf=-0.144111454
booster[40]:
0:[f5<0.38499999] yes=1,no=2,missing=1
	1:[f1<0.529999971] yes=3,no=4,missing=3
		3:leaf=0.145933494
		4:[f6<0.355000019] yes=7,no=8,missing=7
			7:leaf=-0.0676927939
			8:leaf=0.109020285
	2:[f0<0.529999971] yes=5,no=6,missing=5
		5:[f5<0.564999998] yes=9,no=10,missing=9
			9:leaf=0.0743479952
			10:leaf=-0.117437847
		6:leaf=-0.141311944
booster[41]:
0:[f5<0.61500001] yes=1,no=2,missing=1
	1:[f0<0.164999992] yes=3,no=4,missing=3
		3:leaf=0.0892209038
		4:[f6<0.529999971] yes=7,no=8,missing=7
			7:leaf=-0.141475171
			8:leaf=-0.0239601154
	2:[f4<0.61500001] yes=5,no=6,missing=5
		5:[f0<0.61500001] yes=9,no=10,missing=9
			9:leaf=0.147983298
			10:leaf=0.0409187078
		6:[f6<0.75] yes=11,no=12,missing=11
			11:leaf=0.135750622
			12:leaf=-0.0892999321
booster[42]:
0:[f6<0.61500001] yes=1,no=2,missing=1
	1:[f4<0.234999999] yes=3,no=4,missing=3
		3:leaf=0.0340902321
		4:leaf=-0.142081082
	2:[f0<0.745000005] yes=5,no=6,missing=5
		5:[f5<0.774999976] yes=7,no=8,missing=7
			7:leaf=0.0689779595
			8:leaf=-0.0936244056
		6:[f0<0.819999993] yes=9,no=10,missing=9
			9:leaf=0.177477077
			10:leaf=0.00155811629
booster[43]:
0:[f4<0.644999981] yes=1,no=2,missing=1
	1:[f1<0.745000005] yes=3,no=4,missing=3
		3:leaf=-0.144979507
		4:[f6<0.335000008] yes=7,no=8,missing=7
			7:leaf=0.0825991035
			8:leaf=-0.0881895795
	2:[f6<0.574999988] yes=5,no=6,missing=5
		5:[f0<0.61500001] yes=9,no=10,missing=9
			9:leaf=0.0382664427
			10:leaf=0.14537482
		6:leaf=-0.0999114737
booster[44]:
0:[f6<0.564999998] yes=1,no=2,missing=1
	1:[f0<0.61500001] yes=3,no=4,missing=3
		3:[f4<0.514999986] yes=5,no=6,missing=5
			5:leaf=-0.103356935
			6:leaf=0.0655601099
		4:[f4<0.564999998] yes=7,no=8,missing=7
			7:leaf=0.140722722
			8:leaf=-0.0603661947
	2:leaf=-0.139833704
booster[45]:
0:[f5<0.355000019] yes=1,no=2,missing=1
	1:[f4<0.504999995] yes=3,no=4,missing=3
		3:leaf=0.161473259
		4:[f4<0.534999967] yes=7,no=8,missing=7
			7:leaf=-0.0490553826
			8:leaf=0.122221768
	2:[f0<0.529999971] yes=5,no=6,missing=5
		5:[f5<0.564999998] yes=9,no=10,missing=9
			9:leaf=0.0748207793
			10:leaf=-0.110327937
		6:[f4<0.36500001] yes=11,no=12,missing=11
			11:leaf=-0.0195996445
			12:leaf=-0.142773047
booster[46]:
0:[f5<0.574999988] yes=1,no=2,missing=1
	1:[f6<0.474999994] yes=3,no=4,missing=3
		3:leaf=-0.136190251
		4:[f1<0.495000005] yes=7,no=8,missing=7
			7:leaf=-0.102602556
			8:leaf=0.134543493
	2:[f0<0.465000004] yes=5,no=6,missing=5
		5:leaf=0.146031111
		6:[f5<0.774999976] yes=9,no=10,missing=9
			9:leaf=0.00873233285
			10:leaf=0.0846206397
booster[47]:
0:[f6<0.61500001] yes=1,no=2,missing=1
	1:[f4<0.234999999] yes=3,no=4,missing=3
		3:leaf=0.0326563977
		4:leaf=-0.138327986
	2:[f4<0.534999967] yes=5,no=6,missing=5
		5:[f6<0.685000002] yes=7,no=8,missing=7
			7:leaf=0.122836046
			8:leaf=-0.0901231766
		6:[f4<0.704999983] yes=9,no=10,missing=9
			9:leaf=0.0837459862
			10:leaf=-0.0853015557
booster[48]:
0:[f6<0.335000008] yes=1,no=2,missing=1
	1:[f4<0.504999995] yes=3,no=4,missing=3
		3:leaf=-0.102104574
		4:[f6<0.24000001] yes=7,no=8,missing=7
			7:leaf=-0.0208908953
			8:leaf=0.150285676
	2:[f4<0.725000024] yes=5,no=6,missing=5
		5:leaf=-0.1432105
		6:leaf=0.0499867015
booster[49]:
0:[f6<0.564999998] yes=1,no=2,missing=1
	1:[f5<0.355000019] yes=3,no=4,missing=3
		3:[f4<0.524999976] yes=5,no=6,missing=5
			5:leaf=-0.127517432
			6:leaf=0.0231393762
		4:[f4<0.564999998] yes=7,no=8,missing=7
			7:leaf=0.102829024
			8:leaf=-0.0617634542
	2:leaf=-0.135540918
booster[50]:
0:[f5<0.38499999] yes=1,no=2,missing=1
	1:[f1<0.529999971] yes=3,no=4,missing=3
		3:[f4<0.524999976] yes=7,no=8,missing=7
			7:leaf=0.14597109
			8:leaf=0.0650730357
		4:[f6<0.355000019] yes=9,no=10,missing=9
			9:leaf=-0.0733829141
			10:leaf=0.104134746
	2:[f1<0.38499999] yes=5,no=6,missing=5
		5:[f5<0.534999967] yes=11,no=12,missing=11
			11:leaf=0.09399084
			12:leaf=-0.0202334896
		6:[f0<0.425000012] yes=13,no=14,missing=13
			13:leaf=-0.0288953166
			14:leaf=-0.129257053
booster[51]:
0:[f5<0.61500001] yes=1,no=2,missing=1
	1:[f0<0.164999992] yes=3,no=4,missing=3
		3:leaf=0.0938131064
		4:[f6<0.529999971] yes=7,no=8,missing=7
			7:leaf=-0.133937716
			8:leaf=-0.0158539843
	2:[f0<0.465000004] yes=5,no=6,missing=5
		5:leaf=0.134563625
		6:[f0<0.495000005] yes=9,no=10,missing=9
			9:leaf=-0.0516462065
			10:leaf=0.0507715642
booster[52]:
0:[f6<0.61500001] yes=1,no=2,missing=1
	1:[f4<0.234999999] yes=3,no=4,missing=3
		3:leaf=0.0347519629
		4:leaf=-0.134463951
	2:[f1<0.629999995] yes=5,no=6,missing=5
		5:[f4<0.61500001] yes=7,no=8,missing=7
			7:leaf=0.0035708826
			8:leaf=0.109199964
		6:leaf=-0.101560034
booster[53]:
0:[f6<0.335000008] yes=1,no=2,missing=1
	1:[f0<0.590000033] yes=3,no=4,missing=3
		3:leaf=-0.0990125015
		4:[f4<0.555000007] yes=7,no=8,missing=7
			7:leaf=-0.00258084456
			8:leaf=0.144888818
	2:[f4<0.725000024] yes=5,no=6,missing=5
		5:leaf=-0.13996692
		6:leaf=0.042333141
booster[54]:
0:[f6<0.529999971] yes=1,no=2,missing=1
	1:[f5<0.355000019] yes=3,no=4,missing=3
		3:[f4<0.454999983] yes=7,no=8,missing=7
			7:leaf=-0.156443939
			8:leaf=-0.00686757918
		4:[f4<0.564999998] yes=9,no=10,missing=9
			9:leaf=0.101032294
			10:leaf=-0.0565274395
	2:[f1<0.584999979] yes=5,no=6,missing=5
		5:leaf=-0.132301062
		6:leaf=-0.0258905683
booster[55]:
0:[f5<0.355000019] yes=1,no=2,missing=1
	1:[f4<0.454999983] yes=3,no=4,missing=3
		3:leaf=0.163665503
		4:[f5<0.275000006] yes=7,no=8,missing=7
			7:leaf=0.122197069
			8:leaf=-0.00293269334
	2:[f0<0.529999971] yes=5,no=6,missing=5
		5:[f5<0.564999998] yes=9,no=10,missing=9
			9:leaf=0.0595015585
			10:leaf=-0.0988352522
		6:[f4<0.36500001] yes=11,no=12,missing=11
			11:leaf=-0.0182320327
			12:leaf=-0.135598049
booster[56]:
0:[f5<0.61500001] yes=1,no=2,missing=1
	1:[f1<0.504999995] yes=3,no=4,missing=3
		3:leaf=-0.134541601
		4:[f0<0.504999995] yes=7,no=8,missing=7
			7:leaf=0.182453677
			8:leaf=-0.118942656
	2:[f0<0.465000004] yes=5,no=6,missing=5
		5:leaf=0.128598362
		6:[f1<0.435000002] yes=9,no=10,missing=9
			9:leaf=-0.0143779507
			10:leaf=0.0561672337
booster[57]:
0:[f6<0.61500001] yes=1,no=2,missing=1
	1:[f4<0.234999999] yes=3,no=4,missing=3
		3:leaf=0.0377158485
		4:leaf=-0.130468681
	2:[f4<0.704999983] yes=5,no=6,missing=5
		5:[f4<0.61500001] yes=7,no=8,missing=7
			7:leaf=0.0028454354
			8:leaf=0.114597745
		6:leaf=-0.0849197879
booster[58]:
0:[f1<0.675000012] yes=1,no=2,missing=1
	1:[f4<0.654999971] yes=3,no=4,missing=3
		3:leaf=-0.135602474
		4:[f6<0.314999998] yes=7,no=8,missing=7
			7:leaf=0.058565978
			8:leaf=-0.0506568961
	2:[f0<0.61500001] yes=5,no=6,missing=5
		5:leaf=0.127461568
		6:[f4<0.555000007] yes=9,no=10,missing=9
			9:leaf=-0.0875383317
			10:leaf=0.0712491199
booster[59]:
0:[f6<0.564999998] yes=1,no=2,missing=1
	1:[f0<0.644999981] yes=3,no=4,missing=3
		3:[f4<0.514999986] yes=5,no=6,missing=5
			5:leaf=-0.071127817
			6:leaf=0.0703474954
		4:[f4<0.564999998] yes=7,no=8,missing=7
			7:leaf=0.138965413
			8:leaf=-0.0595515743
	2:leaf=-0.127645299
booster[60]:
0:[f5<0.38499999] yes=1,no=2,missing=1
	1:[f1<0.529999971] yes=3,no=4,missing=3
		3:[f4<0.524999976] yes=7,no=8,missing=7
			7:leaf=0.136248872
			8:leaf=0.0445597246
		4:[f6<0.355000019] yes=9,no=10,missing=9
			9:leaf=-0.0726510733
			10:leaf=0.0925006643
	2:[f1<0.38499999] yes=5,no=6,missing=5
		5:[f5<0.485000014] yes=11,no=12,missing=11
			11:leaf=0.0941966102
			12:leaf=-0.00235896907
		6:[f4<0.425000012] yes=13,no=14,missing=13
			13:leaf=-0.0126435664
			14:leaf=-0.121358566
booster[61]:
0:[f6<0.474999994] yes=1,no=2,missing=1
	1:[f5<0.625] yes=3,no=4,missing=3
		3:leaf=-0.123810701
		4:leaf=0.0430450886
	2:[f1<0.355000019] yes=5,no=6,missing=5
		5:leaf=-0.116583407
		6:[f0<0.465000004] yes=7,no=8,missing=7
			7:leaf=0.136169627
			8:leaf=0.0300849546
booster[62]:
0:[f5<0.485000014] yes=1,no=2,missing=1
	1:leaf=-0.121046804
	2:[f1<0.625] yes=3,no=4,missing=3
		3:[f6<0.88499999] yes=5,no=6,missing=5
			5:leaf=0.0469712876
			6:leaf=-0.083568722
		4:leaf=-0.109947123
booster[63]:
0:[f6<0.335000008] yes=1,no=2,missing=1
	1:[f0<0.590000033] yes=3,no=4,missing=3
		3:leaf=-0.085757263
		4:[f4<0.555000007] yes=7,no=8,missing=7
			7:leaf=0.00403279858
			8:leaf=0.128611043
	2:[f4<0.725000024] yes=5,no=6,missing=5
		5:leaf=-0.134009168
		6:leaf=0.0326690115
booster[64]:
0:[f6<0.529999971] yes=1,no=2,missing=1
	1:[f1<0.38499999] yes=3,no=4,missing=3
		3:leaf=-0.109229729
		4:[f4<0.550000012] yes=7,no=8,missing=7
			7:leaf=0.077746287
			8:leaf=-0.0581555255
	2:[f6<0.584999979] yes=5,no=6,missing=5
		5:leaf=-0.0298778117
		6:leaf=-0.122775339
booster[65]:
0:[f5<0.355000019] yes=1,no=2,missing=1
	1:[f4<0.454999983] yes=3,no=4,missing=3
		3:leaf=0.157127082
		4:[f5<0.275000006] yes=7,no=8,missing=7
			7:leaf=0.110598937
			8:leaf=-0.0200611278
	2:[f0<0.529999971] yes=5,no=6,missing=5
		5:[f5<0.564999998] yes=9,no=10,missing=9
			9:leaf=0.0482286476
			10:leaf=-0.086510621
		6:[f4<0.36500001] yes=11,no=12,missing=11
			11:leaf=-0.0186765175
			12:leaf=-0.129450813
booster[66]:
0:[f5<0.61500001] yes=1,no=2,missing=1
	1:[f1<0.504999995] yes=3,no=4,missing=3
		3:leaf=-0.127286389
		4:[f0<0.504999995] yes=7,no=8,missing=7
			7:leaf=0.154067233
			8:leaf=-0.110792771
	2:[f4<0.534999967] yes=5,no=6,missing=5
		5:[f6<0.685000002] yes=9,no=10,missing=9
			9:leaf=-0.0172883794
			10:leaf=0.120073974
		6:[f6<0.735000014] yes=11,no=12,missing=11
			11:leaf=0.104272313
			12:leaf=-0.0169504229
booster[67]:
0:[f5<0.485000014] yes=1,no=2,missing=1
	1:leaf=-0.116038911
	2:[f1<0.625] yes=3,no=4,missing=3
		3:[f4<0.704999983] yes=5,no=6,missing=5
			5:leaf=0.0420203432
			6:leaf=-0.0773747936
		4:leaf=-0.104377337
booster[68]:
0:[f1<0.675000012] yes=1,no=2,missing=1
	1:[f4<0.654999971] yes=3,no=4,missing=3
		3:leaf=-0.128671065
		4:leaf=-0.00032422907
	2:[f0<0.61500001] yes=5,no=6,missing=5
		5:leaf=0.116046607
		6:[f0<0.675000012] yes=7,no=8,missing=7
			7:leaf=-0.0512842573
			8:leaf=0.0547486804
booster[69]:
0:[f6<0.529999971] yes=1,no=2,missing=1
	1:[f1<0.38499999] yes=3,no=4,missing=3
		3:leaf=-0.102628142
		4:[f1<0.414999992] yes=7,no=8,missing=7
			7:leaf=0.218495578
			8:leaf=0.0101499986
	2:[f1<0.574999988] yes=5,no=6,missing=5
		5:leaf=-0.119376935
		6:leaf=-0.0273182336
booster[70]:
0:[f5<0.38499999] yes=1,no=2,missing=1
	1:[f4<0.504999995] yes=3,no=4,missing=3
		3:[f6<0.324999988] yes=7,no=8,missing=7
			7:leaf=0.00199583312
			8:leaf=0.13955912
		4:[f4<0.534999967] yes=9,no=10,missing=9
			9:leaf=-0.0930818021
			10:leaf=0.0872239098
	2:[f0<0.529999971] yes=5,no=6,missing=5
		5:[f5<0.405000001] yes=11,no=12,missing=11
			11:leaf=-0.112137027
			12:leaf=0.0455910563
		6:leaf=-0.121136464
booster[71]:
0:[f1<0.355000019] yes=1,no=2,missing=1
	1:leaf=-0.114405222
	2:[f5<0.745000005] yes=3,no=4,missing=3
		3:[f0<0.810000002] yes=5,no=6,missing=5
			5:leaf=-0.0383102
			6:leaf=0.195616052
		4:[f0<0.754999995] yes=7,no=8,missing=7
			7:leaf=0.108932495
			8:leaf=-0.117919974
booster[72]:
0:[f6<0.61500001] yes=1,no=2,missing=1
	1:[f4<0.305000007] yes=3,no=4,missing=3
		3:leaf=0.0290262811
		4:leaf=-0.119311787
	2:[f6<0.774999976] yes=5,no=6,missing=5
		5:[f6<0.764999986] yes=7,no=8,missing=7
			7:leaf=0.00927499216
			8:leaf=0.241056323
		6:[f0<0.75999999] yes=9,no=10,missing=9
			9:leaf=-0.0639292821
			10:leaf=0.116447039
booster[73]:
0:[f6<0.335000008] yes=1,no=2,missing=1
	1:[f4<0.564999998] yes=3,no=4,missing=3
		3:leaf=-0.0289585795
		4:leaf=0.0925420225
	2:[f4<0.704999983] yes=5,no=6,missing=5
		5:leaf=-0.126445666
		6:leaf=0.00541302748
booster[74]:
0:[f4<0.545000017] yes=1,no=2,missing=1
	1:[f4<0.514999986] yes=3,no=4,missing=3
		3:[f0<0.550000012] yes=7,no=8,missing=7
			7:leaf=-0.123155341
			8:leaf=0.049543228
		4:leaf=0.165498763
	2:[f5<0.524999976] yes=5,no=6,missing=5
		5:[f1<0.590000033] yes=9,no=10,missing=9
			9:leaf=-0.0808587596
			10:leaf=0.0238527097
		6:leaf=-0.116799727
booster[75]:
0:[f5<0.355000019] yes=1,no=2,missing=1
	1:[f4<0.454999983] yes=3,no=4,missing=3
		3:leaf=0.149028331
		4:[f5<0.275000006] yes=7,no=8,missing=7
			7:leaf=0.100722969
			8:leaf=-0.0248223394
	2:[f0<0.435000002] yes=5,no=6,missing=5
		5:[f0<0.335000008] yes=9,no=10,missing=9
			9:leaf=-0.0476658754
			10:leaf=0.0987586603
		6:[f4<0.425000012] yes=11,no=12,missing=11
			11:leaf=0.0195368398
			12:leaf=-0.130987585
booster[76]:
0:[f6<0.474999994] yes=1,no=2,missing=1
	1:[f5<0.625] yes=3,no=4,missing=3
		3:leaf=-0.11204163
		4:leaf=0.0408917516
	2:[f1<0.495000005] yes=5,no=6,missing=5
		5:[f0<0.680000007] yes=7,no=8,missing=7
			7:leaf=-0.0773224905
			8:leaf=0.0659568384
		6:[f1<0.524999976] yes=9,no=10,missing=9
			9:leaf=0.15981245
			10:leaf=0.014310481
booster[77]:
0:[f0<0.465000004] yes=1,no=2,missing=1
	1:leaf=-0.107591383
	2:[f1<0.620000005] yes=3,no=4,missing=3
		3:[f0<0.675000012] yes=5,no=6,missing=5
			5:leaf=0.0714803711
			6:leaf=-0.00264029484
		4:leaf=-0.106492803
booster[78]:
0:[f1<0.675000012] yes=1,no=2,missing=1
	1:[f4<0.654999971] yes=3,no=4,missing=3
		3:leaf=-0.121369489
		4:leaf=-0.00695782434
	2:[f6<0.375] yes=5,no=6,missing=5
		5:[f4<0.555000007] yes=7,no=8,missing=7
			7:leaf=0.0199233647
			8:leaf=0.0900610015
		6:leaf=-0.00907653291
booster[79]:
0:[f6<0.564999998] yes=1,no=2,missing=1
	1:[f0<0.644999981] yes=3,no=4,missing=3
		3:[f0<0.324999988] yes=5,no=6,missing=5
			5:leaf=0.0831060484
			6:leaf=-0.0649993122
		4:[f4<0.564999998] yes=7,no=8,missing=7
			7:leaf=0.114758596
			8:leaf=-0.0475793667
	2:leaf=-0.11248029
booster[80]:
0:[f5<0.355000019] yes=1,no=2,missing=1
	1:[f4<0.454999983] yes=3,no=4,missing=3
		3:leaf=0.141351625
		4:[f6<0.38499999] yes=7,no=8,missing=7
			7:leaf=-0.0318274237
			8:leaf=0.0984605998
	2:[f0<0.529999971] yes=5,no=6,missing=5
		5:[f1<0.38499999] yes=9,no=10,missing=9
			9:leaf=0.0836781412
			10:leaf=-0.0317747556
		6:[f4<0.36500001] yes=11,no=12,missing=11
			11:leaf=-0.0123115983
			12:leaf=-0.119087063
booster[81]:
0:[f1<0.355000019] yes=1,no=2,missing=1
	1:leaf=-0.0955789015
	2:[f0<0.61500001] yes=3,no=4,missing=3
		3:[f1<0.564999998] yes=5,no=6,missing=5
			5:leaf=0.0975696668
			6:leaf=-0.032073725
		4:[f1<0.405000001] yes=7,no=8,missing=7
			7:leaf=0.080178529
			8:leaf=-0.0404807888
booster[82]:
0:[f6<0.735000014] yes=1,no=2,missing=1
	1:[f0<0.754999995] yes=3,no=4,missing=3
		3:[f1<0.38499999] yes=7,no=8,missing=7
			7:leaf=0.0316831917
			8:leaf=-0.126695037
		4:leaf=0.119034283
	2:[f1<0.405000001] yes=5,no=6,missing=5
		5:[f4<0.625] yes=9,no=10,missing=9
			9:leaf=-0.118437871
			10:leaf=0.0594759807
		6:[f1<0.435000002] yes=11,no=12,missing=11
			11:leaf=0.19420962
			12:leaf=0.0176171716
booster[83]:
0:[f6<0.335000008] yes=1,no=2,missing=1
	1:[f1<0.564999998] yes=3,no=4,missing=3
		3:leaf=-0.0327083729
		4:[f4<0.555000007] yes=7,no=8,missing=7
			7:leaf=0.01299085
			8:leaf=0.0968739986
	2:[f4<0.704999983] yes=5,no=6,missing=5
		5:leaf=-0.119881451
		6:leaf=0.000804532669
booster[84]:
0:[f6<0.564999998] yes=1,no=2,missing=1
	1:[f1<0.38499999] yes=3,no=4,missing=3
		3:leaf=-0.0939562917
		4:[f1<0.405000001] yes=5,no=6,missing=5
			5:leaf=0.183177561
			6:leaf=0.000981175574
	2:leaf=-0.108867005
booster[85]:
0:[f5<0.38499999] yes=1,no=2,missing=1
	1:[f4<0.504999995] yes=3,no=4,missing=3
		3:[f6<0.324999988] yes=7,no=8,missing=7
			7:leaf=-0.00948740076
			8:leaf=0.126340345
		4:[f4<0.534999967] yes=9,no=10,missing=9
			9:leaf=-0.0838697851
			10:leaf=0.0787716731
	2:[f6<0.485000014] yes=5,no=6,missing=5
		5:[f0<0.319999993] yes=11,no=12,missing=11
			11:leaf=-0.16939579
			12:leaf=-0.0230642706
		6:[f5<0.564999998] yes=13,no=14,missing=13
			13:leaf=0.0704364553
			14:leaf=-0.102593221
booster[86]:
0:[f6<0.474999994] yes=1,no=2,missing=1
	1:[f5<0.625] yes=3,no=4,missing=3
		3:leaf=-0.107064344
		4:leaf=0.0365654789
	2:[f1<0.495000005] yes=5,no=6,missing=5
		5:[f0<0.680000007] yes=7,no=8,missing=7
			7:leaf=-0.0703168958
			8:leaf=0.0533049591
		6:[f0<0.685000002] yes=9,no=10,missing=9
			9:leaf=0.0969456658
			10:leaf=-0.0370589793
booster[87]:
0:[f0<0.465000004] yes=1,no=2,missing=1
	1:leaf=-0.100034252
	2:[f1<0.545000017] yes=3,no=4,missing=3
		3:[f6<0.88499999] yes=5,no=6,missing=5
			5:leaf=0.0475071818
			6:leaf=-0.0651368052
		4:[f0<0.50999999] yes=7,no=8,missing=7
			7:leaf=0.049985949
			8:leaf=-0.0980711505
booster[88]:
0:[f6<0.335000008] yes=1,no=2,missing=1
	1:[f1<0.564999998] yes=3,no=4,missing=3
		3:leaf=-0.0319974199
		4:[f4<0.555000007] yes=7,no=8,missing=7
			7:leaf=0.0116423517
			8:leaf=0.0917651579
	2:[f4<0.704999983] yes=5,no=6,missing=5
		5:leaf=-0.116213255
		6:leaf=0.000253193139
booster[89]:
0:[f4<0.534999967] yes=1,no=2,missing=1
	1:[f4<0.514999986] yes=3,no=4,missing=3
		3:[f0<0.550000012] yes=7,no=8,missing=7
			7:leaf=-0.115228437
			8:leaf=0.0383498669
		4:leaf=0.181288153
	2:[f1<0.590000033] yes=5,no=6,missing=5
		5:leaf=-0.109298706
		6:leaf=-0.0171920452
booster[90]:
0:[f5<0.355000019] yes=1,no=2,missing=1
	1:[f4<0.454999983] yes=3,no=4,missing=3
		3:leaf=0.130763456
		4:[f6<0.38499999] yes=7,no=8,missing=7
			7:leaf=-0.0340396836
			8:leaf=0.093448326
	2:[f4<0.425000012] yes=5,no=6,missing=5
		5:[f4<0.335000008] yes=9,no=10,missing=9
			9:leaf=-0.103697218
			10:leaf=0.0969063193
		6:[f1<0.504999995] yes=11,no=12,missing=11
			11:leaf=-0.0111724976
			12:leaf=-0.14534606
booster[91]:
0:[f6<0.474999994] yes=1,no=2,missing=1
	1:[f5<0.625] yes=3,no=4,missing=3
		3:leaf=-0.102200292
		4:leaf=0.0321777277
	2:[f0<0.465000004] yes=5,no=6,missing=5
		5:[f1<0.465000004] yes=7,no=8,missing=7
			7:leaf=-0.00585317705
			8:leaf=0.131640956
		6:[f1<0.405000001] yes=9,no=10,missing=9
			9:leaf=0.0576599315
			10:leaf=-0.0144196255
booster[92]:
0:[f4<0.534999967] yes=1,no=2,missing=1
	1:[f1<0.425000012] yes=3,no=4,missing=3
		3:[f0<0.620000005] yes=7,no=8,missing=7
			7:leaf=-0.00121947285
			8:leaf=0.0809231177
		4:[f0<0.764999986] yes=9,no=10,missing=9
			9:leaf=-0.125538692
			10:leaf=-0.0249463711
	2:[f1<0.405000001] yes=5,no=6,missing=5
		5:[f1<0.375] yes=11,no=12,missing=11
			11:leaf=0.0409032479
			12:leaf=-0.1150757
		6:[f1<0.495000005] yes=13,no=14,missing=13
			13:leaf=0.130413547
			14:leaf=-0.00609653955
booster[93]:
0:[f1<0.675000012] yes=1,no=2,missing=1
	1:[f6<0.335000008] yes=3,no=4,missing=3
		3:leaf=-0.00850106869
		4:leaf=-0.111189447
	2:[f6<0.335000008] yes=5,no=6,missing=5
		5:leaf=0.0608300716
		6:leaf=-0.00115253823
booster[94]:
0:[f6<0.564999998] yes=1,no=2,missing=1
	1:[f0<0.284999996] yes=3,no=4,missing=3
		3:leaf=-0.0836730748
		4:[f0<0.335000008] yes=5,no=6,missing=5
			5:leaf=0.185533255
			6:leaf=-0.00442241179
	2:leaf=-0.102583557
booster[95]:
0:[f5<0.560000002] yes=1,no=2,missing=1
	1:[f1<0.375] yes=3,no=4,missing=3
		3:leaf=0.108248204
		4:[f1<0.394999981] yes=5,no=6,missing=5
			5:leaf=-0.11174152
			6:leaf=0.0366213843
	2:leaf=-0.0995839089
booster[96]:
0:[f6<0.774999976] yes=1,no=2,missing=1
	1:[f6<0.764999986] yes=3,no=4,missing=3
		3:[f0<0.810000002] yes=7,no=8,missing=7
			7:leaf=-0.0112262052
			8:leaf=0.115594104
		4:leaf=-0.158236593
	2:[f0<0.75999999] yes=5,no=6,missing=5
		5:[f1<0.430000007] yes=9,no=10,missing=9
			9:leaf=-0.0123758772
			10:leaf=0.118868724
		6:leaf=-0.0914416239
booster[97]:
0:[f0<0.465000004] yes=1,no=2,missing=1
	1:leaf=-0.0932767913
	2:[f1<0.620000005] yes=3,no=4,missing=3
		3:[f4<0.704999983] yes=5,no=6,missing=5
			5:leaf=0.0346755087
			6:leaf=-0.0683902204
		4:leaf=-0.0914860219
booster[98]:
0:[f1<0.675000012] yes=1,no=2,missing=1
	1:[f4<0.654999971] yes=3,no=4,missing=3
		3:leaf=-0.107427873
		4:leaf=-0.00461095432
	2:[f1<0.769999981] yes=5,no=6,missing=5
		5:leaf=0.0580201335
		6:leaf=-0.00465453696
booster[99]:
0:[f4<0.545000017] yes=1,no=2,missing=1
	1:[f4<0.514999986] yes=3,no=4,missing=3
		3:[f1<0.529999971] yes=5,no=6,missing=5
			5:leaf=-0.0953965411
			6:leaf=0.0462914146
		4:leaf=0.106282651
	2:leaf=-0.0826295018
booster[100]:
0:[f5<0.355000019] yes=1,no=2,missing=1
	1:[f0<0.324999988] yes=3,no=4,missing=3
		3:leaf=-0.007764176
		4:[f6<0.335000008] yes=7,no=8,missing=7
			7:leaf=0.0253080074
			8:leaf=0.127575547
	2:[f0<0.435000002] yes=5,no=6,missing=5
		5:[f5<0.405000001] yes=9,no=10,missing=9
			9:leaf=-0.0505124703
			10:leaf=0.0780147687
		6:[f4<0.425000012] yes=11,no=12,missing=11
			11:leaf=0.0161616784
			12:leaf=-0.121719524
booster[101]:
0:[f6<0.474999994] yes=1,no=2,missing=1
	1:[f5<0.625] yes=3,no=4,missing=3
		3:leaf=-0.0966700986
		4:leaf=0.0272329804
	2:[f0<0.465000004] yes=5,no=6,missing=5
		5:[f1<0.485000014] yes=7,no=8,missing=7
			7:leaf=-0.00234508188
			8:leaf=0.124160267
		6:[f1<0.405000001] yes=9,no=10,missing=9
			9:leaf=0.0525135994
			10:leaf=-0.0122682611
booster[102]:
0:[f6<0.735000014] yes=1,no=2,missing=1
	1:[f0<0.754999995] yes=3,no=4,missing=3
		3:[f1<0.38499999] yes=7,no=8,missing=7
			7:leaf=0.0302539784
			8:leaf=-0.120857053
		4:leaf=0.106750861
	2:[f6<0.774999976] yes=5,no=6,missing=5
		5:[f0<0.699999988] yes=9,no=10,missing=9
			9:leaf=0.197232917
			10:leaf=-0.0708150491
		6:[f0<0.694999993] yes=11,no=12,missing=11
			11:leaf=-0.0734967887
			12:leaf=0.054478202
booster[103]:
0:[f6<0.335000008] yes=1,no=2,missing=1
	1:[f4<0.564999998] yes=3,no=4,missing=3
		3:leaf=-0.0167809781
		4:leaf=0.070345372
	2:[f1<0.675000012] yes=5,no=6,missing=5
		5:leaf=-0.103674188
		6:leaf=-0.00832352322
booster[104]:
0:[f6<0.564999998] yes=1,no=2,missing=1
	1:[f0<0.654999971] yes=3,no=4,missing=3
		3:[f1<0.394999981] yes=5,no=6,missing=5
			5:leaf=0.0770951062
			6:leaf=-0.0552446954
		4:[f4<0.504999995] yes=7,no=8,missing=7
			7:leaf=0.0905490667
			8:leaf=0.00156212365
	2:leaf=-0.0963256732
booster[105]:
0:[f5<0.275000006] yes=1,no=2,missing=1
	1:leaf=0.0983386934
	2:[f6<0.38499999] yes=3,no=4,missing=3
		3:[f1<0.730000019] yes=5,no=6,missing=5
			5:leaf=-0.148259804
			6:leaf=0.0314119682
		4:[f5<0.560000002] yes=7,no=8,missing=7
			7:leaf=0.042318251
			8:leaf=-0.089712292
booster[106]:
0:[f5<0.61500001] yes=1,no=2,missing=1
	1:[f0<0.504999995] yes=3,no=4,missing=3
		3:[f1<0.504999995] yes=7,no=8,missing=7
			7:leaf=-0.0877649859
			8:leaf=0.0975317061
		4:leaf=-0.110025488
	2:[f6<0.735000014] yes=5,no=6,missing=5
		5:[f0<0.654999971] yes=9,no=10,missing=9
			9:leaf=0.135603398
			10:leaf=-0.0314538255
		6:[f4<0.61500001] yes=11,no=12,missing=11
			11:leaf=0.0367500186
			12:leaf=-0.061542701
booster[107]:
0:[f0<0.564999998] yes=1,no=2,missing=1
	1:[f6<0.735000014] yes=3,no=4,missing=3
		3:leaf=-0.115589507
		4:[f5<0.745000005] yes=7,no=8,missing=7
			7:leaf=0.120705478
			8:leaf=-0.0915982127
	2:[f1<0.435000002] yes=5,no=6,missing=5
		5:[f0<0.680000007] yes=9,no=10,missing=9
			9:leaf=0.18028976
			10:leaf=0.000668745721
		6:[f4<0.665000021] yes=11,no=12,missing=11
			11:leaf=-0.0535675213
			12:leaf=0.0844233185
booster[108]:
0:[f6<0.335000008] yes=1,no=2,missing=1
	1:[f6<0.275000006] yes=3,no=4,missing=3
		3:leaf=-0.0257355571
		4:leaf=0.0598043315
	2:[f4<0.654999971] yes=5,no=6,missing=5
		5:leaf=-0.10065829
		6:leaf=-0.00780945411
booster[109]:
0:[f6<0.495000005] yes=1,no=2,missing=1
	1:[f5<0.355000019] yes=3,no=4,missing=3
		3:[f0<0.324999988] yes=7,no=8,missing=7
			7:leaf=0.0661344677
			8:leaf=-0.0913771093
		4:[f1<0.529999971] yes=9,no=10,missing=9
			9:leaf=-0.0164473038
			10:leaf=0.0833992437
	2:[f1<0.564999998] yes=5,no=6,missing=5
		5:leaf=-0.0954019651
		6:leaf=-0.0113796405
booster[110]:
0:[f5<0.275000006] yes=1,no=2,missing=1
	1:leaf=0.0931317061
	2:[f4<0.514999986] yes=3,no=4,missing=3
		3:[f6<0.344999999] yes=5,no=6,missing=5
			5:leaf=-0.0835705549
			6:leaf=0.0460096858
		4:[f0<0.324999988] yes=7,no=8,missing=7
			7:leaf=-0.132465765
			8:leaf=-0.0122992927
booster[111]:
0:[f6<0.774999976] yes=1,no=2,missing=1
	1:[f0<0.810000002] yes=3,no=4,missing=3
		3:[f6<0.735000014] yes=7,no=8,missing=7
			7:leaf=0.0168187357
			8:leaf=-0.121061936
		4:leaf=0.0954643637
	2:[f0<0.75999999] yes=5,no=6,missing=5
		5:[f1<0.430000007] yes=9,no=10,missing=9
			9:leaf=-0.0117303384
			10:leaf=0.108452767
		6:leaf=-0.0865967497
booster[112]:
0:[f0<0.745000005] yes=1,no=2,missing=1
	1:[f6<0.735000014] yes=3,no=4,missing=3
		3:[f1<0.454999983] yes=7,no=8,missing=7
			7:leaf=0.0112457424
			8:leaf=-0.128367871
		4:[f6<0.774999976] yes=9,no=10,missing=9
			9:leaf=0.126308203
			10:leaf=-0.0479125343
	2:[f5<0.725000024] yes=5,no=6,missing=5
		5:[f0<0.810000002] yes=11,no=12,missing=11
			11:leaf=0.100244239
			12:leaf=-0.138646632
		6:leaf=0.124493577
booster[113]:
0:[f1<0.564999998] yes=1,no=2,missing=1
	1:leaf=-0.0825008079
	2:[f6<0.335000008] yes=3,no=4,missing=3
		3:leaf=0.0556133129
		4:leaf=-0.0253152996
booster[114]:
0:[f4<0.534999967] yes=1,no=2,missing=1
	1:[f4<0.514999986] yes=3,no=4,missing=3
		3:[f1<0.529999971] yes=7,no=8,missing=7
			7:leaf=-0.0892108381
			8:leaf=0.0407675654
		4:leaf=0.115183525
	2:[f1<0.590000033] yes=5,no=6,missing=5
		5:leaf=-0.0938964188
		6:leaf=-0.0148573844
booster[115]:
0:[f5<0.38499999] yes=1,no=2,missing=1
	1:[f6<0.38499999] yes=3,no=4,missing=3
		3:[f5<0.275000006] yes=7,no=8,missing=7
			7:leaf=0.0881416723
			8:leaf=-0.0691942647
		4:leaf=0.0856369883
	2:[f6<0.485000014] yes=5,no=6,missing=5
		5:[f0<0.319999993] yes=9,no=10,missing=9
			9:leaf=-0.118234292
			10:leaf=-0.0227226987
		6:[f0<0.435000002] yes=11,no=12,missing=11
			11:leaf=0.0750061125
			12:leaf=-0.0578959398
booster[116]:
0:[f6<0.685000002] yes=1,no=2,missing=1
	1:[f0<0.63499999] yes=3,no=4,missing=3
		3:[f5<0.600000024] yes=7,no=8,missing=7
			7:leaf=-0.0205911715
			8:leaf=0.102046512
		4:leaf=-0.12365447
	2:[f6<0.735000014] yes=5,no=6,missing=5
		5:[f0<0.710000038] yes=9,no=10,missing=9
			9:leaf=0.111743264
			10:leaf=0.030737469
		6:[f1<0.414999992] yes=11,no=12,missing=11
			11:leaf=0.0714595839
			12:leaf=-0.0261688866
booster[117]:
0:[f0<0.564999998] yes=1,no=2,missing=1
	1:[f6<0.735000014] yes=3,no=4,missing=3
		3:leaf=-0.105612814
		4:[f5<0.745000005] yes=7,no=8,missing=7
			7:leaf=0.0806792676
			8:leaf=-0.0819689482
	2:[f1<0.435000002] yes=5,no=6,missing=5
		5:[f0<0.680000007] yes=9,no=10,missing=9
			9:leaf=0.162941426
			10:leaf=-0.00909444131
		6:[f4<0.665000021] yes=11,no=12,missing=11
			11:leaf=-0.0455180481
			12:leaf=0.0792777538
booster[118]:
0:[f1<0.675000012] yes=1,no=2,missing=1
	1:[f4<0.654999971] yes=3,no=4,missing=3
		3:leaf=-0.0929946303
		4:leaf=-0.00192436913
	2:[f1<0.769999981] yes=5,no=6,missing=5
		5:leaf=0.0510926694
		6:leaf=-0.00536840037
booster[119]:
0:[f4<0.545000017] yes=1,no=2,missing=1
	1:[f1<0.769999981] yes=3,no=4,missing=3
		3:[f4<0.514999986] yes=5,no=6,missing=5
			5:leaf=-0.0426818989
			6:leaf=0.0694982484
		4:leaf=0.097585097
	2:leaf=-0.0716456249
booster[120]:
0:[f5<0.355000019] yes=1,no=2,missing=1
	1:[f1<0.394999981] yes=3,no=4,missing=3
		3:leaf=-0.0101388218
		4:[f6<0.355000019] yes=7,no=8,missing=7
			7:leaf=0.013235962
			8:leaf=0.11337091
	2:[f4<0.425000012] yes=5,no=6,missing=5
		5:[f4<0.355000019] yes=9,no=10,missing=9
			9:leaf=-0.0677285269
			10:leaf=0.0845573395
		6:[f1<0.504999995] yes=11,no=12,missing=11
			11:leaf=-0.00526900403
			12:leaf=-0.127560854
booster[121]:
0:[f4<0.704999983] yes=1,no=2,missing=1
	1:[f4<0.61500001] yes=3,no=4,missing=3
		3:[f1<0.555000007] yes=5,no=6,missing=5
			5:leaf=0.0396092087
			6:leaf=-0.0764911398
		4:[f1<0.534999967] yes=7,no=8,missing=7
			7:leaf=-0.114364147
			8:leaf=0.0952136666
	2:leaf=0.0774678588
booster[122]:
0:[f0<0.745000005] yes=1,no=2,missing=1
	1:[f6<0.735000014] yes=3,no=4,missing=3
		3:[f1<0.454999983] yes=7,no=8,missing=7
			7:leaf=0.0089058606
			8:leaf=-0.118925065
		4:[f6<0.774999976] yes=9,no=10,missing=9
			9:leaf=0.0921535343
			10:leaf=-0.0393513292
	2:[f5<0.725000024] yes=5,no=6,missing=5
		5:[f0<0.810000002] yes=11,no=12,missing=11
			11:leaf=0.0919247866
			12:leaf=-0.121913359
		6:leaf=0.118044749
booster[123]:
0:[f6<0.335000008] yes=1,no=2,missing=1
	1:[f4<0.564999998] yes=3,no=4,missing=3
		3:leaf=-0.0155186923
		4:leaf=0.0642664656
	2:[f6<0.529999971] yes=5,no=6,missing=5
		5:leaf=-0.0146328099
		6:leaf=-0.0855303481
booster[124]:
0:[f6<0.529999971] yes=1,no=2,missing=1
	1:[f5<0.355000019] yes=3,no=4,missing=3
		3:[f5<0.284999996] yes=5,no=6,missing=5
			5:leaf=0.059496019
			6:leaf=-0.0873257667
		4:[f1<0.529999971] yes=7,no=8,missing=7
			7:leaf=-0.0175595656
			8:leaf=0.0755949542
	2:leaf=-0.076364845
booster[125]:
0:[f1<0.38499999] yes=1,no=2,missing=1
	1:leaf=0.067412056
	2:[f1<0.394999981] yes=3,no=4,missing=3
		3:leaf=-0.0987144038
		4:[f0<0.435000002] yes=5,no=6,missing=5
			5:leaf=0.0670570582
			6:leaf=-0.0498306118
booster[126]:
0:[f0<0.555000007] yes=1,no=2,missing=1
	1:[f1<0.564999998] yes=3,no=4,missing=3
		3:[f1<0.485000014] yes=7,no=8,missing=7
			7:leaf=0.00650144136
			8:leaf=0.136671022
		4:leaf=-0.0517557524
	2:[f5<0.644999981] yes=5,no=6,missing=5
		5:leaf=-0.102746695
		6:[f4<0.704999983] yes=9,no=10,missing=9
			9:leaf=-0.00841124076
			10:leaf=0.0810453817
booster[127]:
0:[f0<0.564999998] yes=1,no=2,missing=1
	1:[f1<0.454999983] yes=3,no=4,missing=3
		3:leaf=-0.0997852758
		4:[f6<0.745000005] yes=7,no=8,missing=7
			7:leaf=0.0381111801
			8:leaf=-0.0279626679
	2:[f1<0.435000002] yes=5,no=6,missing=5
		5:[f0<0.680000007] yes=9,no=10,missing=9
			9:leaf=0.150640622
			10:leaf=-0.00623123627
		6:[f4<0.665000021] yes=11,no=12,missing=11
			11:leaf=-0.0403191298
			12:leaf=0.0686894059
booster[128]:
0:[f1<0.675000012] yes=1,no=2,missing=1
	1:[f4<0.63499999] yes=3,no=4,missing=3
		3:leaf=-0.0850599036
		4:leaf=-0.0054082484
	2:[f5<0.430000007] yes=5,no=6,missing=5
		5:leaf=0.0475341901
		6:leaf=0.0059003029
booster[129]:
0:[f4<0.534999967] yes=1,no=2,missing=1
	1:[f4<0.514999986] yes=3,no=4,missing=3
		3:[f0<0.644999981] yes=7,no=8,missing=7
			7:leaf=-0.0549635775
			8:leaf=0.0698445588
		4:leaf=0.0861728489
	2:[f1<0.590000033] yes=5,no=6,missing=5
		5:leaf=-0.0845006406
		6:leaf=-0.0144460248
booster[130]:
0:[f5<0.38499999] yes=1,no=2,missing=1
	1:[f6<0.38499999] yes=3,no=4,missing=3
		3:[f5<0.275000006] yes=7,no=8,missing=7
			7:leaf=0.0814047307
			8:leaf=-0.0610321127
		4:leaf=0.0815345272
	2:[f6<0.485000014] yes=5,no=6,missing=5
		5:[f0<0.319999993] yes=9,no=10,missing=9
			9:leaf=-0.100226291
			10:leaf=-0.0207792129
		6:[f5<0.564999998] yes=11,no=12,missing=11
			11:leaf=0.0487378202
			12:leaf=-0.0773690641
booster[131]:
0:[f4<0.704999983] yes=1,no=2,missing=1
	1:[f0<0.61500001] yes=3,no=4,missing=3
		3:[f5<0.754999995] yes=5,no=6,missing=5
			5:leaf=-0.0140677802
			6:leaf=0.111491397
		4:[f5<0.875] yes=7,no=8,missing=7
			7:leaf=-0.0415701829
			8:leaf=0.0665828586
	2:leaf=0.072083436
booster[132]:
0:[f0<0.745000005] yes=1,no=2,missing=1
	1:[f6<0.735000014] yes=3,no=4,missing=3
		3:[f1<0.454999983] yes=7,no=8,missing=7
			7:leaf=0.00162350468
			8:leaf=-0.112145513
		4:[f1<0.414999992] yes=9,no=10,missing=9
			9:leaf=-0.0953768417
			10:leaf=0.0487813614
	2:[f5<0.725000024] yes=5,no=6,missing=5
		5:leaf=-0.0250518788
		6:leaf=0.114367932
booster[133]:
0:[f4<0.504999995] yes=1,no=2,missing=1
	1:leaf=-0.0794614553
	2:[f6<0.464999974] yes=3,no=4,missing=3
		3:leaf=0.0624012165
		4:leaf=-0.0584319793
booster[134]:
0:[f6<0.495000005] yes=1,no=2,missing=1
	1:[f5<0.36500001] yes=3,no=4,missing=3
		3:[f5<0.284999996] yes=5,no=6,missing=5
			5:leaf=0.0524555445
			6:leaf=-0.0704556108
		4:[f4<0.550000012] yes=7,no=8,missing=7
			7:leaf=0.0645305514
			8:leaf=-0.0278075524
	2:leaf=-0.0674161091
booster[135]:
0:[f5<0.38499999] yes=1,no=2,missing=1
	1:[f4<0.454999983] yes=3,no=4,missing=3
		3:leaf=0.0802233815
		4:[f6<0.38499999] yes=7,no=8,missing=7
			7:leaf=-0.0445652269
			8:leaf=0.0605732091
	2:[f0<0.435000002] yes=5,no=6,missing=5
		5:[f5<0.405000001] yes=9,no=10,missing=9
			9:leaf=-0.0523884445
			10:leaf=0.0622745529
		6:[f1<0.564999998] yes=11,no=12,missing=11
			11:leaf=-0.0894457996
			12:leaf=-0.011697839
booster[136]:
0:[f6<0.685000002] yes=1,no=2,missing=1
	1:[f0<0.63499999] yes=3,no=4,missing=3
		3:[f5<0.600000024] yes=7,no=8,missing=7
			7:leaf=-0.0199186467
			8:leaf=0.0873094276
		4:leaf=-0.108028993
	2:[f1<0.414999992] yes=5,no=6,missing=5
		5:[f0<0.74000001] yes=9,no=10,missing=9
			9:leaf=0.10999582
			10:leaf=-0.0236778315
		6:[f1<0.435000002] yes=11,no=12,missing=11
			11:leaf=-0.12036255
			12:leaf=0.0313018002
booster[137]:
0:[f0<0.745000005] yes=1,no=2,missing=1
	1:[f6<0.735000014] yes=3,no=4,missing=3
		3:[f1<0.38499999] yes=7,no=8,missing=7
			7:leaf=0.0171664897
			8:leaf=-0.097157374
		4:[f6<0.774999976] yes=9,no=10,missing=9
			9:leaf=0.0811651051
			10:leaf=-0.0382790267
	2:[f5<0.725000024] yes=5,no=6,missing=5
		5:leaf=-0.0267049186
		6:leaf=0.108969957
booster[138]:
0:[f1<0.675000012] yes=1,no=2,missing=1
	1:leaf=-0.0580477826
	2:[f5<0.459999979] yes=3,no=4,missing=3
		3:leaf=0.0355016068
		4:leaf=0.00514234183
booster[139]:
0:[f1<0.769999981] yes=1,no=2,missing=1
	1:[f0<0.324999988] yes=3,no=4,missing=3
		3:leaf=0.0475217365
		4:[f0<0.685000002] yes=5,no=6,missing=5
			5:leaf=-0.0784501135
			6:leaf=0.036548648
	2:leaf=0.0558105484
booster[140]:
0:[f5<0.275000006] yes=1,no=2,missing=1
	1:leaf=0.0783885792
	2:[f6<0.38499999] yes=3,no=4,missing=3
		3:[f4<0.454999983] yes=5,no=6,missing=5
			5:leaf=0.0111847483
			6:leaf=-0.121055081
		4:[f1<0.504999995] yes=7,no=8,missing=7
			7:leaf=0.0496646576
			8:leaf=-0.0513852797
booster[141]:
0:[f6<0.685000002] yes=1,no=2,missing=1
	1:[f0<0.63499999] yes=3,no=4,missing=3
		3:[f1<0.465000004] yes=7,no=8,missing=7
			7:leaf=-0.054251425
			8:leaf=0.0481546186
		4:leaf=-0.103581019
	2:[f4<0.534999967] yes=5,no=6,missing=5
		5:[f1<0.430000007] yes=9,no=10,missing=9
			9:leaf=-0.00521585578
			10:leaf=0.102758497
		6:[f1<0.405000001] yes=11,no=12,missing=11
			11:leaf=0.0633662939
			12:leaf=-0.0308857579
booster[142]:
0:[f4<0.704999983] yes=1,no=2,missing=1
	1:[f4<0.61500001] yes=3,no=4,missing=3
		3:[f0<0.485000014] yes=5,no=6,missing=5
			5:leaf=-0.0996089056
			6:leaf=0.00773838162
		4:[f1<0.514999986] yes=7,no=8,missing=7
			7:leaf=0.109671853
			8:leaf=-0.0167144183
	2:leaf=-0.0681622326
booster[143]:
0:[f1<0.564999998] yes=1,no=2,missing=1
	1:leaf=-0.0639178157
	2:[f6<0.335000008] yes=3,no=4,missing=3
		3:leaf=0.0437169746
		4:leaf=-0.0199015699
booster[144]:
0:[f4<0.545000017] yes=1,no=2,missing=1
	1:[f1<0.769999981] yes=3,no=4,missing=3
		3:[f4<0.514999986] yes=5,no=6,missing=5
			5:leaf=-0.0387664996
			6:leaf=0.0546805114
		4:leaf=0.0847600177
	2:leaf=-0.0611892417
booster[145]:
0:[f5<0.355000019] yes=1,no=2,missing=1
	1:[f0<0.324999988] yes=3,no=4,missing=3
		3:leaf=-0.00820436794
		4:leaf=0.0746630281
	2:[f4<0.425000012] yes=5,no=6,missing=5
		5:[f4<0.36500001] yes=7,no=8,missing=7
			7:leaf=-0.0339412466
			8:leaf=0.065752998
		6:[f1<0.504999995] yes=9,no=10,missing=9
			9:leaf=-0.00593714043
			10:leaf=-0.110874891
booster[146]:
0:[f1<0.524999976] yes=1,no=2,missing=1
	1:[f1<0.495000005] yes=3,no=4,missing=3
		3:[f0<0.680000007] yes=7,no=8,missing=7
			7:leaf=-0.0550509952
			8:leaf=0.0413159095
		4:[f4<0.625] yes=9,no=10,missing=9
			9:leaf=0.111263625
			10:leaf=0.0328422748
	2:[f6<0.745000005] yes=5,no=6,missing=5
		5:[f4<0.63499999] yes=11,no=12,missing=11
			11:leaf=-0.11216516
			12:leaf=0.0306834187
		6:[f0<0.664999962] yes=13,no=14,missing=13
			13:leaf=0.108929835
			14:leaf=-0.0542857833
booster[147]:
0:[f0<0.745000005] yes=1,no=2,missing=1
	1:[f0<0.704999983] yes=3,no=4,missing=3
		3:[f6<0.735000014] yes=7,no=8,missing=7
			7:leaf=-0.0498407036
			8:leaf=0.0318892002
		4:[f1<0.430000007] yes=9,no=10,missing=9
			9:leaf=-0.0202074591
			10:leaf=-0.0955478624
	2:[f5<0.725000024] yes=5,no=6,missing=5
		5:leaf=-0.0257477798
		6:leaf=0.104664303
booster[148]:
0:[f4<0.685000002] yes=1,no=2,missing=1
	1:[f6<0.335000008] yes=3,no=4,missing=3
		3:leaf=0.00695782574
		4:leaf=-0.0815339237
	2:leaf=0.0377904773
booster[149]:
0:[f6<0.514999986] yes=1,no=2,missing=1
	1:[f5<0.355000019] yes=3,no=4,missing=3
		3:[f5<0.284999996] yes=5,no=6,missing=5
			5:leaf=0.0453011841
			6:leaf=-0.0701904893
		4:[f1<0.529999971] yes=7,no=8,missing=7
			7:leaf=-0.014050371
			8:leaf=0.0682122335
	2:leaf=-0.064186424
booster[150]:
0:[f5<0.38499999] yes=1,no=2,missing=1
	1:[f6<0.38499999] yes=3,no=4,missing=3
		3:[f4<0.474999994] yes=7,no=8,missing=7
			7:leaf=0.0428140163
			8:leaf=-0.0419826619
		4:leaf=0.0696447566
	2:[f0<0.529999971] yes=5,no=6,missing=5
		5:[f4<0.425000012] yes=9,no=10,missing=9
			9:leaf=0.0373275466
			10:leaf=-0.0342558362
		6:leaf=-0.0804796368
booster[151]:
0:[f6<0.685000002] yes=1,no=2,missing=1
	1:[f0<0.514999986] yes=3,no=4,missing=3
		3:[f1<0.504999995] yes=7,no=8,missing=7
			7:leaf=-0.0458315276
			8:leaf=0.0743971467
		4:[f0<0.63499999] yes=9,no=10,missing=9
			9:leaf=-0.0196426716
			10:leaf=-0.0962768719
	2:[f1<0.414999992] yes=5,no=6,missing=5
		5:[f0<0.74000001] yes=11,no=12,missing=11
			11:leaf=0.101973929
			12:leaf=-0.0240197387
		6:[f1<0.435000002] yes=13,no=14,missing=13
			13:leaf=-0.10688591
			14:leaf=0.0287489202
booster[152]:
0:[f0<0.564999998] yes=1,no=2,missing=1
	1:[f1<0.454999983] yes=3,no=4,missing=3
		3:leaf=-0.0905973315
		4:[f0<0.485000014] yes=7,no=8,missing=7
			7:leaf=-0.0163721871
			8:leaf=0.0260809697
	2:[f1<0.435000002] yes=5,no=6,missing=5
		5:[f1<0.405000001] yes=9,no=10,missing=9
			9:leaf=-0.00330744614
			10:leaf=0.130441546
		6:[f4<0.665000021] yes=11,no=12,missing=11
			11:leaf=-0.0416167602
			12:leaf=0.061491549
booster[153]:
0:[f1<0.675000012] yes=1,no=2,missing=1
	1:leaf=-0.0515035056
	2:leaf=0.0255265292
booster[154]:
0:[f4<0.545000017] yes=1,no=2,missing=1
	1:[f6<0.38499999] yes=3,no=4,missing=3
		3:[f1<0.730000019] yes=5,no=6,missing=5
			5:leaf=0.0709202141
			6:leaf=-0.0143193481
		4:[f5<0.394999981] yes=7,no=8,missing=7
			7:leaf=-0.0622995049
			8:leaf=0.0183796585
	2:leaf=-0.0596157871
booster[155]:
0:[f1<0.375] yes=1,no=2,missing=1
	1:leaf=0.0606677122
	2:[f0<0.284999996] yes=3,no=4,missing=3
		3:leaf=0.0352015905
		4:[f0<0.324999988] yes=5,no=6,missing=5
			5:leaf=-0.118089229
			6:leaf=-0.000257261563
booster[156]:
0:[f5<0.704999983] yes=1,no=2,missing=1
	1:[f4<0.654999971] yes=3,no=4,missing=3
		3:[f0<0.514999986] yes=7,no=8,missing=7
			7:leaf=0.0128662251
			8:leaf=-0.0999835134
		4:leaf=0.0599476546
	2:[f4<0.61500001] yes=5,no=6,missing=5
		5:[f1<0.564999998] yes=9,no=10,missing=9
			9:leaf=0.0615503863
			10:leaf=-0.018262485
		6:[f1<0.534999967] yes=11,no=12,missing=11
			11:leaf=-0.0734146237
			12:leaf=0.0502628498
booster[157]:
0:[f4<0.704999983] yes=1,no=2,missing=1
	1:[f4<0.61500001] yes=3,no=4,missing=3
		3:[f0<0.485000014] yes=5,no=6,missing=5
			5:leaf=-0.0907547176
			6:leaf=0.00577154011
		4:[f1<0.514999986] yes=7,no=8,missing=7
			7:leaf=0.103977986
			8:leaf=-0.0127584208
	2:leaf=-0.0626531616
booster[158]:
0:[f4<0.644999981] yes=1,no=2,missing=1
	1:leaf=-0.0444891267
	2:leaf=0.0333364941
booster[159]:
0:[f6<0.495000005] yes=1,no=2,missing=1
	1:[f4<0.545000017] yes=3,no=4,missing=3
		3:[f4<0.454999983] yes=5,no=6,missing=5
			5:leaf=-0.0161119401
			6:leaf=0.0630574599
		4:leaf=-0.0397536606
	2:leaf=-0.0604720637
booster[160]:
0:[f5<0.355000019] yes=1,no=2,missing=1
	1:[f1<0.394999981] yes=3,no=4,missing=3
		3:leaf=-0.00579475611
		4:leaf=0.0666379631
	2:[f0<0.435000002] yes=5,no=6,missing=5
		5:[f5<0.405000001] yes=7,no=8,missing=7
			7:leaf=-0.0294764061
			8:leaf=0.053334102
		6:[f4<0.425000012] yes=9,no=10,missing=9
			9:leaf=0.00896451436
			10:leaf=-0.0892315283
booster[161]:
0:[f1<0.524999976] yes=1,no=2,missing=1
	1:[f1<0.495000005] yes=3,no=4,missing=3
		3:[f0<0.680000007] yes=7,no=8,missing=7
			7:leaf=-0.0481906645
			8:leaf=0.0368551277
		4:leaf=0.0856405795
	2:[f6<0.745000005] yes=5,no=6,missing=5
		5:[f4<0.61500001] yes=9,no=10,missing=9
			9:leaf=-0.0991108492
			10:leaf=0.0196478739
		6:[f0<0.664999962] yes=11,no=12,missing=11
			11:leaf=0.0985660776
			12:leaf=-0.0508479439
booster[162]:
0:[f0<0.745000005] yes=1,no=2,missing=1
	1:[f0<0.704999983] yes=3,no=4,missing=3
		3:[f5<0.745000005] yes=7,no=8,missing=7
			7:leaf=0.0420408435
			8:leaf=-0.0296795834
		4:leaf=-0.0748507231
	2:[f5<0.725000024] yes=5,no=6,missing=5
		5:leaf=-0.0280285776
		6:leaf=0.103135251
booster[163]:
0:[f6<0.335000008] yes=1,no=2,missing=1
	1:leaf=0.025175184
	2:leaf=-0.0482418463
booster[164]:
0:[f6<0.529999971] yes=1,no=2,missing=1
	1:[f5<0.355000019] yes=3,no=4,missing=3
		3:[f5<0.314999998] yes=5,no=6,missing=5
			5:leaf=0.0229573473
			6:leaf=-0.0747990832
		4:[f1<0.529999971] yes=7,no=8,missing=7
			7:leaf=-0.0211860966
			8:leaf=0.0585950725
	2:leaf=-0.0617771037
booster[165]:
0:[f5<0.355000019] yes=1,no=2,missing=1
	1:[f1<0.394999981] yes=3,no=4,missing=3
		3:leaf=-0.00411820039
		4:leaf=0.0597869717
	2:[f0<0.529999971] yes=5,no=6,missing=5
		5:[f4<0.425000012] yes=7,no=8,missing=7
			7:leaf=0.0383100919
			8:leaf=-0.0225461535
		6:leaf=-0.0668963194
booster[166]:
0:[f0<0.555000007] yes=1,no=2,missing=1
	1:[f1<0.564999998] yes=3,no=4,missing=3
		3:[f1<0.465000004] yes=7,no=8,missing=7
			7:leaf=0.0108669112
			8:leaf=0.0955376849
		4:leaf=-0.0458918288
	2:[f5<0.704999983] yes=5,no=6,missing=5
		5:[f6<0.685000002] yes=9,no=10,missing=9
			9:leaf=-0.0891218707
			10:leaf=0.00163336389
		6:[f4<0.574999988] yes=11,no=12,missing=11
			11:leaf=0.0534735806
			12:leaf=-0.0319015123
booster[167]:
0:[f0<0.564999998] yes=1,no=2,missing=1
	1:[f1<0.454999983] yes=3,no=4,missing=3
		3:leaf=-0.0871100798
		4:leaf=0.00684831617
	2:[f1<0.545000017] yes=5,no=6,missing=5
		5:[f0<0.675000012] yes=7,no=8,missing=7
			7:leaf=0.0731688067
			8:leaf=0.00295861159
		6:leaf=-0.0566208847
booster[168]:
0:[f1<0.564999998] yes=1,no=2,missing=1
	1:leaf=-0.0533722229
	2:[f5<0.414999992] yes=3,no=4,missing=3
		3:leaf=0.034272261
		4:leaf=0.000767964812
booster[169]:
0:[f4<0.545000017] yes=1,no=2,missing=1
	1:[f0<0.644999981] yes=3,no=4,missing=3
		3:[f1<0.394999981] yes=5,no=6,missing=5
			5:leaf=0.0502722152
			6:leaf=-0.0467796698
		4:leaf=0.0522520281
	2:leaf=-0.0556136034
booster[170]:
0:[f1<0.375] yes=1,no=2,missing=1
	1:leaf=0.0576765649
	2:[f0<0.284999996] yes=3,no=4,missing=3
		3:leaf=0.0333277136
		4:[f4<0.425000012] yes=5,no=6,missing=5
			5:leaf=0.029740287
			6:leaf=-0.0537440144
booster[171]:
0:[f5<0.61500001] yes=1,no=2,missing=1
	1:[f1<0.504999995] yes=3,no=4,missing=3
		3:leaf=-0.0798663497
		4:leaf=0.00894100498
	2:[f0<0.745000005] yes=5,no=6,missing=5
		5:[f6<0.735000014] yes=7,no=8,missing=7
			7:leaf=0.0860879794
			8:leaf=0.0023372313
		6:[f5<0.725000024] yes=9,no=10,missing=9
			9:leaf=0.0389616266
			10:leaf=-0.0941625386
booster[172]:
0:[f0<0.745000005] yes=1,no=2,missing=1
	1:[f6<0.735000014] yes=3,no=4,missing=3
		3:[f1<0.454999983] yes=7,no=8,missing=7
			7:leaf=-0.00656866468
			8:leaf=-0.0940374658
		4:[f6<0.774999976] yes=9,no=10,missing=9
			9:leaf=0.0741417706
			10:leaf=-0.0325330347
	2:[f5<0.725000024] yes=5,no=6,missing=5
		5:leaf=-0.0254274886
		6:leaf=0.0996262878
booster[173]:
0:[f4<0.644999981] yes=1,no=2,missing=1
	1:leaf=-0.0388625339
	2:leaf=0.0322882831
booster[174]:
0:[f6<0.495000005] yes=1,no=2,missing=1
	1:[f4<0.545000017] yes=3,no=4,missing=3
		3:[f4<0.454999983] yes=5,no=6,missing=5
			5:leaf=-0.0160429217
			6:leaf=0.0517982468
		4:leaf=-0.0380625762
	2:leaf=-0.0565291978
booster[175]:
0:[f5<0.38499999] yes=1,no=2,missing=1
	1:[f6<0.38499999] yes=3,no=4,missing=3
		3:[f4<0.474999994] yes=7,no=8,missing=7
			7:leaf=0.0351553485
			8:leaf=-0.0296925083
		4:leaf=0.064756684
	2:[f6<0.485000014] yes=5,no=6,missing=5
		5:leaf=-0.0563112497
		6:[f5<0.524999976] yes=9,no=10,missing=9
			9:leaf=0.0247013513
			10:leaf=-0.0229050647
booster[176]:
0:[f4<0.704999983] yes=1,no=2,missing=1
	1:[f4<0.61500001] yes=3,no=4,missing=3
		3:[f5<0.704999983] yes=5,no=6,missing=5
			5:leaf=-0.0379753411
			6:leaf=0.0431851223
		4:[f1<0.514999986] yes=7,no=8,missing=7
			7:leaf=-0.0851732343
			8:leaf=0.0201004595
	2:leaf=0.0541287251
booster[177]:
0:[f4<0.704999983] yes=1,no=2,missing=1
	1:[f4<0.61500001] yes=3,no=4,missing=3
		3:[f0<0.485000014] yes=5,no=6,missing=5
			5:leaf=-0.0822356939
			6:leaf=0.00695199287
		4:[f1<0.514999986] yes=7,no=8,missing=7
			7:leaf=0.0899861678
			8:leaf=-0.00687236246
	2:leaf=-0.0601647124
booster[178]:
0:[f1<0.675000012] yes=1,no=2,missing=1
	1:leaf=-0.0444994718
	2:leaf=0.0250633899
booster[179]:
0:[f1<0.769999981] yes=1,no=2,missing=1
	1:[f0<0.324999988] yes=3,no=4,missing=3
		3:leaf=0.0271241982
		4:[f0<0.644999981] yes=5,no=6,missing=5
			5:leaf=-0.0691008046
			6:leaf=0.0170433819
	2:leaf=0.0412354693
booster[180]:
0:[f1<0.504999995] yes=1,no=2,missing=1
	1:[f0<0.324999988] yes=3,no=4,missing=3
		3:leaf=-0.012146391
		4:[f5<0.420000017] yes=7,no=8,missing=7
			7:leaf=0.0851841345
			8:leaf=-0.00552533334
	2:[f1<0.545000017] yes=5,no=6,missing=5
		5:leaf=-0.0641466826
		6:[f6<0.38499999] yes=9,no=10,missing=9
			9:leaf=-0.00527033024
			10:leaf=0.00729928631
booster[181]:
0:[f1<0.524999976] yes=1,no=2,missing=1
	1:[f1<0.495000005] yes=3,no=4,missing=3
		3:[f0<0.680000007] yes=7,no=8,missing=7
			7:leaf=-0.0417331457
			8:leaf=0.0317706168
		4:leaf=0.0785478577
	2:[f0<0.644999981] yes=5,no=6,missing=5
		5:[f5<0.720000029] yes=9,no=10,missing=9
			9:leaf=-0.0535059236
			10:leaf=0.0942344218
		6:leaf=-0.0778594092
booster[182]:
0:[f0<0.564999998] yes=1,no=2,missing=1
	1:[f1<0.454999983] yes=3,no=4,missing=3
		3:leaf=-0.082449764
		4:leaf=0.00805362873
	2:[f1<0.435000002] yes=5,no=6,missing=5
		5:[f1<0.405000001] yes=7,no=8,missing=7
			7:leaf=-0.00362618105
			8:leaf=0.115591392
		6:[f4<0.665000021] yes=9,no=10,missing=9
			9:leaf=-0.0376692973
			10:leaf=0.0586119853
booster[183]:
0:[f6<0.335000008] yes=1,no=2,missing=1
	1:leaf=0.0248687528
	2:leaf=-0.0433357544
booster[184]:
0:[f6<0.435000002] yes=1,no=2,missing=1
	1:[f5<0.355000019] yes=3,no=4,missing=3
		3:[f5<0.295000017] yes=7,no=8,missing=7
			7:leaf=0.0249805953
			8:leaf=-0.0509464219
		4:[f5<0.485000014] yes=9,no=10,missing=9
			9:leaf=0.0755817667
			10:leaf=-0.0158743951
	2:[f0<0.405000001] yes=5,no=6,missing=5
		5:leaf=-0.0103310812
		6:leaf=-0.0500689894
booster[185]:
0:[f0<0.529999971] yes=1,no=2,missing=1
	1:[f6<0.474999994] yes=3,no=4,missing=3
		3:[f1<0.394999981] yes=7,no=8,missing=7
			7:leaf=0.00203742459
			8:leaf=0.0769764856
		4:[f5<0.474999994] yes=9,no=10,missing=9
			9:leaf=-0.037150383
			10:leaf=0.0255457573
	2:[f5<0.375] yes=5,no=6,missing=5
		5:leaf=-0.0104364455
		6:leaf=-0.0531003587
booster[186]:
0:[f0<0.555000007] yes=1,no=2,missing=1
	1:[f1<0.564999998] yes=3,no=4,missing=3
		3:[f5<0.585000038] yes=7,no=8,missing=7
			7:leaf=0.00751209119
			8:leaf=0.0802698657
		4:leaf=-0.0443275794
	2:[f5<0.704999983] yes=5,no=6,missing=5
		5:[f6<0.685000002] yes=9,no=10,missing=9
			9:leaf=-0.0828220844
			10:leaf=0.000431910274
		6:[f5<0.764999986] yes=11,no=12,missing=11
			11:leaf=0.0494518541
			12:leaf=-0.0244988892
booster[187]:
0:[f0<0.564999998] yes=1,no=2,missing=1
	1:[f1<0.454999983] yes=3,no=4,missing=3
		3:leaf=-0.0804454982
		4:leaf=0.00539925601
	2:[f1<0.545000017] yes=5,no=6,missing=5
		5:[f0<0.675000012] yes=7,no=8,missing=7
			7:leaf=0.0643554926
			8:leaf=0.00443882495
		6:leaf=-0.048995968
booster[188]:
0:[f4<0.644999981] yes=1,no=2,missing=1
	1:leaf=-0.0349892937
	2:leaf=0.0313553251
booster[189]:
0:[f4<0.545000017] yes=1,no=2,missing=1
	1:[f6<0.324999988] yes=3,no=4,missing=3
		3:leaf=0.0510339811
		4:[f4<0.514999986] yes=5,no=6,missing=5
			5:leaf=-0.0456538945
			6:leaf=0.0474462844
	2:leaf=-0.0501886085
booster[190]:
0:[f0<0.529999971] yes=1,no=2,missing=1
	1:[f6<0.474999994] yes=3,no=4,missing=3
		3:[f1<0.394999981] yes=7,no=8,missing=7
			7:leaf=0.0033072189
			8:leaf=0.0735505447
		4:[f0<0.335000008] yes=9,no=10,missing=9
			9:leaf=-0.0325856954
			10:leaf=0.0124689369
	2:[f5<0.375] yes=5,no=6,missing=5
		5:leaf=-0.0100189112
		6:leaf=-0.0509628765
booster[191]:
0:[f0<0.745000005] yes=1,no=2,missing=1
	1:[f5<0.745000005] yes=3,no=4,missing=3
		3:[f4<0.644999981] yes=7,no=8,missing=7
			7:leaf=-0.0439379513
			8:leaf=0.0658418685
		4:[f1<0.430000007] yes=9,no=10,missing=9
			9:leaf=-0.0202276111
			10:leaf=0.0826383978
	2:[f0<0.819999993] yes=5,no=6,missing=5
		5:leaf=-0.0904050991
		6:leaf=0.0266588833
booster[192]:
0:[f0<0.745000005] yes=1,no=2,missing=1
	1:[f6<0.735000014] yes=3,no=4,missing=3
		3:[f1<0.454999983] yes=7,no=8,missing=7
			7:leaf=-0.00644045835
			8:leaf=-0.0858664289
		4:[f6<0.774999976] yes=9,no=10,missing=9
			9:leaf=0.0674832165
			10:leaf=-0.0308914091
	2:[f5<0.725000024] yes=5,no=6,missing=5
		5:leaf=-0.0211919174
		6:leaf=0.0931541175
booster[193]:
0:[f6<0.335000008] yes=1,no=2,missing=1
	1:leaf=0.0231198519
	2:leaf=-0.0414937213
booster[194]:
0:[f1<0.769999981] yes=1,no=2,missing=1
	1:[f0<0.324999988] yes=3,no=4,missing=3
		3:leaf=0.0221912153
		4:[f1<0.534999967] yes=5,no=6,missing=5
			5:leaf=-0.0770300776
			6:leaf=0.00164479506
	2:leaf=0.0386442617
booster[195]:
0:[f1<0.38499999] yes=1,no=2,missing=1
	1:leaf=0.0472925492
	2:[f5<0.38499999] yes=3,no=4,missing=3
		3:[f6<0.38499999] yes=5,no=6,missing=5
			5:leaf=-0.0221781228
			6:leaf=0.0502329767
		4:[f0<0.425000012] yes=7,no=8,missing=7
			7:leaf=-0.00520547898
			8:leaf=-0.0621396154
booster[196]:
0:[f1<0.524999976] yes=1,no=2,missing=1
	1:[f1<0.495000005] yes=3,no=4,missing=3
		3:[f1<0.405000001] yes=7,no=8,missing=7
			7:leaf=0.032998912
			8:leaf=-0.0387469903
		4:leaf=0.0710135922
	2:[f0<0.644999981] yes=5,no=6,missing=5
		5:[f5<0.720000029] yes=9,no=10,missing=9
			9:leaf=-0.0434589535
			10:leaf=0.0862148032
		6:leaf=-0.074499011
booster[197]:
0:[f1<0.405000001] yes=1,no=2,missing=1
	1:[f1<0.38499999] yes=3,no=4,missing=3
		3:leaf=0.0153037421
		4:leaf=-0.0753239095
	2:[f1<0.435000002] yes=5,no=6,missing=5
		5:leaf=0.0894600078
		6:[f4<0.534999967] yes=7,no=8,missing=7
			7:leaf=-0.0552677065
			8:leaf=0.0169448256
booster[198]:
0:[f1<0.675000012] yes=1,no=2,missing=1
	1:leaf=-0.0406316184
	2:leaf=0.0247419495
booster[199]:
0:[f4<0.545000017] yes=1,no=2,missing=1
	1:[f6<0.324999988] yes=3,no=4,missing=3
		3:leaf=0.0485765971
		4:[f4<0.514999986] yes=5,no=6,missing=5
			5:leaf=-0.043819949
			6:leaf=0.0435717255
	2:leaf=-0.0478430949
booster[200]:
0:[f5<0.355000019] yes=1,no=2,missing=1
	1:[f1<0.394999981] yes=3,no=4,missing=3
		3:leaf=-7.53947315e-05
		4:leaf=0.0498578697
	2:[f0<0.529999971] yes=5,no=6,missing=5
		5:[f4<0.425000012] yes=7,no=8,missing=7
			7:leaf=0.0315795615
			8:leaf=-0.0178097934
		6:leaf=-0.060403619
booster[201]:
0:[f0<0.555000007] yes=1,no=2,missing=1
	1:[f1<0.564999998] yes=3,no=4,missing=3
		3:[f1<0.485000014] yes=7,no=8,missing=7
			7:leaf=0.0125451246
			8:leaf=0.0861781463
		4:leaf=-0.0405738428
	2:[f5<0.704999983] yes=5,no=6,missing=5
		5:[f6<0.685000002] yes=9,no=10,missing=9
			9:leaf=-0.0761456266
			10:leaf=0.00223647058
		6:[f4<0.574999988] yes=11,no=12,missing=11
			11:leaf=0.046071887
			12:leaf=-0.0287357848
booster[202]:
0:[f0<0.564999998] yes=1,no=2,missing=1
	1:[f4<0.564999998] yes=3,no=4,missing=3
		3:leaf=0.00124388374
		4:leaf=-0.0535468496
	2:[f1<0.435000002] yes=5,no=6,missing=5
		5:[f0<0.680000007] yes=7,no=8,missing=7
			7:leaf=0.0991833135
			8:leaf=-0.0057449271
		6:[f4<0.665000021] yes=9,no=10,missing=9
			9:leaf=-0.0333940461
			10:leaf=0.0558988042
booster[203]:
0:[f4<0.644999981] yes=1,no=2,missing=1
	1:leaf=-0.032634072
	2:leaf=0.0291261617
booster[204]:
0:[f4<0.534999967] yes=1,no=2,missing=1
	1:[f4<0.514999986] yes=3,no=4,missing=3
		3:[f6<0.324999988] yes=5,no=6,missing=5
			5:leaf=0.0517723598
			6:leaf=-0.0400046259
		4:leaf=0.0400284827
	2:leaf=-0.042071104
booster[205]:
0:[f0<0.529999971] yes=1,no=2,missing=1
	1:[f0<0.324999988] yes=3,no=4,missing=3
		3:[f0<0.284999996] yes=5,no=6,missing=5
			5:leaf=0.036978513
			6:leaf=-0.0566401221
		4:[f5<0.459999979] yes=7,no=8,missing=7
			7:leaf=0.0776610151
			8:leaf=-0.0030042436
	2:leaf=-0.0374241583
booster[206]:
0:[f4<0.704999983] yes=1,no=2,missing=1
	1:[f4<0.61500001] yes=3,no=4,missing=3
		3:[f5<0.704999983] yes=5,no=6,missing=5
			5:leaf=-0.0333497711
			6:leaf=0.0383326299
		4:[f1<0.514999986] yes=7,no=8,missing=7
			7:leaf=-0.0761652887
			8:leaf=0.0111632012
	2:leaf=0.049176272
booster[207]:
0:[f0<0.745000005] yes=1,no=2,missing=1
	1:[f6<0.735000014] yes=3,no=4,missing=3
		3:[f1<0.454999983] yes=7,no=8,missing=7
			7:leaf=-0.00807810295
			8:leaf=-0.0803421065
		4:[f1<0.414999992] yes=9,no=10,missing=9
			9:leaf=-0.06646806
			10:leaf=0.0346211419
	2:[f5<0.725000024] yes=5,no=6,missing=5
		5:leaf=-0.0206385851
		6:leaf=0.0886685923
booster[208]:
0:[f6<0.335000008] yes=1,no=2,missing=1
	1:leaf=0.0225955099
	2:leaf=-0.0398302078
booster[209]:
0:[f6<0.435000002] yes=1,no=2,missing=1
	1:[f5<0.355000019] yes=3,no=4,missing=3
		3:[f0<0.335000008] yes=5,no=6,missing=5
			5:leaf=0.0135801109
			6:leaf=-0.0413215607
		4:[f5<0.485000014] yes=7,no=8,missing=7
			7:leaf=0.0682158917
			8:leaf=-0.0129590696
	2:leaf=-0.0360999554
booster[210]:
0:[f1<0.504999995] yes=1,no=2,missing=1
	1:[f5<0.394999981] yes=3,no=4,missing=3
		3:leaf=0.0460977964
		4:leaf=-0.0108908992
	2:[f1<0.545000017] yes=5,no=6,missing=5
		5:leaf=-0.0537481681
		6:leaf=-0.000626220892
booster[211]:
0:[f1<0.524999976] yes=1,no=2,missing=1
	1:[f1<0.495000005] yes=3,no=4,missing=3
		3:[f1<0.405000001] yes=7,no=8,missing=7
			7:leaf=0.0267278012
			8:leaf=-0.033536952
		4:leaf=0.0657302737
	2:[f0<0.644999981] yes=5,no=6,missing=5
		5:[f4<0.569999993] yes=9,no=10,missing=9
			9:leaf=-0.0439326279
			10:leaf=0.0731854364
		6:leaf=-0.0690696537
booster[212]:
0:[f0<0.745000005] yes=1,no=2,missing=1
	1:[f6<0.735000014] yes=3,no=4,missing=3
		3:leaf=-0.056961745
		4:[f6<0.774999976] yes=7,no=8,missing=7
			7:leaf=0.0588933378
			8:leaf=-0.0273721162
	2:[f5<0.725000024] yes=5,no=6,missing=5
		5:leaf=-0.0192931276
		6:leaf=0.0862285495
booster[213]:
0:[f1<0.675000012] yes=1,no=2,missing=1
	1:leaf=-0.0375696905
	2:leaf=0.0205127802
booster[214]:
0:[f4<0.545000017] yes=1,no=2,missing=1
	1:[f0<0.644999981] yes=3,no=4,missing=3
		3:[f1<0.394999981] yes=5,no=6,missing=5
			5:leaf=0.0336188711
			6:leaf=-0.0389453396
		4:leaf=0.0439989008
	2:leaf=-0.0437098593
booster[215]:
0:[f1<0.38499999] yes=1,no=2,missing=1
	1:leaf=0.0444584116
	2:[f5<0.38499999] yes=3,no=4,missing=3
		3:[f4<0.504999995] yes=5,no=6,missing=5
			5:leaf=0.0330415778
			6:leaf=-0.0211923271
		4:[f0<0.425000012] yes=7,no=8,missing=7
			7:leaf=-0.00492088916
			8:leaf=-0.0545451865
booster[216]:
0:[f5<0.600000024] yes=1,no=2,missing=1
	1:leaf=-0.0333097652
	2:[f0<0.61500001] yes=3,no=4,missing=3
		3:[f5<0.754999995] yes=5,no=6,missing=5
			5:leaf=0.0094215991
			6:leaf=0.0840416923
		4:[f5<0.764999986] yes=7,no=8,missing=7
			7:leaf=0.0194440577
			8:leaf=-0.034828674
booster[217]:
0:[f0<0.564999998] yes=1,no=2,missing=1
	1:[f4<0.564999998] yes=3,no=4,missing=3
		3:leaf=-0.000198193884
		4:leaf=-0.0503564924
	2:[f1<0.435000002] yes=5,no=6,missing=5
		5:[f0<0.680000007] yes=7,no=8,missing=7
			7:leaf=0.0940046832
			8:leaf=-0.00274091144
		6:[f4<0.665000021] yes=9,no=10,missing=9
			9:leaf=-0.0320133939
			10:leaf=0.0489144921
booster[218]:
0:[f4<0.564999998] yes=1,no=2,missing=1
	1:leaf=-0.0358929597
	2:leaf=0.019596763
booster[219]:
0:[f6<0.435000002] yes=1,no=2,missing=1
	1:[f5<0.355000019] yes=3,no=4,missing=3
		3:[f1<0.454999983] yes=5,no=6,missing=5
			5:leaf=0.0116831101
			6:leaf=-0.0343698375
		4:leaf=0.0342508256
	2:leaf=-0.0347825363
booster[220]:
0:[f1<0.38499999] yes=1,no=2,missing=1
	1:leaf=0.0423410088
	2:[f5<0.38499999] yes=3,no=4,missing=3
		3:[f4<0.504999995] yes=5,no=6,missing=5
			5:leaf=0.0292164218
			6:leaf=-0.0194993429
		4:[f4<0.425000012] yes=7,no=8,missing=7
			7:leaf=-0.00269210897
			8:leaf=-0.048589956
booster[221]:
0:[f1<0.524999976] yes=1,no=2,missing=1
	1:[f6<0.814999998] yes=3,no=4,missing=3
		3:[f6<0.754999995] yes=7,no=8,missing=7
			7:leaf=0.0270156413
			8:leaf=-0.0433375426
		4:leaf=0.0709599257
	2:[f6<0.745000005] yes=5,no=6,missing=5
		5:leaf=-0.0550502688
		6:leaf=0.0238222703
booster[222]:
0:[f0<0.745000005] yes=1,no=2,missing=1
	1:[f0<0.704999983] yes=3,no=4,missing=3
		3:[f6<0.735000014] yes=7,no=8,missing=7
			7:leaf=-0.040415097
			8:leaf=0.0272287764
		4:leaf=-0.0614810772
	2:[f0<0.819999993] yes=5,no=6,missing=5
		5:leaf=0.0851536095
		6:leaf=-0.0216487218
booster[223]:
0:[f6<0.335000008] yes=1,no=2,missing=1
	1:leaf=0.0208090171
	2:leaf=-0.0354795307
booster[224]:
0:[f4<0.545000017] yes=1,no=2,missing=1
	1:[f6<0.38499999] yes=3,no=4,missing=3
		3:[f4<0.454999983] yes=5,no=6,missing=5
			5:leaf=-0.00613473495
			6:leaf=0.0505192354
		4:[f0<0.414999992] yes=7,no=8,missing=7
			7:leaf=-0.0245572496
			8:leaf=-0.00573181175
	2:leaf=-0.0411356688
booster[225]:
0:[f0<0.529999971] yes=1,no=2,missing=1
	1:[f0<0.324999988] yes=3,no=4,missing=3
		3:[f0<0.264999986] yes=5,no=6,missing=5
			5:leaf=0.0349846184
			6:leaf=-0.0516848639
		4:leaf=0.0447798297
	2:leaf=-0.037423443
booster[226]:
0:[f5<0.600000024] yes=1,no=2,missing=1
	1:leaf=-0.0322697237
	2:[f0<0.61500001] yes=3,no=4,missing=3
		3:[f5<0.754999995] yes=5,no=6,missing=5
			5:leaf=0.00838569924
			6:leaf=0.0810114443
		4:[f5<0.764999986] yes=7,no=8,missing=7
			7:leaf=0.0176142231
			8:leaf=-0.0323038772
booster[227]:
0:[f0<0.564999998] yes=1,no=2,missing=1
	1:[f1<0.495000005] yes=3,no=4,missing=3
		3:leaf=-0.0407501049
		4:leaf=-0.00736038014
	2:[f1<0.534999967] yes=5,no=6,missing=5
		5:[f0<0.675000012] yes=7,no=8,missing=7
			7:leaf=0.0740392208
			8:leaf=-0.00400894042
		6:leaf=-0.0326356068
booster[228]:
0:[f6<0.335000008] yes=1,no=2,missing=1
	1:leaf=0.0195141919
	2:leaf=-0.0348255895
booster[229]:
0:[f5<0.524999976] yes=1,no=2,missing=1
	1:[f1<0.529999971] yes=3,no=4,missing=3
		3:[f5<0.305000007] yes=5,no=6,missing=5
			5:leaf=0.00223429385
			6:leaf=-0.032000158
		4:[f1<0.745000005] yes=7,no=8,missing=7
			7:leaf=0.0541841388
			8:leaf=-0.00095262198
	2:leaf=-0.0378244445
booster[230]:
0:[f5<0.355000019] yes=1,no=2,missing=1
	1:[f1<0.394999981] yes=3,no=4,missing=3
		3:leaf=0.00311533199
		4:leaf=0.041246932
	2:[f1<0.504999995] yes=5,no=6,missing=5
		5:leaf=0.00887075812
		6:leaf=-0.0467221551
booster[231]:
0:[f0<0.745000005] yes=1,no=2,missing=1
	1:[f5<0.745000005] yes=3,no=4,missing=3
		3:[f4<0.644999981] yes=7,no=8,missing=7
			7:leaf=-0.0363177136
			8:leaf=0.0530160367
		4:[f4<0.644999981] yes=9,no=10,missing=9
			9:leaf=0.0681802258
			10:leaf=-0.0180618148
	2:[f5<0.715000033] yes=5,no=6,missing=5
		5:leaf=0.0019243405
		6:leaf=-0.046232827
booster[232]:
0:[f0<0.745000005] yes=1,no=2,missing=1
	1:[f0<0.704999983] yes=3,no=4,missing=3
		3:[f5<0.745000005] yes=7,no=8,missing=7
			7:leaf=0.0335782692
			8:leaf=-0.0255892202
		4:leaf=-0.0568682514
	2:[f0<0.819999993] yes=5,no=6,missing=5
		5:leaf=0.081587404
		6:leaf=-0.0174479354
booster[233]:
0:[f4<0.564999998] yes=1,no=2,missing=1
	1:leaf=-0.0325817503
	2:leaf=0.0176406745
booster[234]:
0:[f4<0.534999967] yes=1,no=2,missing=1
	1:[f4<0.514999986] yes=3,no=4,missing=3
		3:[f0<0.61500001] yes=5,no=6,missing=5
			5:leaf=-0.0487358458
			6:leaf=0.0295790024
		4:leaf=0.0348135196
	2:leaf=-0.0368879363
booster[235]:
0:[f1<0.504999995] yes=1,no=2,missing=1
	1:[f5<0.394999981] yes=3,no=4,missing=3
		3:leaf=0.043508321
		4:leaf=-0.0125821494
	2:[f1<0.545000017] yes=5,no=6,missing=5
		5:leaf=-0.0501498058
		6:leaf=-0.000913743861
booster[236]:
0:[f0<0.485000014] yes=1,no=2,missing=1
	1:[f1<0.485000014] yes=3,no=4,missing=3
		3:leaf=-0.0293543842
		4:leaf=0.0708843619
	2:[f1<0.405000001] yes=5,no=6,missing=5
		5:[f1<0.38499999] yes=7,no=8,missing=7
			7:leaf=-0.00568878092
			8:leaf=0.0581557192
		6:[f1<0.435000002] yes=9,no=10,missing=9
			9:leaf=-0.0731144398
			10:leaf=-0.00580316316
booster[237]:
0:[f0<0.564999998] yes=1,no=2,missing=1
	1:[f4<0.574999988] yes=3,no=4,missing=3
		3:leaf=-0.00829491392
		4:leaf=-0.038017381
	2:[f1<0.534999967] yes=5,no=6,missing=5
		5:[f0<0.675000012] yes=7,no=8,missing=7
			7:leaf=0.0702964813
			8:leaf=-0.00245125755
		6:leaf=-0.032848984
booster[238]:
0:[f1<0.745000005] yes=1,no=2,missing=1
	1:leaf=-0.0287739728
	2:leaf=0.0201775152
booster[239]:
0:[f1<0.534999967] yes=1,no=2,missing=1
	1:[f0<0.324999988] yes=3,no=4,missing=3
		3:leaf=0.0221397579
		4:leaf=-0.0651591495
	2:[f4<0.485000014] yes=5,no=6,missing=5
		5:leaf=0.0415246822
		6:leaf=-0.0287533551
booster[240]:
0:[f5<0.38499999] yes=1,no=2,missing=1
	1:[f1<0.529999971] yes=3,no=4,missing=3
		3:leaf=0.0411088094
		4:leaf=-0.0132633913
	2:[f6<0.485000014] yes=5,no=6,missing=5
		5:leaf=-0.0480398573
		6:leaf=0.00577824749
booster[241]:
0:[f1<0.524999976] yes=1,no=2,missing=1
	1:[f1<0.495000005] yes=3,no=4,missing=3
		3:[f0<0.680000007] yes=7,no=8,missing=7
			7:leaf=-0.0331659801
			8:leaf=0.0204789452
		4:leaf=0.0606770143
	2:[f0<0.644999981] yes=5,no=6,missing=5
		5:[f4<0.569999993] yes=9,no=10,missing=9
			9:leaf=-0.0433025733
			10:leaf=0.0664215237
		6:leaf=-0.0621052682
booster[242]:
0:[f0<0.745000005] yes=1,no=2,missing=1
	1:[f6<0.735000014] yes=3,no=4,missing=3
		3:leaf=-0.0511782952
		4:[f6<0.774999976] yes=7,no=8,missing=7
			7:leaf=0.0524694249
			8:leaf=-0.0266233962
	2:[f5<0.715000033] yes=5,no=6,missing=5
		5:leaf=-8.37410189e-05
		6:leaf=0.0507431291
booster[243]:
0:[f1<0.745000005] yes=1,no=2,missing=1
	1:leaf=-0.0263575688
	2:leaf=0.0182007104
booster[244]:
0:[f6<0.435000002] yes=1,no=2,missing=1
	1:[f5<0.355000019] yes=3,no=4,missing=3
		3:leaf=-0.0163394473
		4:leaf=0.0353737622
	2:leaf=-0.0298602469
booster[245]:
0:[f0<0.264999986] yes=1,no=2,missing=1
	1:leaf=0.034217909
	2:[f4<0.454999983] yes=3,no=4,missing=3
		3:leaf=0.018440187
		4:[f0<0.324999988] yes=5,no=6,missing=5
			5:leaf=-0.0582204871
			6:leaf=-0.00594566064
booster[246]:
0:[f5<0.600000024] yes=1,no=2,missing=1
	1:leaf=-0.0324821621
	2:[f0<0.61500001] yes=3,no=4,missing=3
		3:[f5<0.745000005] yes=5,no=6,missing=5
			5:leaf=0.0185556374
			6:leaf=0.06000771
		4:[f5<0.764999986] yes=7,no=8,missing=7
			7:leaf=0.019888673
			8:leaf=-0.032882303
booster[247]:
0:[f4<0.61500001] yes=1,no=2,missing=1
	1:[f6<0.745000005] yes=3,no=4,missing=3
		3:[f1<0.474999994] yes=7,no=8,missing=7
			7:leaf=-0.0386732668
			8:leaf=0.0620131381
		4:[f1<0.435000002] yes=9,no=10,missing=9
			9:leaf=0.0160306245
			10:leaf=-0.0747360289
	2:[f0<0.694999993] yes=5,no=6,missing=5
		5:leaf=-0.0162898861
		6:leaf=0.0611473732
booster[248]:
0:[f1<0.745000005] yes=1,no=2,missing=1
	1:leaf=-0.0235914662
	2:leaf=0.018140981
booster[249]:
0:[f5<0.524999976] yes=1,no=2,missing=1
	1:[f4<0.454999983] yes=3,no=4,missing=3
		3:leaf=-0.023304591
		4:[f1<0.394999981] yes=5,no=6,missing=5
			5:leaf=0.0445804708
			6:leaf=0.00297610555
	2:leaf=-0.0337312035
