booster[0]:
0:[f22<106.099998] yes=1,no=2,missing=1
	1:[f27<0.158899993] yes=3,no=4,missing=3
		3:[f10<0.625550032] yes=7,no=8,missing=7
			7:[f24<0.177399993] yes=15,no=16,missing=15
				15:leaf=-0.576653719
				16:leaf=-0.150000006
			8:leaf=-0.150000006
		4:[f1<17.9949989] yes=9,no=10,missing=9
			9:leaf=-0
			10:leaf=0.300000012
	2:[f7<0.0488649979] yes=5,no=6,missing=5
		5:[f15<0.0149699999] yes=11,no=12,missing=11
			11:[f1<17.1199989] yes=17,no=18,missing=17
				17:leaf=-0.300000012
				18:leaf=0.41538465
			12:leaf=-0.410526335
		6:[f21<20.6450005] yes=13,no=14,missing=13
			13:[f0<16.8699989] yes=19,no=20,missing=19
				19:leaf=-0.360000014
				20:leaf=0.360000014
			14:[f4<0.0827400014] yes=21,no=22,missing=21
				21:leaf=0.150000006
				22:leaf=0.583561659
booster[1]:
0:[f23<884.549988] yes=1,no=2,missing=1
	1:[f27<0.160299987] yes=3,no=4,missing=3
		3:[f27<0.132349998] yes=7,no=8,missing=7
			7:[f14<0.00329399994] yes=13,no=14,missing=13
				13:leaf=-0.145877346
				14:leaf=-0.450276345
			8:[f1<20.9400005] yes=15,no=16,missing=15
				15:leaf=-0.342182636
				16:leaf=0.31561926
		4:[f13<18.6850014] yes=9,no=10,missing=9
			9:leaf=0.0282896087
			10:leaf=0.380090386
	2:[f1<14.9899998] yes=5,no=6,missing=5
		5:leaf=-0.140533924
		6:[f26<0.216450006] yes=11,no=12,missing=11
			11:leaf=0.0487729385
			12:leaf=0.45992586
booster[2]:
0:[f22<115.349998] yes=1,no=2,missing=1
	1:[f27<0.160299987] yes=3,no=4,missing=3
		3:[f20<15.7800007] yes=7,no=8,missing=7
			7:[f10<0.583999991] yes=11,no=12,missing=11
				11:leaf=-0.390772223
				12:leaf=-0.100085132
			8:[f1<20.6800003] yes=13,no=14,missing=13
				13:leaf=-0.297240406
				14:leaf=0.234061137
		4:[f23<725.349976] yes=9,no=10,missing=9
			9:leaf=0.00234057498
			10:leaf=0.32734099
	2:[f27<0.113250002] yes=5,no=6,missing=5
		5:leaf=-0.0335924402
		6:leaf=0.398037016
booster[3]:
0:[f7<0.0488649979] yes=1,no=2,missing=1
	1:[f20<16.8299999] yes=3,no=4,missing=3
		3:[f10<0.524100006] yes=7,no=8,missing=7
			7:[f19<0.0013145] yes=15,no=16,missing=15
				15:leaf=-0.077585645
				16:leaf=-0.360639513
			8:leaf=-0.0704912618
		4:[f1<19.5449982] yes=9,no=10,missing=9
			9:leaf=-0.173584163
			10:leaf=0.251158625
	2:[f23<710.200012] yes=5,no=6,missing=5
		5:[f21<26.3349991] yes=11,no=12,missing=11
			11:leaf=-0.30869022
			12:leaf=0.125446558
		6:[f26<0.223450005] yes=13,no=14,missing=13
			13:leaf=-0.168852389
			14:[f1<15.3700008] yes=17,no=18,missing=17
				17:leaf=0.0165081136
				18:leaf=0.371839583
booster[4]:
0:[f22<117.449997] yes=1,no=2,missing=1
	1:[f27<0.135800004] yes=3,no=4,missing=3
		3:[f13<38.6049995] yes=7,no=8,missing=7
			7:[f14<0.00329899997] yes=11,no=12,missing=11
				11:leaf=-0.00349624851
				12:leaf=-0.332644403
			8:[f19<0.00356600014] yes=13,no=14,missing=13
				13:leaf=0.178872019
				14:leaf=-0.171787426
		4:[f21<27.5750008] yes=9,no=10,missing=9
			9:[f23<730.099976] yes=15,no=16,missing=15
				15:leaf=-0.279743701
				16:leaf=0.0249746647
			10:leaf=0.310874045
	2:[f19<0.00166449999] yes=5,no=6,missing=5
		5:leaf=-0.00668644346
		6:leaf=0.339526653
booster[5]:
0:[f7<0.0488649979] yes=1,no=2,missing=1
	1:[f20<16.8299999] yes=3,no=4,missing=3
		3:[f28<0.198249996] yes=7,no=8,missing=7
			7:leaf=-0.0330638438
			8:[f19<0.00134949991] yes=15,no=16,missing=15
				15:leaf=-0.0456062667
				16:leaf=-0.316726923
		4:[f1<19.5449982] yes=9,no=10,missing=9
			9:leaf=-0.130038977
			10:leaf=0.214403972
	2:[f23<784.150024] yes=5,no=6,missing=5
		5:[f21<25.7449989] yes=11,no=12,missing=11
			11:leaf=-0.243030176
			12:[f14<0.00619450025] yes=17,no=18,missing=17
				17:leaf=0.0436382182
				18:leaf=0.23820807
		6:[f21<20.6450005] yes=13,no=14,missing=13
			13:leaf=-0.00124743581
			14:leaf=0.324206918
booster[6]:
0:[f22<102.050003] yes=1,no=2,missing=1
	1:[f21<32.5049973] yes=3,no=4,missing=3
		3:[f28<0.206900001] yes=7,no=8,missing=7
			7:leaf=-0.0329529606
			8:leaf=-0.315318495
		4:[f1<26.1650009] yes=9,no=10,missing=9
			9:leaf=0.198736057
			10:leaf=-0.172794938
	2:[f26<0.207000002] yes=5,no=6,missing=5
		5:[f18<0.0194149986] yes=11,no=12,missing=11
			11:leaf=-0.242233858
			12:leaf=-0.0540341884
		6:[f21<20.0450001] yes=13,no=14,missing=13
			13:[f0<16.1549988] yes=15,no=16,missing=15
				15:leaf=-0.23309949
				16:leaf=0.139423639
			14:[f24<0.10825] yes=17,no=18,missing=17
				17:leaf=0.0121139223
				18:leaf=0.29917106
booster[7]:
0:[f22<115.349998] yes=1,no=2,missing=1
	1:[f21<29.2250004] yes=3,no=4,missing=3
		3:[f25<0.325749993] yes=7,no=8,missing=7
			7:[f10<0.519450009] yes=11,no=12,missing=11
				11:leaf=-0.303086698
				12:leaf=-0.00709229801
			8:[f15<0.0303499997] yes=13,no=14,missing=13
				13:leaf=0.165607005
				14:leaf=-0.171477064
		4:[f27<0.0922899991] yes=9,no=10,missing=9
			9:leaf=-0.187752351
			10:[f19<0.0033280002] yes=15,no=16,missing=15
				15:leaf=0.339735538
				16:leaf=0.0185807366
	2:[f25<0.176400006] yes=5,no=6,missing=5
		5:leaf=-0.0264013503
		6:leaf=0.29651165
booster[8]:
0:[f7<0.0488649979] yes=1,no=2,missing=1
	1:[f21<29.7950001] yes=3,no=4,missing=3
		3:[f28<0.203749999] yes=7,no=8,missing=7
			7:leaf=-0.0349448584
			8:[f2<98.0049973] yes=15,no=16,missing=15
				15:leaf=-0.292925179
				16:leaf=-0.0480073094
		4:[f20<14.4300003] yes=9,no=10,missing=9
			9:leaf=-0.204329863
			10:leaf=0.17441006
	2:[f21<23.7399998] yes=5,no=6,missing=5
		5:[f22<117.050003] yes=11,no=12,missing=11
			11:[f24<0.140200004] yes=17,no=18,missing=17
				17:leaf=-0.205894709
				18:leaf=-0.0285925698
			12:leaf=0.186289415
		6:[f20<15.2800007] yes=13,no=14,missing=13
			13:leaf=0.043237742
			14:leaf=0.278716177
booster[9]:
0:[f27<0.142349988] yes=1,no=2,missing=1
	1:[f20<17.7199993] yes=3,no=4,missing=3
		3:[f13<35.4350014] yes=7,no=8,missing=7
			7:[f21<29.9850006] yes=11,no=12,missing=11
				11:leaf=-0.275119334
				12:leaf=-0.0587673523
			8:leaf=0.0239694323
		4:leaf=0.0846284702
	2:[f23<710.200012] yes=5,no=6,missing=5
		5:leaf=-0.0402529463
		6:[f10<0.291799992] yes=9,no=10,missing=9
			9:leaf=0.0501124561
			10:leaf=0.269791454
booster[10]:
0:[f26<0.207949996] yes=1,no=2,missing=1
	1:[f13<45.1699982] yes=3,no=4,missing=3
		3:leaf=-0.275703281
		4:leaf=0.0575227961
	2:[f23<648.699951] yes=5,no=6,missing=5
		5:[f18<0.0175449997] yes=7,no=8,missing=7
			7:leaf=-0.0235875342
			8:leaf=-0.195325449
		6:[f24<0.135199994] yes=9,no=10,missing=9
			9:[f20<17.7549992] yes=11,no=12,missing=11
				11:leaf=-0.118521295
				12:leaf=0.207221717
			10:[f19<0.002507] yes=13,no=14,missing=13
				13:leaf=0.0749581084
				14:leaf=0.309799731
booster[11]:
0:[f26<0.19295001] yes=1,no=2,missing=1
	1:[f13<42.3800011] yes=3,no=4,missing=3
		3:leaf=-0.259098738
		4:leaf=-0.00576371141
	2:[f20<17.7199993] yes=5,no=6,missing=5
		5:[f21<29.2049999] yes=7,no=8,missing=7
			7:[f13<22.2999992] yes=9,no=10,missing=9
				9:leaf=-0.217381358
				10:leaf=-0.0216018017
			8:[f15<0.0197199993] yes=11,no=12,missing=11
				11:leaf=0.282533318
				12:leaf=-0.00154528953
		6:leaf=0.253196359
booster[12]:
0:[f7<0.0488649979] yes=1,no=2,missing=1
	1:[f15<0.0120299999] yes=3,no=4,missing=3
		3:[f16<0.0125850001] yes=7,no=8,missing=7
			7:leaf=-0.181544781
			8:leaf=0.243129268
		4:[f23<893.650024] yes=9,no=10,missing=9
			9:leaf=-0.260777593
			10:leaf=-0.0187136475
	2:[f21<23.7399998] yes=5,no=6,missing=5
		5:[f23<810.800049] yes=11,no=12,missing=11
			11:leaf=-0.167543814
			12:leaf=0.0949197784
		6:leaf=0.215990171
booster[13]:
0:[f26<0.207949996] yes=1,no=2,missing=1
	1:[f13<45.1699982] yes=3,no=4,missing=3
		3:leaf=-0.242935836
		4:leaf=0.0434174947
	2:[f23<648.699951] yes=5,no=6,missing=5
		5:leaf=-0.119027771
		6:[f21<20.0450001] yes=7,no=8,missing=7
			7:leaf=-0.082181938
			8:[f4<0.0884599984] yes=9,no=10,missing=9
				9:leaf=0.00681058085
				10:leaf=0.248481378
booster[14]:
0:[f27<0.160299987] yes=1,no=2,missing=1
	1:[f21<29.2250004] yes=3,no=4,missing=3
		3:[f10<0.536199987] yes=5,no=6,missing=5
			5:[f25<0.325749993] yes=9,no=10,missing=9
				9:leaf=-0.241912618
				10:leaf=-0.0160198826
			6:leaf=0.106222786
		4:[f19<0.002936] yes=7,no=8,missing=7
			7:leaf=0.152072802
			8:leaf=-0.0659127161
	2:leaf=0.183588788
booster[15]:
0:[f22<127.199997] yes=1,no=2,missing=1
	1:[f24<0.140850008] yes=3,no=4,missing=3
		3:[f5<0.0604199991] yes=5,no=6,missing=5
			5:leaf=0.0131952548
			6:[f1<21.4150009] yes=9,no=10,missing=9
				9:leaf=-0.234102339
				10:leaf=-0.0599349625
		4:[f23<643.650024] yes=7,no=8,missing=7
			7:leaf=-0.0685141981
			8:leaf=0.177628815
	2:leaf=0.189520836
booster[16]:
0:[f26<0.19295001] yes=1,no=2,missing=1
	1:[f12<3.01949978] yes=3,no=4,missing=3
		3:leaf=-0.201086238
		4:leaf=0.00477448571
	2:[f23<953.700012] yes=5,no=6,missing=5
		5:[f21<29.2049999] yes=7,no=8,missing=7
			7:[f13<22.2999992] yes=9,no=10,missing=9
				9:leaf=-0.174086258
				10:leaf=-0.0187637806
			8:leaf=0.123433821
		6:leaf=0.198300928
booster[17]:
0:[f27<0.135800004] yes=1,no=2,missing=1
	1:[f5<0.0604199991] yes=3,no=4,missing=3
		3:leaf=0.0739355162
		4:[f20<16.8299999] yes=7,no=8,missing=7
			7:leaf=-0.210397318
			8:leaf=-0.0176355019
	2:[f21<23.7399998] yes=5,no=6,missing=5
		5:leaf=-0.0125215165
		6:leaf=0.15861544
booster[18]:
0:[f26<0.19295001] yes=1,no=2,missing=1
	1:[f11<1.60899997] yes=3,no=4,missing=3
		3:leaf=-0.185718238
		4:leaf=0.0050724037
	2:[f20<17.7199993] yes=5,no=6,missing=5
		5:[f21<27.5299988] yes=7,no=8,missing=7
			7:[f13<22.2999992] yes=9,no=10,missing=9
				9:leaf=-0.150892302
				10:leaf=-0.0236037336
			8:leaf=0.101217471
		6:leaf=0.178866744
booster[19]:
0:[f24<0.140650004] yes=1,no=2,missing=1
	1:[f13<48.4199982] yes=3,no=4,missing=3
		3:[f9<0.0563649982] yes=7,no=8,missing=7
			7:leaf=0.0141336089
			8:leaf=-0.184005052
		4:leaf=0.0949116498
	2:[f13<19.7250004] yes=5,no=6,missing=5
		5:leaf=-0.0390732102
		6:leaf=0.170415401
booster[20]:
0:[f21<23.3499985] yes=1,no=2,missing=1
	1:[f27<0.125149995] yes=3,no=4,missing=3
		3:leaf=-0.172675923
		4:leaf=0.00452869618
	2:[f4<0.0903899968] yes=5,no=6,missing=5
		5:[f9<0.0559049994] yes=7,no=8,missing=7
			7:leaf=0.0630045533
			8:leaf=-0.154991254
		6:leaf=0.145015523
booster[21]:
0:[f28<0.282800019] yes=1,no=2,missing=1
	1:[f17<0.0140499994] yes=3,no=4,missing=3
		3:[f26<0.207949996] yes=7,no=8,missing=7
			7:leaf=-0.170933723
			8:leaf=-0.0447477587
		4:leaf=0.0466415063
	2:[f23<648.699951] yes=5,no=6,missing=5
		5:leaf=-0.0795915425
		6:[f17<0.0114600006] yes=9,no=10,missing=9
			9:leaf=0.181522757
			10:leaf=0.0316798389
booster[22]:
0:[f24<0.10825] yes=1,no=2,missing=1
	1:leaf=-0.129118547
	2:[f13<19.4150009] yes=3,no=4,missing=3
		3:leaf=-0.094013989
		4:[f9<0.0633549988] yes=5,no=6,missing=5
			5:[f5<0.0736500025] yes=7,no=8,missing=7
				7:leaf=0.187030345
				8:leaf=0.0407719538
			6:leaf=-0.0257166009
booster[23]:
0:[f7<0.0488649979] yes=1,no=2,missing=1
	1:[f15<0.0120299999] yes=3,no=4,missing=3
		3:leaf=0.0719814897
		4:leaf=-0.156790212
	2:[f22<107.150002] yes=5,no=6,missing=5
		5:leaf=-0.0197351333
		6:leaf=0.127138957
booster[24]:
0:[f28<0.282800019] yes=1,no=2,missing=1
	1:[f10<0.412900001] yes=3,no=4,missing=3
		3:leaf=-0.126557797
		4:leaf=0.0272304621
	2:[f21<26.2249985] yes=5,no=6,missing=5
		5:leaf=-0.0391508564
		6:leaf=0.118546866
booster[25]:
0:[f27<0.135800004] yes=1,no=2,missing=1
	1:[f5<0.0604199991] yes=3,no=4,missing=3
		3:leaf=0.0625758693
		4:leaf=-0.133677483
	2:[f23<810.549988] yes=5,no=6,missing=5
		5:leaf=0.0043805996
		6:leaf=0.11105407
booster[26]:
0:[f21<23.3499985] yes=1,no=2,missing=1
	1:leaf=-0.0860897675
	2:[f4<0.0903899968] yes=3,no=4,missing=3
		3:leaf=-0.0493309684
		4:leaf=0.113809697
booster[27]:
0:[f22<102.050003] yes=1,no=2,missing=1
	1:[f18<0.01743] yes=3,no=4,missing=3
		3:leaf=0.0336380713
		4:leaf=-0.154138714
	2:[f7<0.0488649979] yes=5,no=6,missing=5
		5:leaf=-0.0184173305
		6:leaf=0.107353888
booster[28]:
0:[f28<0.282800019] yes=1,no=2,missing=1
	1:[f13<29.3899994] yes=3,no=4,missing=3
		3:leaf=-0.116508834
		4:leaf=0.0196097288
	2:[f18<0.0174649991] yes=5,no=6,missing=5
		5:leaf=0.116879463
		6:leaf=-0.0138749303
booster[29]:
0:[f23<884.549988] yes=1,no=2,missing=1
	1:[f18<0.0179000013] yes=3,no=4,missing=3
		3:leaf=0.036309354
		4:leaf=-0.119465798
	2:leaf=0.0843136087
booster[30]:
0:[f26<0.207949996] yes=1,no=2,missing=1
	1:leaf=-0.0798474103
	2:[f16<0.0325350016] yes=3,no=4,missing=3
		3:leaf=0.104987592
		4:leaf=-0.0301325992
booster[31]:
0:[f13<35.4350014] yes=1,no=2,missing=1
	1:[f29<0.0949900001] yes=3,no=4,missing=3
		3:[f1<19.3649998] yes=5,no=6,missing=5
			5:leaf=-0.15302068
			6:leaf=0.00792496558
		4:leaf=0.0471926741
	2:leaf=0.0768065006
booster[32]:
0:[f13<19.4150009] yes=1,no=2,missing=1
	1:leaf=-0.081095539
	2:[f4<0.0885400027] yes=3,no=4,missing=3
		3:leaf=-0.0433935896
		4:leaf=0.0855135992
booster[33]:
0:[f1<16.6749992] yes=1,no=2,missing=1
	1:leaf=-0.0839432031
	2:[f15<0.0180249996] yes=3,no=4,missing=3
		3:leaf=0.0901663676
		4:leaf=-0.0304296892
booster[34]:
0:[f7<0.0488649979] yes=1,no=2,missing=1
	1:[f5<0.0604199991] yes=3,no=4,missing=3
		3:leaf=0.0523034818
		4:leaf=-0.128323495
	2:leaf=0.0611671172
booster[35]:
0:[f22<102.050003] yes=1,no=2,missing=1
	1:leaf=-0.0633494481
	2:[f28<0.296499997] yes=3,no=4,missing=3
		3:leaf=-0.0227711815
		4:leaf=0.101086855
booster[36]:
0:[f24<0.140650004] yes=1,no=2,missing=1
	1:[f13<38.6049995] yes=3,no=4,missing=3
		3:leaf=-0.0970475376
		4:leaf=0.0393825918
	2:leaf=0.0627730563
booster[37]:
0:[f26<0.207949996] yes=1,no=2,missing=1
	1:leaf=-0.0673305094
	2:[f21<25.5149994] yes=3,no=4,missing=3
		3:leaf=-0.0338170417
		4:leaf=0.0838627517
booster[38]:
0:[f22<102.050003] yes=1,no=2,missing=1
	1:leaf=-0.0536627248
	2:[f28<0.282999992] yes=3,no=4,missing=3
		3:leaf=-0.0179682039
		4:leaf=0.0840973407
booster[39]:
0:[f19<0.00256949989] yes=1,no=2,missing=1
	1:leaf=-0.0596431792
	2:[f19<0.00329349982] yes=3,no=4,missing=3
		3:leaf=0.129751503
		4:leaf=-0.0552303419
booster[40]:
0:[f21<23.3499985] yes=1,no=2,missing=1
	1:leaf=-0.0592852198
	2:[f4<0.0903899968] yes=3,no=4,missing=3
		3:leaf=-0.0348918848
		4:leaf=0.0841810629
booster[41]:
0:[f23<810.549988] yes=1,no=2,missing=1
	1:[f15<0.0177050009] yes=3,no=4,missing=3
		3:leaf=0.0247393847
		4:leaf=-0.0876861438
	2:leaf=0.0557442978
booster[42]:
0:[f27<0.135800004] yes=1,no=2,missing=1
	1:[f5<0.0713849962] yes=3,no=4,missing=3
		3:leaf=0.0395009331
		4:leaf=-0.102305949
	2:leaf=0.0540532656
booster[43]:
0:[f13<32.9850006] yes=1,no=2,missing=1
	1:[f24<0.140850008] yes=3,no=4,missing=3
		3:leaf=-0.0827208012
		4:leaf=0.0241568312
	2:leaf=0.055331286
booster[44]:
0:[f26<0.207949996] yes=1,no=2,missing=1
	1:leaf=-0.0603747778
	2:[f16<0.0325350016] yes=3,no=4,missing=3
		3:leaf=0.0807837993
		4:leaf=-0.0219556745
booster[45]:
0:[f22<102.050003] yes=1,no=2,missing=1
	1:leaf=-0.0492428578
	2:leaf=0.0406456515
booster[46]:
0:[f21<23.3499985] yes=1,no=2,missing=1
	1:leaf=-0.0599255897
	2:[f15<0.0180249996] yes=3,no=4,missing=3
		3:leaf=0.0784712359
		4:leaf=-0.0260402448
booster[47]:
0:[f19<0.00256949989] yes=1,no=2,missing=1
	1:leaf=-0.0582554974
	2:leaf=0.0404407009
booster[48]:
0:[f13<35.4350014] yes=1,no=2,missing=1
	1:[f23<734.049988] yes=3,no=4,missing=3
		3:leaf=-0.074989669
		4:leaf=0.0228973236
	2:leaf=0.0515826754
booster[49]:
0:[f19<0.00256949989] yes=1,no=2,missing=1
	1:leaf=-0.0502396412
	2:leaf=0.0338353813
