booster[0]:
0:[f17<1.5] yes=1,no=2,missing=1
	1:[f19<0.5] yes=3,no=4,missing=3
		3:leaf=-0.561904788
		4:[f32<0.5] yes=5,no=6,missing=5
			5:leaf=-0.300000012
			6:leaf=0.150000006
	2:leaf=0.557894766
booster[1]:
0:[f17<1.5] yes=1,no=2,missing=1
	1:[f19<0.5] yes=3,no=4,missing=3
		3:leaf=-0.438871562
		4:leaf=-0.0859909356
	2:leaf=0.4361763
booster[2]:
0:[f39<1.5] yes=1,no=2,missing=1
	1:[f27<0.5] yes=3,no=4,missing=3
		3:leaf=-0.38493818
		4:leaf=-0.104848154
	2:[f40<1.5] yes=5,no=6,missing=5
		5:leaf=-0.0594650805
		6:leaf=0.382812262
booster[3]:
0:[f18<1.5] yes=1,no=2,missing=1
	1:[f39<1.5] yes=3,no=4,missing=3
		3:leaf=-0.350072682
		4:leaf=0.0205252972
	2:leaf=0.332100719
booster[4]:
0:[f17<1.5] yes=1,no=2,missing=1
	1:[f19<0.5] yes=3,no=4,missing=3
		3:leaf=-0.317089438
		4:leaf=-0.0356635638
	2:leaf=0.312162548
booster[5]:
0:[f25<1.5] yes=1,no=2,missing=1
	1:[f39<1.5] yes=3,no=4,missing=3
		3:leaf=-0.303917795
		4:leaf=0.0358405635
	2:leaf=0.30083859
booster[6]:
0:[f35<0.5] yes=1,no=2,missing=1
	1:[f27<0.5] yes=3,no=4,missing=3
		3:leaf=-0.290091783
		4:leaf=0.0275931936
	2:leaf=0.266358554
booster[7]:
0:[f25<1.5] yes=1,no=2,missing=1
	1:[f39<1.5] yes=3,no=4,missing=3
		3:leaf=-0.269168705
		4:leaf=0.0310932472
	2:leaf=0.263943434
booster[8]:
0:[f39<2.5] yes=1,no=2,missing=1
	1:[f17<0.5] yes=3,no=4,missing=3
		3:leaf=-0.258826047
		4:leaf=0.025484236
	2:leaf=0.245935425
booster[9]:
0:[f38<1.5] yes=1,no=2,missing=1
	1:leaf=-0.212224379
	2:leaf=0.197041646
booster[10]:
0:[f35<0.5] yes=1,no=2,missing=1
	1:[f26<0.5] yes=3,no=4,missing=3
		3:leaf=-0.219230294
		4:leaf=-0.0278367717
	2:leaf=0.207785577
booster[11]:
0:[f25<1.5] yes=1,no=2,missing=1
	1:[f10<0.5] yes=3,no=4,missing=3
		3:leaf=-0.21683611
		4:leaf=0.00714753708
	2:leaf=0.209253684
booster[12]:
0:[f25<1.5] yes=1,no=2,missing=1
	1:[f10<0.5] yes=3,no=4,missing=3
		3:leaf=-0.200214431
		4:leaf=0.00606948743
	2:leaf=0.192863181
booster[13]:
0:[f38<1.5] yes=1,no=2,missing=1
	1:leaf=-0.160790563
	2:leaf=0.153153867
booster[14]:
0:[f35<0.5] yes=1,no=2,missing=1
	1:leaf=-0.136914328
	2:leaf=0.162750393
booster[15]:
0:[f17<0.5] yes=1,no=2,missing=1
	1:leaf=-0.14754492
	2:leaf=0.133091509
booster[16]:
0:[f43<1.5] yes=1,no=2,missing=1
	1:leaf=-0.132760555
	2:leaf=0.132513598
booster[17]:
0:[f38<1.5] yes=1,no=2,missing=1
	1:leaf=-0.127671167
	2:leaf=0.124226056
booster[18]:
0:[f16<0.5] yes=1,no=2,missing=1
	1:leaf=-0.124152206
	2:leaf=0.111800157
booster[19]:
0:[f39<1.5] yes=1,no=2,missing=1
	1:leaf=-0.116260968
	2:leaf=0.110064171
booster[20]:
0:leaf=-0.00309775118
booster[21]:
0:leaf=-0.00247901608
booster[22]:
0:leaf=-0.00198418158
booster[23]:
0:leaf=-0.00158749358
booster[24]:
0:leaf=-0.00127025915
booster[25]:
0:leaf=-0.00101688714
booster[26]:
0:leaf=-0.000813501247
booster[27]:
0:leaf=-0.00065107632
booster[28]:
0:leaf=-0.000520933245
booster[29]:
0:leaf=-0.00041693059
booster[30]:
0:leaf=-0.000333282194
booster[31]:
0:leaf=-0.000267063588
booster[32]:
0:leaf=-0.000213859355
booster[33]:
0:leaf=-0.000170758605
booster[34]:
0:leaf=-0.000136851246
booster[35]:
0:leaf=-0.000109338063
booster[36]:
0:leaf=-8.76521372e-05
booster[37]:
0:leaf=-7.00513701e-05
booster[38]:
0:leaf=-5.58672764e-05
booster[39]:
0:leaf=-4.45967089e-05
booster[40]:
0:leaf=-3.58956386e-05
booster[41]:
0:leaf=-2.89337149e-05
booster[42]:
0:leaf=-2.30906335e-05
booster[43]:
0:leaf=-1.82577078e-05
booster[44]:
0:leaf=-1.47073633e-05
booster[45]:
0:leaf=-1.17694817e-05
booster[46]:
0:leaf=-9.29196176e-06
booster[47]:
0:leaf=-7.77168043e-06
booster[48]:
0:leaf=-5.9565059e-06
booster[49]:
0:leaf=-5.00539409e-06
