booster[0]:
0:[f2<0.2315] yes=1,no=2,missing=1
	1:[f3<0.166999996] yes=3,no=4,missing=3
		3:leaf=0.375
		4:leaf=-0.24000001
	2:leaf=-0.480000019
booster[1]:
0:[f2<0.2315] yes=1,no=2,missing=1
	1:[f3<0.166999996] yes=3,no=4,missing=3
		3:leaf=0.299310684
		4:leaf=-0.198706612
	2:[f0<0.384499997] yes=5,no=6,missing=5
		5:[f6<0.340000004] yes=7,no=8,missing=7
			7:leaf=-0.312665045
			8:leaf=0.14978002
		6:leaf=-0.419405073
booster[2]:
0:[f2<0.289499998] yes=1,no=2,missing=1
	1:[f3<0.166999996] yes=3,no=4,missing=3
		3:[f3<0.0140000004] yes=7,no=8,missing=7
			7:leaf=0.00548134418
			8:leaf=0.286875308
		4:leaf=-0.188750908
	2:[f2<0.411499977] yes=5,no=6,missing=5
		5:[f6<0.342999995] yes=9,no=10,missing=9
			9:leaf=-0.31174773
			10:leaf=0.163532943
		6:leaf=-0.356077135
booster[3]:
0:[f0<0.215499997] yes=1,no=2,missing=1
	1:[f5<0.61500001] yes=3,no=4,missing=3
		3:[f5<0.248500004] yes=7,no=8,missing=7
			7:leaf=0.0656543449
			8:leaf=0.284270287
		4:leaf=-0.139929697
	2:[f6<0.36500001] yes=5,no=6,missing=5
		5:[f6<0.328999996] yes=9,no=10,missing=9
			9:leaf=-0.218821093
			10:leaf=0.144769713
		6:leaf=-0.31441775
booster[4]:
0:[f2<0.289499998] yes=1,no=2,missing=1
	1:[f3<0.166999996] yes=3,no=4,missing=3
		3:[f3<0.0140000004] yes=7,no=8,missing=7
			7:leaf=-0.00375206699
			8:leaf=0.243106961
		4:leaf=-0.145605579
	2:[f5<0.745000005] yes=5,no=6,missing=5
		5:[f5<0.68599999] yes=9,no=10,missing=9
			9:leaf=-0.275172383
			10:leaf=0.0749482587
		6:leaf=-0.306031227
booster[5]:
0:[f6<0.252000004] yes=1,no=2,missing=1
	1:[f3<0.166999996] yes=3,no=4,missing=3
		3:[f3<0.0140000004] yes=7,no=8,missing=7
			7:leaf=-0.00317488774
			8:leaf=0.270806074
		4:leaf=-0.148483172
	2:[f2<0.469500005] yes=5,no=6,missing=5
		5:[f6<0.342999995] yes=9,no=10,missing=9
			9:leaf=-0.255165696
			10:leaf=0.0569293015
		6:leaf=-0.283610195
booster[6]:
0:[f6<0.36500001] yes=1,no=2,missing=1
	1:[f4<0.105499998] yes=3,no=4,missing=3
		3:[f2<0.2315] yes=5,no=6,missing=5
			5:leaf=0.162553579
			6:leaf=0.0030398767
		4:[f4<0.192499995] yes=7,no=8,missing=7
			7:leaf=-0.224354818
			8:leaf=0.0494611226
	2:leaf=-0.239789203
booster[7]:
0:[f5<0.756999969] yes=1,no=2,missing=1
	1:[f5<0.735499978] yes=3,no=4,missing=3
		3:[f0<0.206499994] yes=5,no=6,missing=5
			5:leaf=0.127837032
			6:leaf=-0.173031762
		4:leaf=0.200034916
	2:leaf=-0.258327454
booster[8]:
0:[f5<0.756999969] yes=1,no=2,missing=1
	1:[f0<0.462500006] yes=3,no=4,missing=3
		3:[f5<0.68599999] yes=5,no=6,missing=5
			5:leaf=-0.0494498424
			6:leaf=0.205425411
		4:leaf=-0.180066511
	2:leaf=-0.238430038
booster[9]:
0:[f0<0.384499997] yes=1,no=2,missing=1
	1:[f4<0.105499998] yes=3,no=4,missing=3
		3:[f3<0.0350000001] yes=5,no=6,missing=5
			5:leaf=-0.014040322
			6:leaf=0.145507887
		4:[f4<0.192499995] yes=7,no=8,missing=7
			7:leaf=-0.194249704
			8:leaf=0.0645421594
	2:leaf=-0.18581003
booster[10]:
0:[f5<0.756999969] yes=1,no=2,missing=1
	1:[f5<0.735499978] yes=3,no=4,missing=3
		3:[f0<0.206499994] yes=5,no=6,missing=5
			5:leaf=0.111093462
			6:leaf=-0.14029412
		4:leaf=0.15708594
	2:leaf=-0.213035733
booster[11]:
0:[f5<0.756999969] yes=1,no=2,missing=1
	1:[f5<0.68599999] yes=3,no=4,missing=3
		3:[f0<0.206499994] yes=5,no=6,missing=5
			5:leaf=0.0932427645
			6:leaf=-0.184374988
		4:[f0<0.386999995] yes=7,no=8,missing=7
			7:leaf=0.182751238
			8:leaf=-0.0314680077
	2:leaf=-0.196250826
booster[12]:
0:[f1<0.8125] yes=1,no=2,missing=1
	1:[f0<0.386999995] yes=3,no=4,missing=3
		3:[f1<0.536000013] yes=5,no=6,missing=5
			5:leaf=-0.0424034148
			6:leaf=0.162949145
		4:leaf=-0.0998538956
	2:leaf=-0.189136341
booster[13]:
0:[f4<0.105499998] yes=1,no=2,missing=1
	1:[f3<0.0350000001] yes=3,no=4,missing=3
		3:leaf=-0.0656743273
		4:[f0<0.300000012] yes=7,no=8,missing=7
			7:leaf=0.152885109
			8:leaf=0.0303425025
	2:[f1<0.740999997] yes=5,no=6,missing=5
		5:leaf=-0.025084855
		6:leaf=-0.195262432
booster[14]:
0:[f5<0.756999969] yes=1,no=2,missing=1
	1:[f5<0.68599999] yes=3,no=4,missing=3
		3:[f2<0.2315] yes=5,no=6,missing=5
			5:leaf=0.0633465201
			6:leaf=-0.186576962
		4:[f3<0.125] yes=7,no=8,missing=7
			7:leaf=0.174811035
			8:leaf=-0.0140698776
	2:leaf=-0.167870238
booster[15]:
0:[f2<0.469500005] yes=1,no=2,missing=1
	1:[f6<0.342999995] yes=3,no=4,missing=3
		3:[f5<0.587499976] yes=5,no=6,missing=5
			5:leaf=0.0502490252
			6:leaf=-0.133516356
		4:leaf=0.122959368
	2:leaf=-0.158412784
booster[16]:
0:[f4<0.105499998] yes=1,no=2,missing=1
	1:[f3<0.0350000001] yes=3,no=4,missing=3
		3:leaf=-0.061966043
		4:[f1<0.696500003] yes=7,no=8,missing=7
			7:leaf=0.0220330246
			8:leaf=0.128884003
	2:[f4<0.194000006] yes=5,no=6,missing=5
		5:leaf=-0.172623068
		6:leaf=-0.00695764273
booster[17]:
0:[f0<0.384499997] yes=1,no=2,missing=1
	1:[f1<0.536000013] yes=3,no=4,missing=3
		3:leaf=-0.040916875
		4:[f5<0.726499975] yes=5,no=6,missing=5
			5:leaf=0.103892721
			6:leaf=0.0136741605
	2:leaf=-0.108494982
booster[18]:
0:[f4<0.105499998] yes=1,no=2,missing=1
	1:[f3<0.0350000001] yes=3,no=4,missing=3
		3:leaf=-0.0474410467
		4:[f1<0.696500003] yes=7,no=8,missing=7
			7:leaf=0.0263037048
			8:leaf=0.114923105
	2:[f5<0.691499949] yes=5,no=6,missing=5
		5:leaf=-0.0213993397
		6:leaf=-0.121016361
booster[19]:
0:[f1<0.740999997] yes=1,no=2,missing=1
	1:[f1<0.65200001] yes=3,no=4,missing=3
		3:[f0<0.217500001] yes=5,no=6,missing=5
			5:leaf=0.0715616494
			6:leaf=-0.132206023
		4:leaf=0.130962193
	2:leaf=-0.104981869
booster[20]:
0:[f4<0.105499998] yes=1,no=2,missing=1
	1:[f3<0.0350000001] yes=3,no=4,missing=3
		3:leaf=-0.0521371774
		4:leaf=0.0885922164
	2:[f5<0.691499949] yes=5,no=6,missing=5
		5:leaf=-0.0183599107
		6:leaf=-0.102232762
booster[21]:
0:[f0<0.384499997] yes=1,no=2,missing=1
	1:[f1<0.536000013] yes=3,no=4,missing=3
		3:leaf=-0.0333954319
		4:[f4<0.143999994] yes=5,no=6,missing=5
			5:leaf=0.0240615401
			6:leaf=0.091885373
	2:leaf=-0.0901815593
booster[22]:
0:[f1<0.740999997] yes=1,no=2,missing=1
	1:[f3<0.0970000029] yes=3,no=4,missing=3
		3:leaf=-0.0492480658
		4:leaf=0.0998710096
	2:leaf=-0.0908854231
booster[23]:
0:[f4<0.105499998] yes=1,no=2,missing=1
	1:[f3<0.0350000001] yes=3,no=4,missing=3
		3:leaf=-0.0315046087
		4:leaf=0.0866955221
	2:leaf=-0.078232199
booster[24]:
0:[f1<0.740999997] yes=1,no=2,missing=1
	1:[f5<0.680500031] yes=3,no=4,missing=3
		3:[f0<0.206499994] yes=5,no=6,missing=5
			5:leaf=0.067112647
			6:leaf=-0.124698363
		4:leaf=0.109646931
	2:leaf=-0.0805321857
booster[25]:
0:[f0<0.384499997] yes=1,no=2,missing=1
	1:[f1<0.536000013] yes=3,no=4,missing=3
		3:leaf=-0.0290980749
		4:leaf=0.0763234645
	2:leaf=-0.0790181234
booster[26]:
0:[f4<0.105499998] yes=1,no=2,missing=1
	1:[f3<0.0350000001] yes=3,no=4,missing=3
		3:leaf=-0.0337174945
		4:leaf=0.0807202756
	2:leaf=-0.0689448118
booster[27]:
0:[f1<0.740999997] yes=1,no=2,missing=1
	1:[f3<0.0970000029] yes=3,no=4,missing=3
		3:leaf=-0.0477315784
		4:leaf=0.0937962309
	2:leaf=-0.0761509836
booster[28]:
0:[f4<0.105499998] yes=1,no=2,missing=1
	1:[f2<0.2315] yes=3,no=4,missing=3
		3:leaf=0.0847866088
		4:leaf=-0.0144254649
	2:leaf=-0.066274941
booster[29]:
0:[f0<0.384499997] yes=1,no=2,missing=1
	1:[f1<0.536000013] yes=3,no=4,missing=3
		3:leaf=-0.0324596465
		4:leaf=0.0749745294
	2:leaf=-0.0667842478
booster[30]:
0:[f4<0.105499998] yes=1,no=2,missing=1
	1:[f3<0.0350000001] yes=3,no=4,missing=3
		3:leaf=-0.0291821696
		4:leaf=0.0732027665
	2:leaf=-0.0595379956
booster[31]:
0:[f1<0.740999997] yes=1,no=2,missing=1
	1:[f3<0.0970000029] yes=3,no=4,missing=3
		3:leaf=-0.0461502448
		4:leaf=0.0904093534
	2:leaf=-0.0687424242
booster[32]:
0:[f4<0.105499998] yes=1,no=2,missing=1
	1:[f2<0.2315] yes=3,no=4,missing=3
		3:leaf=0.0785958171
		4:leaf=-0.0138547737
	2:leaf=-0.0589214973
booster[33]:
0:[f4<0.105499998] yes=1,no=2,missing=1
	1:[f3<0.0350000001] yes=3,no=4,missing=3
		3:leaf=-0.026821211
		4:leaf=0.0630238578
	2:leaf=-0.0484286845
booster[34]:
0:[f0<0.384499997] yes=1,no=2,missing=1
	1:[f1<0.536000013] yes=3,no=4,missing=3
		3:leaf=-0.0342878401
		4:leaf=0.0746547058
	2:leaf=-0.0610154904
booster[35]:
0:[f5<0.743999958] yes=1,no=2,missing=1
	1:[f5<0.68599999] yes=3,no=4,missing=3
		3:[f0<0.206499994] yes=5,no=6,missing=5
			5:leaf=0.0585421287
			6:leaf=-0.12173105
		4:leaf=0.105920136
	2:leaf=-0.0681333244
booster[36]:
0:[f1<0.740999997] yes=1,no=2,missing=1
	1:[f3<0.0970000029] yes=3,no=4,missing=3
		3:leaf=-0.0464984551
		4:leaf=0.0841776431
	2:leaf=-0.0607146509
booster[37]:
0:[f4<0.105499998] yes=1,no=2,missing=1
	1:[f2<0.2315] yes=3,no=4,missing=3
		3:leaf=0.0708486587
		4:leaf=-0.0122831771
	2:leaf=-0.0556932911
booster[38]:
0:[f3<0.104000002] yes=1,no=2,missing=1
	1:leaf=-0.0419734046
	2:[f3<0.284999996] yes=3,no=4,missing=3
		3:leaf=0.0807591975
		4:leaf=-0.035358496
booster[39]:
0:[f4<0.105499998] yes=1,no=2,missing=1
	1:[f3<0.0350000001] yes=3,no=4,missing=3
		3:leaf=-0.0194483288
		4:leaf=0.0586294308
	2:leaf=-0.04747409
booster[40]:
0:[f0<0.384499997] yes=1,no=2,missing=1
	1:[f1<0.536000013] yes=3,no=4,missing=3
		3:leaf=-0.0302297492
		4:leaf=0.0705217794
	2:leaf=-0.058508426
booster[41]:
0:[f2<0.2315] yes=1,no=2,missing=1
	1:leaf=0.0412322991
	2:[f4<0.0995000005] yes=3,no=4,missing=3
		3:leaf=-0.0888962522
		4:leaf=0.0304663572
booster[42]:
0:[f4<0.105499998] yes=1,no=2,missing=1
	1:[f3<0.0350000001] yes=3,no=4,missing=3
		3:leaf=-0.017780358
		4:leaf=0.059444759
	2:leaf=-0.0506022386
booster[43]:
0:[f1<0.740999997] yes=1,no=2,missing=1
	1:[f3<0.0970000029] yes=3,no=4,missing=3
		3:leaf=-0.0378759056
		4:leaf=0.0742437616
	2:leaf=-0.0556589738
booster[44]:
0:[f4<0.105499998] yes=1,no=2,missing=1
	1:[f2<0.2315] yes=3,no=4,missing=3
		3:leaf=0.0641461462
		4:leaf=-0.00964868255
	2:leaf=-0.0503680594
booster[45]:
0:[f4<0.105499998] yes=1,no=2,missing=1
	1:[f5<0.685500026] yes=3,no=4,missing=3
		3:leaf=-0.0129360119
		4:leaf=0.0571157821
	2:leaf=-0.0416737199
booster[46]:
0:[f0<0.384499997] yes=1,no=2,missing=1
	1:[f1<0.536000013] yes=3,no=4,missing=3
		3:leaf=-0.0320084393
		4:leaf=0.0677410737
	2:leaf=-0.0527310148
booster[47]:
0:[f5<0.741999984] yes=1,no=2,missing=1
	1:[f1<0.579999983] yes=3,no=4,missing=3
		3:leaf=-0.0310354121
		4:leaf=0.0725128278
	2:leaf=-0.0506776161
booster[48]:
0:[f2<0.155000001] yes=1,no=2,missing=1
	1:leaf=0.0461098999
	2:[f1<0.65200001] yes=3,no=4,missing=3
		3:leaf=-0.0904827341
		4:leaf=0.0232256986
booster[49]:
0:[f2<0.2315] yes=1,no=2,missing=1
	1:leaf=0.0373445712
	2:[f4<0.0995000005] yes=3,no=4,missing=3
		3:leaf=-0.0815046802
		4:leaf=0.0262077264
