booster[0]:
0:[f13<0.5] yes=1,no=2,missing=1
	1:[f5<0.5] yes=3,no=4,missing=3
		3:leaf=-0.120382167
		4:leaf=0.13884297
	2:leaf=-0.155196309
booster[1]:
0:[f1<0.5] yes=1,no=2,missing=1
	1:leaf=-0.158019811
	2:leaf=0.722293019
booster[2]:
0:[f12<5.5] yes=1,no=2,missing=1
	1:leaf=-0.159149721
	2:leaf=0.381818205
booster[3]:
0:[f11<0.5] yes=1,no=2,missing=1
	1:leaf=-0.158790171
	2:leaf=0.442105263
booster[4]:
0:[f8<0.5] yes=1,no=2,missing=1
	1:[f6<0.5] yes=3,no=4,missing=3
		3:leaf=0.0385321081
		4:leaf=0.577981651
	2:leaf=-0.157606497
booster[5]:
0:[f3<0.5] yes=1,no=2,missing=1
	1:leaf=-0.154034227
	2:leaf=0.846640289
booster[6]:
0:[f0<0.5] yes=1,no=2,missing=1
	1:[f5<0.5] yes=3,no=4,missing=3
		3:[f1<0.5] yes=5,no=6,missing=5
			5:leaf=0.289655179
			6:leaf=-0.104132235
		4:leaf=-0.135483876
	2:leaf=-0.144043326
booster[7]:
0:[f13<0.5] yes=1,no=2,missing=1
	1:[f7<0.5] yes=3,no=4,missing=3
		3:leaf=-0.118201882
		4:leaf=0.139726415
	2:leaf=-0.148383155
booster[8]:
0:[f1<0.5] yes=1,no=2,missing=1
	1:leaf=-0.151537165
	2:leaf=0.413545042
booster[9]:
0:[f12<5.5] yes=1,no=2,missing=1
	1:leaf=-0.152698874
	2:leaf=0.284532756
booster[10]:
0:[f11<0.5] yes=1,no=2,missing=1
	1:leaf=-0.152196854
	2:leaf=0.306617171
booster[11]:
0:[f8<0.5] yes=1,no=2,missing=1
	1:[f6<0.5] yes=3,no=4,missing=3
		3:leaf=0.0321736149
		4:leaf=0.407942653
	2:leaf=-0.151049316
booster[12]:
0:[f3<0.5] yes=1,no=2,missing=1
	1:leaf=-0.14834094
	2:leaf=0.427806318
booster[13]:
0:[f0<0.5] yes=1,no=2,missing=1
	1:[f5<0.5] yes=3,no=4,missing=3
		3:[f1<0.5] yes=5,no=6,missing=5
			5:[f8<0.5] yes=7,no=8,missing=7
				7:leaf=-0.0999026671
				8:leaf=0.411791801
			6:leaf=-0.0971235633
		4:leaf=-0.129367843
	2:leaf=-0.135377541
booster[14]:
0:[f13<0.5] yes=1,no=2,missing=1
	1:[f7<0.5] yes=3,no=4,missing=3
		3:leaf=-0.112090148
		4:leaf=0.12067765
	2:leaf=-0.141783923
booster[15]:
0:[f1<0.5] yes=1,no=2,missing=1
	1:leaf=-0.145657107
	2:leaf=0.297396064
booster[16]:
0:[f12<5.5] yes=1,no=2,missing=1
	1:leaf=-0.146719903
	2:[f0<0.5] yes=3,no=4,missing=3
		3:leaf=0.0406182632
		4:leaf=0.287593484
booster[17]:
0:[f9<0.5] yes=1,no=2,missing=1
	1:leaf=0.233244687
	2:leaf=-0.148340017
booster[18]:
0:[f8<0.5] yes=1,no=2,missing=1
	1:[f6<0.5] yes=3,no=4,missing=3
		3:leaf=0.0252008252
		4:leaf=0.307006329
	2:leaf=-0.144773498
booster[19]:
0:[f3<0.5] yes=1,no=2,missing=1
	1:leaf=-0.142793387
	2:leaf=0.308591545
booster[20]:
0:[f0<0.5] yes=1,no=2,missing=1
	1:[f5<0.5] yes=3,no=4,missing=3
		3:[f7<0.5] yes=5,no=6,missing=5
			5:[f15<0.5] yes=7,no=8,missing=7
				7:leaf=-0.110528015
				8:leaf=0.0543973334
			6:leaf=0.269463062
		4:leaf=-0.123500496
	2:leaf=-0.127274543
booster[21]:
0:[f5<0.5] yes=1,no=2,missing=1
	1:leaf=-0.137133077
	2:[f13<0.5] yes=3,no=4,missing=3
		3:leaf=0.112327032
		4:leaf=-0.103864022
booster[22]:
0:[f1<0.5] yes=1,no=2,missing=1
	1:leaf=-0.140114933
	2:leaf=0.237982899
booster[23]:
0:[f12<5.5] yes=1,no=2,missing=1
	1:leaf=-0.141039222
	2:[f0<0.5] yes=3,no=4,missing=3
		3:leaf=0.0387134738
		4:leaf=0.235195875
booster[24]:
0:[f11<0.5] yes=1,no=2,missing=1
	1:leaf=-0.1416374
	2:leaf=0.195279315
booster[25]:
0:[f8<0.5] yes=1,no=2,missing=1
	1:[f6<0.5] yes=3,no=4,missing=3
		3:leaf=0.0203601532
		4:leaf=0.251522094
	2:leaf=-0.138874635
booster[26]:
0:[f3<0.5] yes=1,no=2,missing=1
	1:leaf=-0.137313128
	2:leaf=0.247542009
booster[27]:
0:[f13<0.5] yes=1,no=2,missing=1
	1:leaf=-0.124332875
	2:[f2<0.5] yes=3,no=4,missing=3
		3:leaf=-0.106608145
		4:[f5<0.5] yes=5,no=6,missing=5
			5:[f1<0.5] yes=7,no=8,missing=7
				7:leaf=0.248928696
				8:leaf=-0.0854276866
			6:leaf=-0.100411028
booster[28]:
0:[f5<0.5] yes=1,no=2,missing=1
	1:leaf=-0.130545646
	2:[f12<3] yes=3,no=4,missing=3
		3:leaf=-0.0984908193
		4:leaf=0.0981947109
booster[29]:
0:[f1<0.5] yes=1,no=2,missing=1
	1:leaf=-0.134483486
	2:leaf=0.20101665
booster[30]:
0:[f12<5.5] yes=1,no=2,missing=1
	1:leaf=-0.135290697
	2:[f0<0.5] yes=3,no=4,missing=3
		3:leaf=0.0369521081
		4:leaf=0.198418662
booster[31]:
0:[f9<0.5] yes=1,no=2,missing=1
	1:leaf=0.159780324
	2:leaf=-0.137585372
booster[32]:
0:[f8<0.5] yes=1,no=2,missing=1
	1:[f6<0.5] yes=3,no=4,missing=3
		3:leaf=0.0164786708
		4:leaf=0.212598011
	2:leaf=-0.132768944
booster[33]:
0:[f3<0.5] yes=1,no=2,missing=1
	1:leaf=-0.13171187
	2:leaf=0.212485567
booster[34]:
0:[f13<0.5] yes=1,no=2,missing=1
	1:leaf=-0.118818723
	2:[f5<0.5] yes=3,no=4,missing=3
		3:[f2<0.5] yes=5,no=6,missing=5
			5:leaf=-0.0922387913
			6:[f7<0.5] yes=7,no=8,missing=7
				7:leaf=0.00628473004
				8:leaf=0.178188622
		4:leaf=-0.0995113626
booster[35]:
0:[f5<0.5] yes=1,no=2,missing=1
	1:leaf=-0.124134973
	2:[f9<0.5] yes=3,no=4,missing=3
		3:leaf=-0.0930106491
		4:leaf=0.0856727734
booster[36]:
0:[f1<0.5] yes=1,no=2,missing=1
	1:leaf=-0.128988013
	2:leaf=0.176828206
booster[37]:
0:[f12<5.5] yes=1,no=2,missing=1
	1:leaf=-0.129646987
	2:[f0<0.5] yes=3,no=4,missing=3
		3:leaf=0.036451932
		4:leaf=0.171926826
booster[38]:
0:[f11<0.5] yes=1,no=2,missing=1
	1:leaf=-0.131269738
	2:leaf=0.143310383
booster[39]:
0:[f8<0.5] yes=1,no=2,missing=1
	1:[f12<5.5] yes=3,no=4,missing=3
		3:leaf=0.208122641
		4:leaf=0.0323183984
	2:leaf=-0.126807675
booster[40]:
0:[f3<0.5] yes=1,no=2,missing=1
	1:leaf=-0.12620911
	2:leaf=0.1876809
booster[41]:
0:[f13<0.5] yes=1,no=2,missing=1
	1:leaf=-0.113293283
	2:[f5<0.5] yes=3,no=4,missing=3
		3:[f2<0.5] yes=5,no=6,missing=5
			5:leaf=-0.0839312077
			6:[f7<0.5] yes=7,no=8,missing=7
				7:leaf=0.00718750805
				8:leaf=0.152862221
		4:leaf=-0.0927336439
booster[42]:
0:[f13<0.5] yes=1,no=2,missing=1
	1:[f7<0.5] yes=3,no=4,missing=3
		3:leaf=-0.0914136842
		4:leaf=0.097904183
	2:leaf=-0.118296526
booster[43]:
0:[f1<0.5] yes=1,no=2,missing=1
	1:leaf=-0.123396605
	2:leaf=0.159685567
booster[44]:
0:[f12<5.5] yes=1,no=2,missing=1
	1:leaf=-0.123770051
	2:[f0<0.5] yes=3,no=4,missing=3
		3:leaf=0.0297317877
		4:leaf=0.15250802
booster[45]:
0:[f9<0.5] yes=1,no=2,missing=1
	1:leaf=0.121883586
	2:leaf=-0.126773372
booster[46]:
0:[f8<0.5] yes=1,no=2,missing=1
	1:[f6<0.5] yes=3,no=4,missing=3
		3:leaf=0.00523342099
		4:leaf=0.172737718
	2:leaf=-0.120650135
booster[47]:
0:[f3<0.5] yes=1,no=2,missing=1
	1:leaf=-0.120686606
	2:leaf=0.171717748
booster[48]:
0:[f13<0.5] yes=1,no=2,missing=1
	1:leaf=-0.10753008
	2:[f5<0.5] yes=3,no=4,missing=3
		3:[f7<0.5] yes=5,no=6,missing=5
			5:leaf=-0.00178862864
			6:[f12<3] yes=7,no=8,missing=7
				7:leaf=0.0803355053
				8:leaf=0.00846713036
		4:leaf=-0.0858236179
booster[49]:
0:[f5<0.5] yes=1,no=2,missing=1
	1:leaf=-0.112728767
	2:[f12<3] yes=3,no=4,missing=3
		3:leaf=-0.0822381601
		4:leaf=0.0804590061
booster[50]:
0:[f1<0.5] yes=1,no=2,missing=1
	1:leaf=-0.117894866
	2:leaf=0.145448312
booster[51]:
0:[f12<5.5] yes=1,no=2,missing=1
	1:leaf=-0.118068881
	2:[f0<0.5] yes=3,no=4,missing=3
		3:leaf=0.0298300739
		4:leaf=0.137004897
booster[52]:
0:[f11<0.5] yes=1,no=2,missing=1
	1:leaf=-0.12096595
	2:leaf=0.113763548
booster[53]:
0:[f8<0.5] yes=1,no=2,missing=1
	1:[f6<0.5] yes=3,no=4,missing=3
		3:leaf=0.00417502876
		4:leaf=0.157756254
	2:leaf=-0.114618644
booster[54]:
0:[f3<0.5] yes=1,no=2,missing=1
	1:leaf=-0.115355454
	2:leaf=0.158848226
booster[55]:
0:[f13<0.5] yes=1,no=2,missing=1
	1:leaf=-0.10213881
	2:[f5<0.5] yes=3,no=4,missing=3
		3:[f7<0.5] yes=5,no=6,missing=5
			5:leaf=0.000258683343
			6:leaf=0.0545956455
		4:leaf=-0.079564102
booster[56]:
0:[f5<0.5] yes=1,no=2,missing=1
	1:leaf=-0.106599905
	2:leaf=0.0108115422
booster[57]:
0:[f1<0.5] yes=1,no=2,missing=1
	1:leaf=-0.112354167
	2:leaf=0.133849934
booster[58]:
0:[f12<5.5] yes=1,no=2,missing=1
	1:leaf=-0.112297311
	2:[f0<0.5] yes=3,no=4,missing=3
		3:leaf=0.0297850985
		4:leaf=0.124265797
booster[59]:
0:[f11<0.5] yes=1,no=2,missing=1
	1:leaf=-0.114995904
	2:leaf=0.0998460874
booster[60]:
0:[f8<0.5] yes=1,no=2,missing=1
	1:[f12<5.5] yes=3,no=4,missing=3
		3:leaf=0.156631842
		4:leaf=0.0150317661
	2:leaf=-0.108491786
booster[61]:
0:[f3<0.5] yes=1,no=2,missing=1
	1:leaf=-0.110039137
	2:leaf=0.148988411
booster[62]:
0:[f13<0.5] yes=1,no=2,missing=1
	1:leaf=-0.0971209928
	2:[f12<3] yes=3,no=4,missing=3
		3:[f12<1] yes=5,no=6,missing=5
			5:leaf=0.0305059683
			6:leaf=-0.0811852217
		4:leaf=0.0395907573
booster[63]:
0:[f13<0.5] yes=1,no=2,missing=1
	1:leaf=0.0145396665
	2:leaf=-0.101483561
booster[64]:
0:[f1<0.5] yes=1,no=2,missing=1
	1:leaf=-0.10683652
	2:leaf=0.123362288
booster[65]:
0:[f12<5.5] yes=1,no=2,missing=1
	1:leaf=-0.106446363
	2:[f0<0.5] yes=3,no=4,missing=3
		3:leaf=0.0250508338
		4:leaf=0.113990858
booster[66]:
0:[f9<0.5] yes=1,no=2,missing=1
	1:leaf=0.0954574794
	2:leaf=-0.111396059
booster[67]:
0:[f8<0.5] yes=1,no=2,missing=1
	1:[f6<0.5] yes=3,no=4,missing=3
		3:leaf=-0.00304183923
		4:leaf=0.137850329
	2:leaf=-0.102547713
booster[68]:
0:[f3<0.5] yes=1,no=2,missing=1
	1:leaf=-0.104795538
	2:leaf=0.140676081
booster[69]:
0:[f13<0.5] yes=1,no=2,missing=1
	1:leaf=-0.0919462368
	2:[f12<3] yes=3,no=4,missing=3
		3:leaf=-0.0253506117
		4:leaf=0.0355337746
booster[70]:
0:[f5<0.5] yes=1,no=2,missing=1
	1:leaf=-0.0967154652
	2:leaf=0.015091043
booster[71]:
0:[f1<0.5] yes=1,no=2,missing=1
	1:leaf=-0.101573043
	2:leaf=0.114344068
booster[72]:
0:[f12<5.5] yes=1,no=2,missing=1
	1:leaf=-0.100970797
	2:[f0<0.5] yes=3,no=4,missing=3
		3:leaf=0.0262150411
		4:leaf=0.105638608
booster[73]:
0:[f11<0.5] yes=1,no=2,missing=1
	1:leaf=-0.104813077
	2:leaf=0.086582683
booster[74]:
0:[f8<0.5] yes=1,no=2,missing=1
	1:[f6<0.5] yes=3,no=4,missing=3
		3:leaf=-0.00254530599
		4:leaf=0.129845366
	2:leaf=-0.096906431
booster[75]:
0:[f3<0.5] yes=1,no=2,missing=1
	1:leaf=-0.0998288915
	2:leaf=0.132263884
booster[76]:
0:[f13<0.5] yes=1,no=2,missing=1
	1:leaf=-0.0874052644
	2:[f12<3] yes=3,no=4,missing=3
		3:leaf=-0.0219873786
		4:leaf=0.0327297524
booster[77]:
0:[f13<0.5] yes=1,no=2,missing=1
	1:leaf=0.0151661001
	2:leaf=-0.0910347998
booster[78]:
0:[f1<0.5] yes=1,no=2,missing=1
	1:leaf=-0.0964923501
	2:leaf=0.106577769
booster[79]:
0:[f12<5.5] yes=1,no=2,missing=1
	1:leaf=-0.0956591591
	2:[f0<0.5] yes=3,no=4,missing=3
		3:leaf=0.0264918897
		4:leaf=0.0977013707
booster[80]:
0:[f9<0.5] yes=1,no=2,missing=1
	1:leaf=0.0829808265
	2:leaf=-0.101102352
booster[81]:
0:[f8<0.5] yes=1,no=2,missing=1
	1:[f6<0.5] yes=3,no=4,missing=3
		3:leaf=-0.00303311506
		4:leaf=0.121235602
	2:leaf=-0.0914067253
booster[82]:
0:[f3<0.5] yes=1,no=2,missing=1
	1:leaf=-0.0950663909
	2:leaf=0.125629038
booster[83]:
0:[f13<0.5] yes=1,no=2,missing=1
	1:leaf=-0.0833469778
	2:[f12<3] yes=3,no=4,missing=3
		3:leaf=-0.0189345125
		4:leaf=0.0302864164
booster[84]:
0:[f5<0.5] yes=1,no=2,missing=1
	1:leaf=-0.0881896317
	2:leaf=0.0177118145
booster[85]:
0:[f1<0.5] yes=1,no=2,missing=1
	1:leaf=-0.0915340781
	2:leaf=0.0991610587
booster[86]:
0:[f12<5.5] yes=1,no=2,missing=1
	1:leaf=-0.0905250609
	2:leaf=0.0785763636
booster[87]:
0:[f11<0.5] yes=1,no=2,missing=1
	1:leaf=-0.0951022729
	2:leaf=0.0761280134
booster[88]:
0:[f8<0.5] yes=1,no=2,missing=1
	1:[f6<0.5] yes=3,no=4,missing=3
		3:leaf=-0.00256236829
		4:leaf=0.115201943
	2:leaf=-0.0861819983
booster[89]:
0:[f3<0.5] yes=1,no=2,missing=1
	1:leaf=-0.0904095545
	2:leaf=0.118489482
booster[90]:
0:[f6<0.5] yes=1,no=2,missing=1
	1:leaf=-0.0461655781
	2:leaf=-0.00285241334
booster[91]:
0:[f5<0.5] yes=1,no=2,missing=1
	1:leaf=-0.0833686367
	2:leaf=0.0172842145
booster[92]:
0:[f1<0.5] yes=1,no=2,missing=1
	1:leaf=-0.0868914574
	2:leaf=0.0926499516
booster[93]:
0:[f12<5.5] yes=1,no=2,missing=1
	1:leaf=-0.0857641026
	2:leaf=0.0722096413
booster[94]:
0:[f9<0.5] yes=1,no=2,missing=1
	1:leaf=0.0733940452
	2:leaf=-0.0914468467
booster[95]:
0:[f8<0.5] yes=1,no=2,missing=1
	1:[f12<5.5] yes=3,no=4,missing=3
		3:leaf=0.116993792
		4:leaf=0.00352156651
	2:leaf=-0.0813533962
booster[96]:
0:[f3<0.5] yes=1,no=2,missing=1
	1:leaf=-0.0860615149
	2:leaf=0.112467445
booster[97]:
0:[f6<0.5] yes=1,no=2,missing=1
	1:leaf=-0.0423389934
	2:leaf=-0.00237485394
booster[98]:
0:[f7<0.5] yes=1,no=2,missing=1
	1:leaf=-0.0796462297
	2:leaf=0.0178730711
booster[99]:
0:[f1<0.5] yes=1,no=2,missing=1
	1:leaf=-0.0822804198
	2:leaf=0.0866738781
booster[100]:
0:[f6<0.5] yes=1,no=2,missing=1
	1:leaf=0.0693560168
	2:leaf=-0.0876154751
booster[101]:
0:[f11<0.5] yes=1,no=2,missing=1
	1:leaf=-0.0861059055
	2:leaf=0.0689133033
booster[102]:
0:[f6<0.5] yes=1,no=2,missing=1
	1:leaf=-0.0298320167
	2:leaf=0.0584193952
booster[103]:
0:[f3<0.5] yes=1,no=2,missing=1
	1:leaf=-0.0817017257
	2:leaf=0.105837703
booster[104]:
0:[f6<0.5] yes=1,no=2,missing=1
	1:leaf=-0.0381666012
	2:leaf=-0.00246111071
booster[105]:
0:leaf=-0.0270968061
booster[106]:
0:[f1<0.5] yes=1,no=2,missing=1
	1:leaf=-0.0781367645
	2:leaf=0.0816542432
booster[107]:
0:[f6<0.5] yes=1,no=2,missing=1
	1:leaf=0.0609893501
	2:leaf=-0.0823213756
booster[108]:
0:[f9<0.5] yes=1,no=2,missing=1
	1:leaf=0.0662585795
	2:leaf=-0.0824702159
booster[109]:
0:[f9<0.5] yes=1,no=2,missing=1
	1:leaf=0.0655170158
	2:[f12<5] yes=3,no=4,missing=3
		3:leaf=0.00117341673
		4:leaf=-0.0305988118
booster[110]:
0:[f3<0.5] yes=1,no=2,missing=1
	1:leaf=-0.0778051987
	2:leaf=0.101499029
booster[111]:
0:[f6<0.5] yes=1,no=2,missing=1
	1:leaf=-0.0342954658
	2:leaf=-0.000777997368
booster[112]:
0:leaf=-0.023039557
booster[113]:
0:leaf=0.00224850513
booster[114]:
0:[f12<5.5] yes=1,no=2,missing=1
	1:leaf=-0.0786347687
	2:leaf=0.0596721061
booster[115]:
0:[f11<0.5] yes=1,no=2,missing=1
	1:leaf=-0.0788050368
	2:leaf=0.0646486729
booster[116]:
0:[f9<0.5] yes=1,no=2,missing=1
	1:leaf=0.0612825118
	2:[f12<5] yes=3,no=4,missing=3
		3:leaf=0.00109093322
		4:leaf=-0.0280540343
booster[117]:
0:[f0<0.5] yes=1,no=2,missing=1
	1:leaf=-0.052678559
	2:leaf=0.0850753561
booster[118]:
0:[f6<0.5] yes=1,no=2,missing=1
	1:leaf=-0.0303969178
	2:leaf=-0.000652006827
booster[119]:
0:leaf=-0.0199973546
booster[120]:
0:leaf=0.00126144756
booster[121]:
0:leaf=-0.00191783905
booster[122]:
0:leaf=-0.00483658398
booster[123]:
0:[f6<0.5] yes=1,no=2,missing=1
	1:leaf=-0.0224865973
	2:leaf=0.045724757
booster[124]:
0:[f15<0.5] yes=1,no=2,missing=1
	1:leaf=-0.0215515215
	2:leaf=0.060422238
booster[125]:
0:[f7<0.5] yes=1,no=2,missing=1
	1:leaf=-0.0290054772
	2:leaf=0.000447133905
booster[126]:
0:leaf=-0.0174234025
booster[127]:
0:leaf=0.000574519217
booster[128]:
0:leaf=-0.00200747955
booster[129]:
0:leaf=-0.00354458555
booster[130]:
0:[f6<0.5] yes=1,no=2,missing=1
	1:leaf=-0.0213135015
	2:leaf=0.0411859639
booster[131]:
0:[f15<0.5] yes=1,no=2,missing=1
	1:leaf=-0.0202961173
	2:leaf=0.0562572703
booster[132]:
0:[f7<0.5] yes=1,no=2,missing=1
	1:leaf=-0.0265159104
	2:leaf=0.000715778675
booster[133]:
0:leaf=-0.015173113
booster[134]:
0:leaf=3.26101326e-05
booster[135]:
0:leaf=-0.00210030447
booster[136]:
0:leaf=-0.00245908834
booster[137]:
0:[f6<0.5] yes=1,no=2,missing=1
	1:leaf=-0.0201784428
	2:leaf=0.037101049
booster[138]:
0:[f15<0.5] yes=1,no=2,missing=1
	1:leaf=-0.0190914422
	2:leaf=0.052347336
booster[139]:
0:[f6<0.5] yes=1,no=2,missing=1
	1:leaf=-0.0252020825
	2:leaf=0.0019122127
booster[140]:
0:leaf=-0.0133101018
booster[141]:
0:leaf=-0.000125508464
booster[142]:
0:leaf=-0.00218812563
booster[143]:
0:leaf=-0.00166606985
booster[144]:
0:[f8<0.5] yes=1,no=2,missing=1
	1:[f6<0.5] yes=3,no=4,missing=3
		3:leaf=0.00531767402
		4:leaf=0.091301702
	2:leaf=-0.0778065026
booster[145]:
0:[f15<0.5] yes=1,no=2,missing=1
	1:leaf=-0.0181604214
	2:leaf=0.0486183725
booster[146]:
0:[f6<0.5] yes=1,no=2,missing=1
	1:leaf=-0.023410283
	2:leaf=0.00239431532
booster[147]:
0:leaf=-0.0118409814
booster[148]:
0:leaf=-0.000737120514
booster[149]:
0:leaf=-0.000652904855
booster[150]:
0:leaf=-0.00126630254
booster[151]:
0:[f6<0.5] yes=1,no=2,missing=1
	1:leaf=-0.0185253806
	2:leaf=0.0323365517
booster[152]:
0:[f15<0.5] yes=1,no=2,missing=1
	1:leaf=-0.0174205434
	2:leaf=0.0447019376
booster[153]:
0:[f12<3] yes=1,no=2,missing=1
	1:leaf=-0.021051418
	2:leaf=0.00277354615
booster[154]:
0:leaf=-0.0103188436
booster[155]:
0:leaf=-0.00102068938
booster[156]:
0:leaf=-0.000755137997
booster[157]:
0:leaf=-0.000893890799
booster[158]:
0:[f13<0.5] yes=1,no=2,missing=1
	1:leaf=0.0273891557
	2:leaf=-0.0256123971
booster[159]:
0:[f15<0.5] yes=1,no=2,missing=1
	1:leaf=-0.0164985862
	2:leaf=0.0416697115
booster[160]:
0:[f6<0.5] yes=1,no=2,missing=1
	1:leaf=-0.0215380155
	2:leaf=0.00360701908
booster[161]:
0:leaf=-0.00877338741
booster[162]:
0:leaf=-0.00110897433
booster[163]:
0:leaf=-0.000227539043
booster[164]:
0:leaf=-0.000591343094
booster[165]:
0:[f6<0.5] yes=1,no=2,missing=1
	1:leaf=-0.0194309317
	2:leaf=0.0293124951
booster[166]:
0:[f15<0.5] yes=1,no=2,missing=1
	1:leaf=-0.0155173372
	2:leaf=0.0384986475
booster[167]:
0:[f12<3] yes=1,no=2,missing=1
	1:leaf=-0.0190573558
	2:leaf=0.00389173697
booster[168]:
0:leaf=-0.00761638163
booster[169]:
0:leaf=-0.00129484874
booster[170]:
0:leaf=-0.00041838942
booster[171]:
0:leaf=-0.000325676723
booster[172]:
0:[f13<0.5] yes=1,no=2,missing=1
	1:leaf=0.0240828265
	2:leaf=-0.025154965
booster[173]:
0:[f6<0.5] yes=1,no=2,missing=1
	1:leaf=0.00256289681
	2:leaf=0.0178476479
booster[174]:
0:[f6<0.5] yes=1,no=2,missing=1
	1:leaf=-0.0194201283
	2:leaf=0.00440334994
booster[175]:
0:leaf=-0.00636009406
booster[176]:
0:leaf=-0.00133263716
booster[177]:
0:leaf=6.54371834e-05
booster[178]:
0:leaf=-0.000235980289
booster[179]:
0:[f6<0.5] yes=1,no=2,missing=1
	1:leaf=-0.0198363289
	2:leaf=0.026818417
booster[180]:
0:[f6<0.5] yes=1,no=2,missing=1
	1:leaf=0.00191624649
	2:leaf=0.0164579935
booster[181]:
0:[f12<1] yes=1,no=2,missing=1
	1:leaf=0.00738148624
	2:leaf=-0.0160960462
booster[182]:
0:leaf=-0.00561522366
booster[183]:
0:leaf=-0.00145833986
booster[184]:
0:leaf=-0.000278523308
booster[185]:
0:leaf=0.000161889067
booster[186]:
0:[f12<3] yes=1,no=2,missing=1
	1:leaf=0.0291408673
	2:leaf=-0.0150550185
booster[187]:
0:[f6<0.5] yes=1,no=2,missing=1
	1:leaf=0.00116132561
	2:leaf=0.0152407466
booster[188]:
0:[f12<3] yes=1,no=2,missing=1
	1:leaf=-0.0172014106
	2:leaf=0.00627446314
booster[189]:
0:leaf=-0.00501102954
booster[190]:
0:leaf=-0.00135696004
booster[191]:
0:leaf=-0.000809033983
booster[192]:
0:leaf=0.000234396706
booster[193]:
0:[f13<0.5] yes=1,no=2,missing=1
	1:leaf=0.021759823
	2:leaf=-0.0249378365
booster[194]:
0:[f6<0.5] yes=1,no=2,missing=1
	1:leaf=0.00110824511
	2:leaf=0.0138972355
booster[195]:
0:[f12<1] yes=1,no=2,missing=1
	1:leaf=0.00893304404
	2:leaf=-0.0147959441
booster[196]:
0:leaf=-0.00416867901
booster[197]:
0:leaf=-0.00155811105
booster[198]:
0:leaf=-0.000325328612
booster[199]:
0:leaf=0.000380036276
booster[200]:
0:[f6<0.5] yes=1,no=2,missing=1
	1:leaf=-0.0201115981
	2:leaf=0.0245642718
booster[201]:
0:[f6<0.5] yes=1,no=2,missing=1
	1:leaf=0.000708125182
	2:leaf=0.0126563525
booster[202]:
0:[f6<0.5] yes=1,no=2,missing=1
	1:leaf=-0.0162995886
	2:leaf=0.00607020734
booster[203]:
0:[f6<0.5] yes=1,no=2,missing=1
	1:leaf=-0.00462106895
	2:leaf=-0.000849663629
booster[204]:
0:leaf=-0.00140367995
booster[205]:
0:leaf=-0.00062972348
booster[206]:
0:leaf=0.000574651931
booster[207]:
0:[f13<0.5] yes=1,no=2,missing=1
	1:leaf=0.0197655223
	2:leaf=-0.0242772829
booster[208]:
0:[f0<0.5] yes=1,no=2,missing=1
	1:leaf=-0.0584478937
	2:leaf=0.069734171
booster[209]:
0:[f12<3] yes=1,no=2,missing=1
	1:leaf=-0.015349173
	2:leaf=0.00747032138
booster[210]:
0:[f6<0.5] yes=1,no=2,missing=1
	1:leaf=-0.00382599491
	2:leaf=-0.000291537493
booster[211]:
0:leaf=-0.00174689328
booster[212]:
0:leaf=0.000248184922
booster[213]:
0:leaf=9.8235003e-05
booster[214]:
0:[f6<0.5] yes=1,no=2,missing=1
	1:leaf=-0.0200277194
	2:leaf=0.0228255801
booster[215]:
0:leaf=0.00759225339
booster[216]:
0:[f12<1] yes=1,no=2,missing=1
	1:leaf=0.00918215048
	2:leaf=-0.0130217457
booster[217]:
0:[f6<0.5] yes=1,no=2,missing=1
	1:leaf=-0.00386512489
	2:leaf=0.000163602963
booster[218]:
0:leaf=-0.00171914801
booster[219]:
0:leaf=-8.39045751e-05
booster[220]:
0:leaf=0.000434064248
booster[221]:
0:[f12<3] yes=1,no=2,missing=1
	1:leaf=0.0265689287
	2:leaf=-0.0164403357
booster[222]:
0:leaf=0.00659085019
booster[223]:
0:[f12<3] yes=1,no=2,missing=1
	1:leaf=-0.0145336911
	2:leaf=0.0083561372
booster[224]:
0:[f6<0.5] yes=1,no=2,missing=1
	1:leaf=-0.00336714205
	2:leaf=-4.21184741e-05
booster[225]:
0:leaf=-0.00149807055
booster[226]:
0:leaf=-0.000605820736
booster[227]:
0:leaf=0.000477284979
booster[228]:
0:[f13<0.5] yes=1,no=2,missing=1
	1:leaf=0.0184098948
	2:leaf=-0.0236271415
booster[229]:
0:leaf=0.00594691327
booster[230]:
0:[f6<0.5] yes=1,no=2,missing=1
	1:leaf=-0.0146254795
	2:leaf=0.00773443282
booster[231]:
0:[f6<0.5] yes=1,no=2,missing=1
	1:leaf=-0.00301908795
	2:leaf=0.000448325911
booster[232]:
0:leaf=-0.00139237917
booster[233]:
0:leaf=-0.000177184746
booster[234]:
0:leaf=0.000468522048
booster[235]:
0:[f6<0.5] yes=1,no=2,missing=1
	1:leaf=-0.0198491551
	2:leaf=0.0215683095
booster[236]:
0:leaf=0.00523742801
booster[237]:
0:[f12<1] yes=1,no=2,missing=1
	1:leaf=0.0101621626
	2:leaf=-0.0118579492
booster[238]:
0:[f6<0.5] yes=1,no=2,missing=1
	1:leaf=-0.00312728691
	2:leaf=0.000818051922
booster[239]:
0:leaf=-0.0013882994
booster[240]:
0:leaf=-0.000464932906
booster[241]:
0:leaf=0.000743653858
booster[242]:
0:[f12<3] yes=1,no=2,missing=1
	1:leaf=0.0246496666
	2:leaf=-0.0159007851
booster[243]:
0:leaf=0.00451190118
booster[244]:
0:[f12<3] yes=1,no=2,missing=1
	1:leaf=-0.0132942712
	2:leaf=0.00903285388
booster[245]:
0:[f6<0.5] yes=1,no=2,missing=1
	1:leaf=-0.00270788558
	2:leaf=0.000561717956
booster[246]:
0:leaf=-0.00119786733
booster[247]:
0:leaf=-0.000919670623
booster[248]:
0:leaf=0.000737153401
booster[249]:
0:[f13<0.5] yes=1,no=2,missing=1
	1:leaf=0.0174612589
	2:leaf=-0.0230089445
booster[250]:
0:leaf=0.00410937797
booster[251]:
0:[f12<1] yes=1,no=2,missing=1
	1:leaf=0.0110350959
	2:leaf=-0.011233761
booster[252]:
0:[f6<0.5] yes=1,no=2,missing=1
	1:leaf=-0.00237557804
	2:leaf=0.000784256321
booster[253]:
0:leaf=-0.0013129455
booster[254]:
0:leaf=-0.000486468663
booster[255]:
0:leaf=0.000799398404
booster[256]:
0:[f6<0.5] yes=1,no=2,missing=1
	1:leaf=-0.0194103941
	2:leaf=0.0203257408
booster[257]:
0:leaf=0.00352635165
booster[258]:
0:[f12<3] yes=1,no=2,missing=1
	1:leaf=-0.012268208
	2:leaf=0.00891596545
booster[259]:
0:[f6<0.5] yes=1,no=2,missing=1
	1:leaf=-0.00233447389
	2:leaf=0.00115397049
booster[260]:
0:leaf=-0.00131417054
booster[261]:
0:leaf=-0.000591672142
booster[262]:
0:leaf=0.000742083299
booster[263]:
0:[f12<3] yes=1,no=2,missing=1
	1:leaf=0.0227327347
	2:leaf=-0.0152483387
booster[264]:
0:leaf=0.00319784484
booster[265]:
0:[f12<1] yes=1,no=2,missing=1
	1:leaf=0.011205853
	2:leaf=-0.0106640989
booster[266]:
0:[f6<0.5] yes=1,no=2,missing=1
	1:leaf=-0.00219620788
	2:leaf=0.000821825466
booster[267]:
0:leaf=-0.00111631141
booster[268]:
0:leaf=-0.0011524728
booster[269]:
0:leaf=0.00100335525
booster[270]:
0:[f13<0.5] yes=1,no=2,missing=1
	1:leaf=0.0167374033
	2:leaf=-0.0224900711
booster[271]:
0:leaf=0.00274828123
booster[272]:
0:[f6<0.5] yes=1,no=2,missing=1
	1:leaf=-0.0122790104
	2:leaf=0.00864699017
booster[273]:
0:[f6<0.5] yes=1,no=2,missing=1
	1:leaf=-0.00196712208
	2:leaf=0.00119934394
booster[274]:
0:leaf=-0.00104285916
booster[275]:
0:leaf=-0.000712297391
booster[276]:
0:leaf=0.000916590041
booster[277]:
0:[f6<0.5] yes=1,no=2,missing=1
	1:leaf=-0.0191314202
	2:leaf=0.0194135997
booster[278]:
0:leaf=0.00242093531
booster[279]:
0:[f12<3] yes=1,no=2,missing=1
	1:leaf=-0.0115515357
	2:leaf=0.00918002427
booster[280]:
0:[f6<0.5] yes=1,no=2,missing=1
	1:leaf=-0.00195950828
	2:leaf=0.00151698524
booster[281]:
0:leaf=-0.00106194371
booster[282]:
0:leaf=-0.000792498002
booster[283]:
0:leaf=0.00083976303
booster[284]:
0:[f12<3] yes=1,no=2,missing=1
	1:leaf=0.0212961119
	2:leaf=-0.0146930888
booster[285]:
0:leaf=0.00222135009
booster[286]:
0:[f12<1] yes=1,no=2,missing=1
	1:leaf=0.011559044
	2:leaf=-0.0101482738
booster[287]:
0:[f6<0.5] yes=1,no=2,missing=1
	1:leaf=-0.00185992278
	2:leaf=0.00116168254
booster[288]:
0:leaf=-0.000895071833
booster[289]:
0:leaf=-0.00130679703
booster[290]:
0:leaf=0.00107510749
booster[291]:
0:[f13<0.5] yes=1,no=2,missing=1
	1:leaf=0.0159929115
	2:leaf=-0.0218074135
booster[292]:
0:leaf=0.00188662566
booster[293]:
0:[f12<1] yes=1,no=2,missing=1
	1:leaf=0.0111471759
	2:leaf=-0.00939097255
booster[294]:
0:[f6<0.5] yes=1,no=2,missing=1
	1:leaf=-0.00161798275
	2:leaf=0.00131143373
booster[295]:
0:leaf=-0.00101835432
booster[296]:
0:leaf=-0.000874314108
booster[297]:
0:leaf=0.00107530376
booster[298]:
0:[f6<0.5] yes=1,no=2,missing=1
	1:leaf=-0.0186375752
	2:leaf=0.0184499901
booster[299]:
0:leaf=0.00157745171
booster[300]:
0:[f12<3] yes=1,no=2,missing=1
	1:leaf=-0.0112863574
	2:leaf=0.00989883579
booster[301]:
0:[f6<0.5] yes=1,no=2,missing=1
	1:leaf=-0.00162988214
	2:leaf=0.00160318275
booster[302]:
0:leaf=-0.00103336747
booster[303]:
0:leaf=-0.000927538669
booster[304]:
0:leaf=0.000968984445
booster[305]:
0:[f12<3] yes=1,no=2,missing=1
	1:leaf=0.0202263556
	2:leaf=-0.0142862005
booster[306]:
0:leaf=0.00148079218
booster[307]:
0:[f12<1] yes=1,no=2,missing=1
	1:leaf=0.0112045398
	2:leaf=-0.00914605521
booster[308]:
0:[f6<0.5] yes=1,no=2,missing=1
	1:leaf=-0.00155795866
	2:leaf=0.00124641182
booster[309]:
0:leaf=-0.000863860303
booster[310]:
0:leaf=-0.00140555156
booster[311]:
0:leaf=0.00116973429
booster[312]:
0:[f13<0.5] yes=1,no=2,missing=1
	1:leaf=0.0154156657
	2:leaf=-0.0212488323
booster[313]:
0:leaf=0.00123940432
booster[314]:
0:[f12<3] yes=1,no=2,missing=1
	1:leaf=-0.0104597937
	2:leaf=0.00974889565
booster[315]:
0:[f6<0.5] yes=1,no=2,missing=1
	1:leaf=-0.00116032851
	2:leaf=0.00142778247
booster[316]:
0:leaf=-0.000990970293
booster[317]:
0:leaf=-0.000840221124
booster[318]:
0:leaf=0.00089392165
booster[319]:
0:[f6<0.5] yes=1,no=2,missing=1
	1:leaf=-0.0182399545
	2:leaf=0.017558746
booster[320]:
0:leaf=0.00119551038
booster[321]:
0:[f12<1] yes=1,no=2,missing=1
	1:leaf=0.011570951
	2:leaf=-0.00921274722
booster[322]:
0:[f6<0.5] yes=1,no=2,missing=1
	1:leaf=-0.0013987422
	2:leaf=0.00164211018
booster[323]:
0:leaf=-0.000991363544
booster[324]:
0:leaf=-0.00103884283
booster[325]:
0:leaf=0.00107069279
booster[326]:
0:[f6<0.5] yes=1,no=2,missing=1
	1:leaf=-0.0167267229
	2:leaf=0.0160251763
booster[327]:
0:leaf=0.000952144095
booster[328]:
0:[f12<3] yes=1,no=2,missing=1
	1:leaf=-0.0101806186
	2:leaf=0.00967092533
booster[329]:
0:[f6<0.5] yes=1,no=2,missing=1
	1:leaf=-0.00140990026
	2:leaf=0.00185944035
booster[330]:
0:leaf=-0.000992261339
booster[331]:
0:leaf=-0.00105550478
booster[332]:
0:leaf=0.000956084637
booster[333]:
0:[f12<3] yes=1,no=2,missing=1
	1:leaf=0.0191467032
	2:leaf=-0.0140055101
booster[334]:
0:leaf=0.000927681045
booster[335]:
0:[f6<0.5] yes=1,no=2,missing=1
	1:leaf=-0.0113188829
	2:leaf=0.00959021319
booster[336]:
0:[f6<0.5] yes=1,no=2,missing=1
	1:leaf=-0.0014153755
	2:leaf=0.00167220342
booster[337]:
0:leaf=-0.000658413046
booster[338]:
0:leaf=-0.00150211959
booster[339]:
0:leaf=0.00105361152
booster[340]:
0:[f13<0.5] yes=1,no=2,missing=1
	1:leaf=0.0152919395
	2:leaf=-0.0212702416
booster[341]:
0:leaf=0.000836815278
booster[342]:
0:[f12<1] yes=1,no=2,missing=1
	1:leaf=0.0116902106
	2:leaf=-0.00881540682
booster[343]:
0:[f6<0.5] yes=1,no=2,missing=1
	1:leaf=-0.00122628734
	2:leaf=0.00176813989
booster[344]:
0:leaf=-0.000799893111
booster[345]:
0:leaf=-0.00108113443
booster[346]:
0:leaf=0.00104772043
booster[347]:
0:[f6<0.5] yes=1,no=2,missing=1
	1:leaf=-0.0165686496
	2:leaf=0.0155951194
booster[348]:
0:leaf=0.000655036187
booster[349]:
0:[f12<3] yes=1,no=2,missing=1
	1:leaf=-0.00991339888
	2:leaf=0.0095319394
