booster[0]:
0:[f35<3.67750001] yes=1,no=2,missing=1
	1:[f33<1.5] yes=3,no=4,missing=3
		3:[f0<4.98400021] yes=7,no=8,missing=7
			7:leaf=0.310169518
			8:leaf=-0.365853667
		4:[f16<1.00600004] yes=9,no=10,missing=9
			9:leaf=-0.314999998
			10:leaf=0.120000005
	2:[f39<0.5] yes=5,no=6,missing=5
		5:[f38<8.44649982] yes=11,no=12,missing=11
			11:leaf=-0.181818187
			12:leaf=-0.517557263
		6:[f0<5.11000013] yes=13,no=14,missing=13
			13:leaf=0.450000018
			14:leaf=-0.150000006
booster[1]:
0:[f35<3.57599998] yes=1,no=2,missing=1
	1:[f29<4.40299988] yes=3,no=4,missing=3
		3:[f0<4.45249987] yes=7,no=8,missing=7
			7:leaf=0.14361161
			8:leaf=-0.270123929
		4:[f5<0.5] yes=9,no=10,missing=9
			9:leaf=0.386702687
			10:leaf=-0.224089742
	2:[f11<-0.806500018] yes=5,no=6,missing=5
		5:[f38<9.03000069] yes=11,no=12,missing=11
			11:leaf=0.261655837
			12:leaf=-0.325704545
		6:[f38<8.44849968] yes=13,no=14,missing=13
			13:leaf=-0.174542829
			14:leaf=-0.403219014
booster[2]:
0:[f35<3.80049992] yes=1,no=2,missing=1
	1:[f29<4.40299988] yes=3,no=4,missing=3
		3:[f38<8.06550026] yes=7,no=8,missing=7
			7:leaf=-0.0022729123
			8:leaf=-0.348595917
		4:[f10<0.5] yes=9,no=10,missing=9
			9:leaf=0.334831387
			10:leaf=-0.145149216
	2:[f21<1.21200001] yes=5,no=6,missing=5
		5:[f26<2.1500001] yes=11,no=12,missing=11
			11:leaf=0.303216845
			12:leaf=-0.234704897
		6:[f15<11.5] yes=13,no=14,missing=13
			13:leaf=-0.367373705
			14:leaf=-0.142608821
booster[3]:
0:[f35<3.80049992] yes=1,no=2,missing=1
	1:[f15<0.5] yes=3,no=4,missing=3
		3:[f0<4.19200039] yes=7,no=8,missing=7
			7:leaf=0.142739713
			8:leaf=-0.302582383
		4:[f0<4.95550013] yes=9,no=10,missing=9
			9:leaf=0.222692519
			10:leaf=-0.178889975
	2:[f21<1.21200001] yes=5,no=6,missing=5
		5:[f0<5.16750002] yes=11,no=12,missing=11
			11:leaf=0.1260501
			12:leaf=-0.280492097
		6:[f13<0.632499993] yes=13,no=14,missing=13
			13:leaf=-0.143211111
			14:leaf=-0.322246045
booster[4]:
0:[f21<1.26850009] yes=1,no=2,missing=1
	1:[f37<0.5] yes=3,no=4,missing=3
		3:[f0<5.10050011] yes=7,no=8,missing=7
			7:leaf=0.228591114
			8:leaf=-0.206124976
		4:[f37<1.5] yes=9,no=10,missing=9
			9:leaf=-0.0614486225
			10:leaf=-0.283257961
	2:[f35<3.57850003] yes=5,no=6,missing=5
		5:[f35<3.34649992] yes=11,no=12,missing=11
			11:leaf=-0.246624157
			12:leaf=0.194148511
		6:[f15<11.5] yes=13,no=14,missing=13
			13:leaf=-0.280359596
			14:leaf=0.0284090787
booster[5]:
0:[f26<2.23799992] yes=1,no=2,missing=1
	1:[f15<0.5] yes=3,no=4,missing=3
		3:[f1<3.08669996] yes=7,no=8,missing=7
			7:leaf=0.0563500673
			8:leaf=-0.268133968
		4:[f7<28.9000015] yes=9,no=10,missing=9
			9:leaf=-0.0564710647
			10:leaf=0.220815971
	2:[f39<0.5] yes=5,no=6,missing=5
		5:[f7<27.2000008] yes=11,no=12,missing=11
			11:leaf=0.202137336
			12:leaf=-0.230616093
		6:[f21<1.25149989] yes=13,no=14,missing=13
			13:leaf=0.349160612
			14:leaf=-0.0105184875
booster[6]:
0:[f0<4.98400021] yes=1,no=2,missing=1
	1:[f11<-0.198500007] yes=3,no=4,missing=3
		3:[f10<0.5] yes=7,no=8,missing=7
			7:leaf=0.28879118
			8:leaf=-0.00372137967
		4:[f38<8.1970005] yes=9,no=10,missing=9
			9:leaf=0.038946107
			10:leaf=-0.182271808
	2:[f39<1.5] yes=5,no=6,missing=5
		5:[f7<23.6499996] yes=11,no=12,missing=11
			11:leaf=0.145717531
			12:leaf=-0.229292363
		6:leaf=0.214900449
booster[7]:
0:[f37<1.5] yes=1,no=2,missing=1
	1:[f2<1.5] yes=3,no=4,missing=3
		3:[f36<2.30149984] yes=7,no=8,missing=7
			7:leaf=-0.0577377044
			8:leaf=0.12141785
		4:[f7<45.9500008] yes=9,no=10,missing=9
			9:leaf=-0.303979129
			10:leaf=-0.11043676
	2:[f13<1.58100009] yes=5,no=6,missing=5
		5:[f35<4.28450012] yes=11,no=12,missing=11
			11:leaf=-0.344320595
			12:leaf=-0.0817677155
		6:[f21<1.18099999] yes=13,no=14,missing=13
			13:leaf=0.288026869
			14:leaf=-0.268172741
booster[8]:
0:[f38<8.48750019] yes=1,no=2,missing=1
	1:[f8<3.5] yes=3,no=4,missing=3
		3:[f1<2.37155008] yes=7,no=8,missing=7
			7:leaf=-0.173620731
			8:leaf=0.102225803
		4:[f0<5.36499977] yes=9,no=10,missing=9
			9:leaf=-0.348703533
			10:leaf=-0.0392317437
	2:[f32<0.5] yes=5,no=6,missing=5
		5:[f5<0.5] yes=11,no=12,missing=11
			11:leaf=0.083409965
			12:leaf=-0.286332339
		6:[f16<1.0710001] yes=13,no=14,missing=13
			13:leaf=-0.270647287
			14:leaf=-0.073545225
booster[9]:
0:[f37<0.5] yes=1,no=2,missing=1
	1:[f21<1.26749992] yes=3,no=4,missing=3
		3:[f8<3.5] yes=7,no=8,missing=7
			7:leaf=0.14755109
			8:leaf=-0.195771366
		4:[f15<10] yes=9,no=10,missing=9
			9:leaf=-0.140388608
			10:leaf=0.26356411
	2:[f14<9.52750015] yes=5,no=6,missing=5
		5:[f1<3.10605001] yes=11,no=12,missing=11
			11:leaf=0.195433244
			12:leaf=-0.174000323
		6:[f11<-0.901499987] yes=13,no=14,missing=13
			13:leaf=0.0780178085
			14:leaf=-0.25166595
booster[10]:
0:[f40<1.5] yes=1,no=2,missing=1
	1:[f37<1.5] yes=3,no=4,missing=3
		3:[f36<3.08999991] yes=7,no=8,missing=7
			7:leaf=0.00405920204
			8:leaf=0.216669619
		4:[f11<-0.6875] yes=9,no=10,missing=9
			9:leaf=0.144190624
			10:leaf=-0.255166233
	2:[f17<1.10400009] yes=5,no=6,missing=5
		5:[f21<1.34949994] yes=11,no=12,missing=11
			11:leaf=0.137850329
			12:leaf=-0.200849742
		6:[f11<-1.13] yes=13,no=14,missing=13
			13:leaf=-0.0820112005
			14:leaf=-0.305918694
booster[11]:
0:[f26<2.37650013] yes=1,no=2,missing=1
	1:[f9<1.5] yes=3,no=4,missing=3
		3:[f14<9.52750015] yes=7,no=8,missing=7
			7:leaf=0.0414667837
			8:leaf=-0.149753839
		4:[f17<1.12549996] yes=9,no=10,missing=9
			9:leaf=0.278683007
			10:leaf=0.0141694713
	2:[f30<1.04099989] yes=5,no=6,missing=5
		5:leaf=0.24260211
		6:[f9<5.5] yes=11,no=12,missing=11
			11:leaf=-0.293703914
			12:leaf=0.0556921177
booster[12]:
0:[f1<2.11304998] yes=1,no=2,missing=1
	1:[f30<7.38000011] yes=3,no=4,missing=3
		3:[f1<1.83100009] yes=7,no=8,missing=7
			7:leaf=-0.048536364
			8:leaf=-0.396265537
		4:leaf=0.0871764645
	2:[f35<3.04250002] yes=5,no=6,missing=5
		5:[f15<0.5] yes=9,no=10,missing=9
			9:leaf=0.32754606
			10:leaf=0.0392342322
		6:[f35<3.37450004] yes=11,no=12,missing=11
			11:leaf=-0.202643156
			12:leaf=0.0297968239
booster[13]:
0:[f40<0.5] yes=1,no=2,missing=1
	1:[f37<0.5] yes=3,no=4,missing=3
		3:[f13<0.196500003] yes=7,no=8,missing=7
			7:leaf=-0.240859672
			8:leaf=0.104020469
		4:[f7<49.2000008] yes=9,no=10,missing=9
			9:leaf=-0.0873443931
			10:leaf=0.261448413
	2:[f16<0.997500002] yes=5,no=6,missing=5
		5:[f0<4.20699978] yes=11,no=12,missing=11
			11:leaf=0.308511794
			12:leaf=-0.095749028
		6:[f17<1.10400009] yes=13,no=14,missing=13
			13:leaf=-0.070849061
			14:leaf=-0.274378002
booster[14]:
0:[f35<3.55849981] yes=1,no=2,missing=1
	1:[f35<3.37450004] yes=3,no=4,missing=3
		3:[f14<8.61000061] yes=7,no=8,missing=7
			7:leaf=0.17140466
			8:leaf=-0.149219111
		4:[f1<3.92560005] yes=9,no=10,missing=9
			9:leaf=0.318323433
			10:leaf=-0.037530683
	2:[f30<1.77199996] yes=5,no=6,missing=5
		5:[f9<0.5] yes=11,no=12,missing=11
			11:leaf=-0.134095103
			12:leaf=0.108415984
		6:[f30<3.19950008] yes=13,no=14,missing=13
			13:leaf=-0.213387728
			14:leaf=0.00191827165
booster[15]:
0:[f26<2.23799992] yes=1,no=2,missing=1
	1:[f7<28.9000015] yes=3,no=4,missing=3
		3:[f36<3.30550003] yes=7,no=8,missing=7
			7:leaf=-0.174579605
			8:leaf=0.102928907
		4:[f9<1.5] yes=9,no=10,missing=9
			9:leaf=0.0523756817
			10:leaf=0.257064581
	2:[f7<27.2000008] yes=5,no=6,missing=5
		5:[f21<1.19749999] yes=11,no=12,missing=11
			11:leaf=0.341538459
			12:leaf=-0.0328237712
		6:[f27<0.000500000024] yes=13,no=14,missing=13
			13:leaf=-0.164473385
			14:leaf=0.0502592511
booster[16]:
0:[f1<3.75449991] yes=1,no=2,missing=1
	1:[f1<2.37144995] yes=3,no=4,missing=3
		3:[f17<1.13950002] yes=7,no=8,missing=7
			7:leaf=-0.188946307
			8:leaf=0.0675959811
		4:[f34<1.5] yes=9,no=10,missing=9
			9:leaf=0.0887341201
			10:leaf=-0.0728289485
	2:[f30<2.30700016] yes=5,no=6,missing=5
		5:[f36<4.09499979] yes=11,no=12,missing=11
			11:leaf=-0.365863621
			12:leaf=0.0886048749
		6:[f0<5.10000038] yes=13,no=14,missing=13
			13:leaf=0.222055867
			14:leaf=-0.203596354
booster[17]:
0:[f11<-0.1875] yes=1,no=2,missing=1
	1:[f24<0.5] yes=3,no=4,missing=3
		3:[f11<-1.68050003] yes=7,no=8,missing=7
			7:leaf=-0.0878764242
			8:leaf=0.14828591
		4:leaf=-0.233043164
	2:[f1<3.0855999] yes=5,no=6,missing=5
		5:[f14<9.68899918] yes=9,no=10,missing=9
			9:leaf=0.119242661
			10:leaf=-0.0862586498
		6:[f17<1.14050007] yes=11,no=12,missing=11
			11:leaf=-0.0240157042
			12:leaf=-0.265387535
booster[18]:
0:[f17<1.18550003] yes=1,no=2,missing=1
	1:[f12<2.56200004] yes=3,no=4,missing=3
		3:[f12<2.20499992] yes=5,no=6,missing=5
			5:leaf=0.047679577
			6:leaf=0.278125167
		4:[f30<3.26399994] yes=7,no=8,missing=7
			7:leaf=-0.043432571
			8:leaf=0.0839358866
	2:leaf=-0.287865162
booster[19]:
0:[f19<0.5] yes=1,no=2,missing=1
	1:[f36<1.99399996] yes=3,no=4,missing=3
		3:[f16<0.970499992] yes=5,no=6,missing=5
			5:leaf=0.0338132195
			6:leaf=-0.230045244
		4:[f27<0.0434999987] yes=7,no=8,missing=7
			7:leaf=0.0614140406
			8:leaf=-0.115069777
	2:leaf=-0.24236542
booster[20]:
0:[f11<1.24749994] yes=1,no=2,missing=1
	1:[f5<0.5] yes=3,no=4,missing=3
		3:[f31<0.5] yes=7,no=8,missing=7
			7:leaf=0.0233202521
			8:leaf=-0.296594918
		4:[f0<5.39000034] yes=9,no=10,missing=9
			9:leaf=-0.301535666
			10:leaf=0.0165315904
	2:[f38<8.06849957] yes=5,no=6,missing=5
		5:leaf=0.357423931
		6:leaf=-0.0809301287
booster[21]:
0:[f37<1.5] yes=1,no=2,missing=1
	1:[f34<0.5] yes=3,no=4,missing=3
		3:[f35<3.23850012] yes=7,no=8,missing=7
			7:leaf=-0.254401803
			8:leaf=-0.00146897987
		4:[f38<8.54249954] yes=9,no=10,missing=9
			9:leaf=0.133735314
			10:leaf=-0.120061904
	2:[f13<1.58100009] yes=5,no=6,missing=5
		5:[f1<3.44994998] yes=11,no=12,missing=11
			11:leaf=-0.267245829
			12:leaf=-0.0160090122
		6:[f21<1.18099999] yes=13,no=14,missing=13
			13:leaf=0.182171196
			14:leaf=-0.171062842
booster[22]:
0:[f7<43.6500015] yes=1,no=2,missing=1
	1:[f21<1.27250004] yes=3,no=4,missing=3
		3:[f7<41.5500031] yes=7,no=8,missing=7
			7:leaf=-0.015588508
			8:leaf=0.250664324
		4:[f17<1.13150001] yes=9,no=10,missing=9
			9:leaf=-0.279708087
			10:leaf=0.0750642717
	2:[f27<0.00350000011] yes=5,no=6,missing=5
		5:[f9<1.5] yes=11,no=12,missing=11
			11:leaf=-0.162864774
			12:leaf=0.102756895
		6:[f1<3.04064989] yes=13,no=14,missing=13
			13:leaf=0.471652061
			14:leaf=0.0152903749
booster[23]:
0:[f32<1.5] yes=1,no=2,missing=1
	1:[f7<43.3499985] yes=3,no=4,missing=3
		3:[f27<0.00350000011] yes=7,no=8,missing=7
			7:leaf=0.0553177856
			8:leaf=-0.133421302
		4:[f16<0.984500051] yes=9,no=10,missing=9
			9:leaf=-0.114967354
			10:leaf=0.19205372
	2:[f38<8.39050007] yes=5,no=6,missing=5
		5:[f17<1.12750006] yes=11,no=12,missing=11
			11:leaf=0.265580356
			12:leaf=-0.0945555419
		6:[f16<1.0710001] yes=13,no=14,missing=13
			13:leaf=-0.240410164
			14:leaf=0.066000551
booster[24]:
0:[f11<1.18400002] yes=1,no=2,missing=1
	1:[f5<0.5] yes=3,no=4,missing=3
		3:[f31<0.5] yes=7,no=8,missing=7
			7:leaf=0.0168292224
			8:leaf=-0.232066005
		4:[f27<0.000500000024] yes=9,no=10,missing=9
			9:leaf=-0.268921256
			10:leaf=0.0525327027
	2:[f35<3.53999996] yes=5,no=6,missing=5
		5:leaf=0.314894289
		6:leaf=-0.0461472832
booster[25]:
0:[f4<2.5] yes=1,no=2,missing=1
	1:[f17<1.176] yes=3,no=4,missing=3
		3:[f36<3.5165] yes=7,no=8,missing=7
			7:leaf=0.00324261701
			8:leaf=0.230011433
		4:leaf=-0.251236945
	2:[f17<1.1624999] yes=5,no=6,missing=5
		5:leaf=-0.252799422
		6:leaf=0.0827477127
booster[26]:
0:[f21<1.11549997] yes=1,no=2,missing=1
	1:[f21<1.09549999] yes=3,no=4,missing=3
		3:[f37<0.5] yes=7,no=8,missing=7
			7:leaf=0.170672774
			8:leaf=-0.119814269
		4:leaf=-0.314047754
	2:[f21<1.16549993] yes=5,no=6,missing=5
		5:[f15<4.5] yes=9,no=10,missing=9
			9:leaf=0.274087906
			10:leaf=-0.0445886031
		6:[f30<3.28399992] yes=11,no=12,missing=11
			11:leaf=-0.0426493809
			12:leaf=0.0861010477
booster[27]:
0:[f12<2.56200004] yes=1,no=2,missing=1
	1:[f8<0.5] yes=3,no=4,missing=3
		3:leaf=-0.0858343393
		4:leaf=0.261435539
	2:[f35<3.37450004] yes=5,no=6,missing=5
		5:[f35<2.99550009] yes=7,no=8,missing=7
			7:leaf=0.152640611
			8:leaf=-0.159153372
		6:[f35<3.55849981] yes=9,no=10,missing=9
			9:leaf=0.166295126
			10:leaf=-0.0267539881
booster[28]:
0:[f1<3.04930019] yes=1,no=2,missing=1
	1:[f6<3.5] yes=3,no=4,missing=3
		3:[f7<44.9000015] yes=7,no=8,missing=7
			7:leaf=0.0127107194
			8:leaf=0.22230491
		4:[f17<1.09750009] yes=9,no=10,missing=9
			9:leaf=0.0576253459
			10:leaf=-0.24329631
	2:[f1<3.0624001] yes=5,no=6,missing=5
		5:leaf=-0.338306963
		6:[f40<0.5] yes=11,no=12,missing=11
			11:leaf=0.00862126239
			12:leaf=-0.196908876
booster[29]:
0:[f36<1.69099998] yes=1,no=2,missing=1
	1:[f16<0.963500023] yes=3,no=4,missing=3
		3:leaf=-0.120523684
		4:leaf=0.331730753
	2:[f36<1.99399996] yes=5,no=6,missing=5
		5:[f30<1.07200003] yes=7,no=8,missing=7
			7:leaf=0.117839754
			8:leaf=-0.179521009
		6:[f1<3.04955006] yes=9,no=10,missing=9
			9:leaf=0.0614198111
			10:leaf=-0.0363410674
booster[30]:
0:[f4<2.5] yes=1,no=2,missing=1
	1:[f15<9.5] yes=3,no=4,missing=3
		3:[f8<3.5] yes=7,no=8,missing=7
			7:leaf=0.00706286356
			8:leaf=-0.240794271
		4:[f26<2.37099981] yes=9,no=10,missing=9
			9:leaf=0.228793189
			10:leaf=-0.0515049063
	2:[f17<1.15849996] yes=5,no=6,missing=5
		5:leaf=-0.23211883
		6:leaf=0.0489379019
booster[31]:
0:[f1<4.17215014] yes=1,no=2,missing=1
	1:[f35<4.43650007] yes=3,no=4,missing=3
		3:[f11<-0.901499987] yes=7,no=8,missing=7
			7:leaf=0.113749951
			8:leaf=-0.018544225
		4:[f38<11.5834999] yes=9,no=10,missing=9
			9:leaf=0.314409852
			10:leaf=-0.174813017
	2:[f0<5.34350014] yes=5,no=6,missing=5
		5:leaf=-0.208031446
		6:leaf=0.0457363017
booster[32]:
0:[f19<0.5] yes=1,no=2,missing=1
	1:[f36<3.08999991] yes=3,no=4,missing=3
		3:[f21<1.11599994] yes=5,no=6,missing=5
			5:leaf=-0.198051766
			6:leaf=0.0075438912
		4:[f17<1.176] yes=7,no=8,missing=7
			7:leaf=0.158635005
			8:leaf=-0.180330664
	2:leaf=-0.201640829
booster[33]:
0:[f38<8.06550026] yes=1,no=2,missing=1
	1:[f27<0.00350000011] yes=3,no=4,missing=3
		3:[f38<7.60050011] yes=7,no=8,missing=7
			7:leaf=-0.0239767153
			8:leaf=0.216022477
		4:[f14<9.29150009] yes=9,no=10,missing=9
			9:leaf=0.0901521295
			10:leaf=-0.149931639
	2:[f9<1.5] yes=5,no=6,missing=5
		5:[f30<1.66499996] yes=11,no=12,missing=11
			11:leaf=0.00330551737
			12:leaf=-0.205728456
		6:[f4<1.5] yes=13,no=14,missing=13
			13:leaf=0.0526044518
			14:leaf=-0.132793218
booster[34]:
0:[f12<2.56200004] yes=1,no=2,missing=1
	1:[f8<0.5] yes=3,no=4,missing=3
		3:leaf=-0.0633240119
		4:leaf=0.237827852
	2:[f21<1.11549997] yes=5,no=6,missing=5
		5:[f34<3.5] yes=7,no=8,missing=7
			7:leaf=-0.227271408
			8:leaf=0.0541488715
		6:[f34<0.5] yes=9,no=10,missing=9
			9:leaf=-0.0451123416
			10:leaf=0.0522512272
booster[35]:
0:[f34<1.5] yes=1,no=2,missing=1
	1:[f34<0.5] yes=3,no=4,missing=3
		3:[f1<2.17295003] yes=7,no=8,missing=7
			7:leaf=-0.19135116
			8:leaf=0.00227899454
		4:[f32<0.5] yes=9,no=10,missing=9
			9:leaf=0.225956574
			10:leaf=-0.0302237868
	2:[f36<2.91149998] yes=5,no=6,missing=5
		5:[f36<2.32700014] yes=11,no=12,missing=11
			11:leaf=-0.014341969
			12:leaf=-0.248477012
		6:[f29<20.1445007] yes=13,no=14,missing=13
			13:leaf=0.147519708
			14:leaf=-0.119649671
booster[36]:
0:[f11<1.18400002] yes=1,no=2,missing=1
	1:[f5<0.5] yes=3,no=4,missing=3
		3:[f31<0.5] yes=7,no=8,missing=7
			7:leaf=0.0133428006
			8:leaf=-0.192708328
		4:[f0<5.39000034] yes=9,no=10,missing=9
			9:leaf=-0.256363094
			10:leaf=0.0484095179
	2:[f35<3.53999996] yes=5,no=6,missing=5
		5:leaf=0.242898241
		6:leaf=-0.0310787391
booster[37]:
0:[f37<0.5] yes=1,no=2,missing=1
	1:[f30<5.66050005] yes=3,no=4,missing=3
		3:[f13<2.18949986] yes=7,no=8,missing=7
			7:leaf=0.0284458622
			8:leaf=-0.173711866
		4:[f17<1.13750005] yes=9,no=10,missing=9
			9:leaf=-0.0295723639
			10:leaf=0.277360439
	2:[f1<2.90584993] yes=5,no=6,missing=5
		5:[f14<10.2849998] yes=11,no=12,missing=11
			11:leaf=0.11740987
			12:leaf=-0.130364686
		6:[f30<1.60549998] yes=13,no=14,missing=13
			13:leaf=-0.00512327207
			14:leaf=-0.200007647
booster[38]:
0:[f30<3.15799999] yes=1,no=2,missing=1
	1:[f30<2.00099993] yes=3,no=4,missing=3
		3:[f1<2.29344988] yes=7,no=8,missing=7
			7:leaf=-0.182626396
			8:leaf=0.0489413589
		4:[f35<3.5999999] yes=9,no=10,missing=9
			9:leaf=0.0105990721
			10:leaf=-0.224930897
	2:[f32<1.5] yes=5,no=6,missing=5
		5:[f7<31.9500008] yes=11,no=12,missing=11
			11:leaf=-0.0103145577
			12:leaf=0.183660567
		6:leaf=-0.176122814
booster[39]:
0:[f6<4.5] yes=1,no=2,missing=1
	1:[f26<2.49800014] yes=3,no=4,missing=3
		3:[f38<9.28349972] yes=5,no=6,missing=5
			5:leaf=-0.02171042
			6:leaf=0.157122239
		4:leaf=0.234094098
	2:leaf=-0.179476321
booster[40]:
0:[f38<11.5834999] yes=1,no=2,missing=1
	1:[f35<4.43650007] yes=3,no=4,missing=3
		3:[f38<8.48750019] yes=5,no=6,missing=5
			5:leaf=0.0196902417
			6:leaf=-0.0851983801
		4:[f17<1.1365] yes=7,no=8,missing=7
			7:leaf=0.0257096384
			8:leaf=0.293140799
	2:leaf=-0.182307318
booster[41]:
0:[f11<-0.807500005] yes=1,no=2,missing=1
	1:[f11<-2.26849985] yes=3,no=4,missing=3
		3:leaf=-0.119594522
		4:[f32<0.5] yes=7,no=8,missing=7
			7:leaf=0.231427103
			8:leaf=-0.080876857
	2:[f7<26.5] yes=5,no=6,missing=5
		5:[f16<1.03850007] yes=9,no=10,missing=9
			9:leaf=-0.182341993
			10:leaf=0.0878056437
		6:[f26<1.97250009] yes=11,no=12,missing=11
			11:leaf=0.142158732
			12:leaf=-0.0167668853
booster[42]:
0:[f12<2.56200004] yes=1,no=2,missing=1
	1:[f7<22.6500015] yes=3,no=4,missing=3
		3:leaf=-0.0250179153
		4:leaf=0.222458109
	2:[f7<41.5999985] yes=5,no=6,missing=5
		5:[f27<0.0115] yes=7,no=8,missing=7
			7:leaf=0.00250126561
			8:leaf=-0.143276572
		6:[f16<0.984500051] yes=9,no=10,missing=9
			9:leaf=-0.155321792
			10:leaf=0.119306386
booster[43]:
0:[f21<1.22749996] yes=1,no=2,missing=1
	1:[f17<1.12549996] yes=3,no=4,missing=3
		3:leaf=0.213742942
		4:[f34<0.5] yes=7,no=8,missing=7
			7:leaf=-0.0536719076
			8:leaf=0.0588933267
	2:[f30<2.03849983] yes=5,no=6,missing=5
		5:[f1<3.08825016] yes=9,no=10,missing=9
			9:leaf=0.0867346078
			10:leaf=-0.090489991
		6:[f1<2.17505002] yes=11,no=12,missing=11
			11:leaf=0.091759786
			12:leaf=-0.19879429
booster[44]:
0:[f36<1.676] yes=1,no=2,missing=1
	1:[f16<0.963500023] yes=3,no=4,missing=3
		3:leaf=-0.0524592772
		4:leaf=0.239299551
	2:[f26<2.37650013] yes=5,no=6,missing=5
		5:[f26<2.3039999] yes=7,no=8,missing=7
			7:leaf=-0.0183925591
			8:leaf=0.126023635
		6:[f26<2.46549988] yes=9,no=10,missing=9
			9:leaf=-0.196804613
			10:leaf=0.0141712343
booster[45]:
0:[f35<2.99550009] yes=1,no=2,missing=1
	1:[f21<1.11150002] yes=3,no=4,missing=3
		3:leaf=-0.0504476018
		4:leaf=0.229732707
	2:[f16<0.986500025] yes=5,no=6,missing=5
		5:[f14<10.625] yes=7,no=8,missing=7
			7:leaf=-0.0961263105
			8:leaf=0.151148513
		6:[f21<1.33850002] yes=9,no=10,missing=9
			9:leaf=0.0458898358
			10:leaf=-0.220688954
booster[46]:
0:[f38<8.48750019] yes=1,no=2,missing=1
	1:[f2<0.5] yes=3,no=4,missing=3
		3:[f38<8.4204998] yes=7,no=8,missing=7
			7:leaf=0.0199460573
			8:leaf=0.27247104
		4:[f27<0.00150000001] yes=9,no=10,missing=9
			9:leaf=-0.199702486
			10:leaf=-0.017384531
	2:[f38<8.72999954] yes=5,no=6,missing=5
		5:[f15<7.5] yes=11,no=12,missing=11
			11:leaf=-0.205081359
			12:leaf=0.0719193593
		6:[f0<4.98449993] yes=13,no=14,missing=13
			13:leaf=0.145763934
			14:leaf=-0.0825138688
booster[47]:
0:[f37<1.5] yes=1,no=2,missing=1
	1:[f1<3.4052] yes=3,no=4,missing=3
		3:[f27<-0.228] yes=7,no=8,missing=7
			7:leaf=0.212993309
			8:leaf=0.0192649867
		4:[f12<3.06750011] yes=9,no=10,missing=9
			9:leaf=-0.252669424
			10:leaf=0.00618757494
	2:[f13<1.58100009] yes=5,no=6,missing=5
		5:[f1<3.44994998] yes=11,no=12,missing=11
			11:leaf=-0.213887364
			12:leaf=0.00134212524
		6:[f34<3.5] yes=13,no=14,missing=13
			13:leaf=-0.0170416161
			14:leaf=0.102236278
booster[48]:
0:[f1<4.17215014] yes=1,no=2,missing=1
	1:[f21<1.26749992] yes=3,no=4,missing=3
		3:[f17<1.12349999] yes=7,no=8,missing=7
			7:leaf=0.162895635
			8:leaf=0.00776752736
		4:[f21<1.31150007] yes=9,no=10,missing=9
			9:leaf=-0.105585359
			10:leaf=0.0677240565
	2:[f38<8.33699989] yes=5,no=6,missing=5
		5:leaf=0.0100382501
		6:leaf=-0.175581738
booster[49]:
0:[f35<3.55849981] yes=1,no=2,missing=1
	1:[f35<3.37450004] yes=3,no=4,missing=3
		3:[f14<9.28199959] yes=7,no=8,missing=7
			7:leaf=0.043273665
			8:leaf=-0.128210708
		4:[f38<8.37349987] yes=9,no=10,missing=9
			9:leaf=0.184333161
			10:leaf=-0.0821604654
	2:[f13<0.632499993] yes=5,no=6,missing=5
		5:[f16<0.99150002] yes=11,no=12,missing=11
			11:leaf=-0.0652906969
			12:leaf=0.234075829
		6:[f21<1.32749999] yes=13,no=14,missing=13
			13:leaf=-0.069373861
			14:leaf=0.0747409463
